163 64
e1 2.511442184448242 2.511441469192505 2.511441469192505 2.5114424228668213 2.511441707611084 2.511441946029663 2.511441469192505 2.511441469192505 2.511441707611084 2.511441707611084 2.511441707611084 2.511441230773926 2.511442184448242 2.511441707611084 2.511441707611084 2.511441469192505 2.511441469192505 2.511441707611084 2.511442184448242 2.511441707611084 2.511441946029663 2.511442184448242 2.511442184448242 2.511441946029663 2.5114424228668213 2.511441946029663 2.511441469192505 2.5114426612854004 2.511441469192505 2.511442184448242 2.5114424228668213 2.511441469192505 2.511441469192505 2.511441946029663 2.511441469192505 2.511441469192505 2.5114424228668213 2.511441946029663 2.511441707611084 2.511441707611084 2.511442184448242 2.511441469192505 2.5114424228668213 2.511442184448242 2.5114424228668213 2.511441946029663 2.511441469192505 2.511441469192505 2.511441946029663 2.511441707611084 2.511441469192505 2.511441946029663 2.5114424228668213 2.511442184448242 2.511441469192505 2.511441946029663 2.511442184448242 2.511441946029663 2.511441946029663 2.511441707611084 2.511441230773926 2.511441469192505 2.511442184448242 2.511441469192505
e2 2.507157325744629 2.5071566104888916 2.5071566104888916 2.507157564163208 2.50715708732605 2.50715708732605 2.5071566104888916 2.5071566104888916 2.50715708732605 2.5071566104888916 2.50715708732605 2.5071563720703125 2.507157325744629 2.50715708732605 2.50715708732605 2.5071566104888916 2.5071566104888916 2.50715708732605 2.507157325744629 2.50715708732605 2.50715708732605 2.507157325744629 2.507157325744629 2.50715708732605 2.507157325744629 2.50715708732605 2.5071566104888916 2.507157564163208 2.5071566104888916 2.507157325744629 2.507157564163208 2.5071566104888916 2.5071566104888916 2.50715708732605 2.5071566104888916 2.5071566104888916 2.507157325744629 2.50715708732605 2.50715708732605 2.50715708732605 2.507157325744629 2.5071566104888916 2.507157564163208 2.507157325744629 2.507157325744629 2.50715708732605 2.5071566104888916 2.5071566104888916 2.50715708732605 2.50715708732605 2.5071566104888916 2.50715708732605 2.507157564163208 2.50715708732605 2.5071566104888916 2.50715708732605 2.507157325744629 2.50715708732605 2.50715708732605 2.50715708732605 2.5071563720703125 2.5071566104888916 2.507157325744629 2.5071566104888916
e3 2.5063962936401367 2.5063960552215576 2.5063960552215576 2.506396770477295 2.5063960552215576 2.5063962936401367 2.5063960552215576 2.5063960552215576 2.5063960552215576 2.5063960552215576 2.5063960552215576 2.5063958168029785 2.5063962936401367 2.5063960552215576 2.5063960552215576 2.5063960552215576 2.5063960552215576 2.5063960552215576 2.5063962936401367 2.5063960552215576 2.5063962936401367 2.5063962936401367 2.5063962936401367 2.5063962936401367 2.506396532058716 2.5063960552215576 2.5063958168029785 2.506396770477295 2.5063960552215576 2.5063962936401367 2.506396770477295 2.5063960552215576 2.5063960552215576 2.5063960552215576 2.5063960552215576 2.5063960552215576 2.506396770477295 2.5063962936401367 2.5063960552215576 2.5063960552215576 2.5063962936401367 2.5063958168029785 2.506396770477295 2.5063962936401367 2.506396770477295 2.5063960552215576 2.5063960552215576 2.5063960552215576 2.5063962936401367 2.5063960552215576 2.5063960552215576 2.5063962936401367 2.506396770477295 2.5063962936401367 2.5063958168029785 2.5063960552215576 2.5063962936401367 2.5063960552215576 2.5063960552215576 2.5063960552215576 2.5063958168029785 2.5063960552215576 2.5063962936401367 2.5063958168029785
e4 2.509024143218994 2.509023427963257 2.509023427963257 2.5090243816375732 2.509023666381836 2.509023904800415 2.509023427963257 2.509023427963257 2.509023666381836 2.509023666381836 2.509023666381836 2.5090231895446777 2.509024143218994 2.509023666381836 2.509023666381836 2.509023427963257 2.509023427963257 2.509023666381836 2.509024143218994 2.509023666381836 2.509023666381836 2.509024143218994 2.509024143218994 2.509023904800415 2.509024143218994 2.509023666381836 2.509023427963257 2.5090243816375732 2.509023427963257 2.509024143218994 2.509024143218994 2.509023427963257 2.509023427963257 2.509023666381836 2.509023427963257 2.509023427963257 2.5090243816375732 2.509023904800415 2.509023666381836 2.509023666381836 2.509024143218994 2.509023427963257 2.5090243816375732 2.509024143218994 2.509024143218994 2.509023666381836 2.509023427963257 2.509023427963257 2.509023904800415 2.509023666381836 2.509023427963257 2.509023904800415 2.5090243816375732 2.509023904800415 2.509023427963257 2.509023666381836 2.509024143218994 2.509023666381836 2.509023666381836 2.509023666381836 2.5090231895446777 2.509023427963257 2.509024143218994 2.509023427963257
e5 2.5034403800964355 2.5034399032592773 2.5034399032592773 2.5034406185150146 2.5034399032592773 2.5034401416778564 2.5034399032592773 2.5034399032592773 2.5034401416778564 2.5034399032592773 2.5034399032592773 2.5034399032592773 2.5034403800964355 2.5034401416778564 2.5034401416778564 2.5034399032592773 2.5034399032592773 2.5034401416778564 2.5034403800964355 2.5034399032592773 2.5034401416778564 2.5034403800964355 2.5034403800964355 2.5034401416778564 2.5034406185150146 2.5034401416778564 2.5034399032592773 2.5034406185150146 2.5034399032592773 2.5034403800964355 2.5034406185150146 2.5034399032592773 2.5034399032592773 2.5034401416778564 2.5034399032592773 2.5034399032592773 2.5034406185150146 2.5034401416778564 2.5034401416778564 2.5034399032592773 2.5034403800964355 2.5034399032592773 2.5034406185150146 2.5034403800964355 2.5034406185150146 2.5034401416778564 2.5034399032592773 2.5034399032592773 2.5034401416778564 2.5034399032592773 2.5034399032592773 2.5034403800964355 2.5034406185150146 2.5034403800964355 2.5034399032592773 2.5034401416778564 2.5034403800964355 2.5034401416778564 2.5034401416778564 2.5034401416778564 2.5034399032592773 2.5034399032592773 2.5034403800964355 2.5034399032592773
e6 2.5047860145568848 2.5047857761383057 2.5047857761383057 2.504786252975464 2.5047857761383057 2.5047860145568848 2.5047857761383057 2.5047857761383057 2.5047860145568848 2.5047857761383057 2.5047857761383057 2.5047855377197266 2.5047860145568848 2.5047860145568848 2.5047860145568848 2.5047857761383057 2.5047857761383057 2.5047857761383057 2.5047860145568848 2.5047857761383057 2.5047860145568848 2.5047860145568848 2.5047860145568848 2.5047860145568848 2.504786252975464 2.5047860145568848 2.5047855377197266 2.504786491394043 2.5047857761383057 2.5047860145568848 2.504786252975464 2.5047857761383057 2.5047857761383057 2.5047860145568848 2.5047857761383057 2.5047857761383057 2.504786252975464 2.5047860145568848 2.5047857761383057 2.5047857761383057 2.5047860145568848 2.5047855377197266 2.504786252975464 2.5047860145568848 2.504786252975464 2.5047860145568848 2.5047857761383057 2.5047857761383057 2.5047860145568848 2.5047857761383057 2.5047857761383057 2.5047860145568848 2.504786252975464 2.5047860145568848 2.5047857761383057 2.5047860145568848 2.5047860145568848 2.5047860145568848 2.5047860145568848 2.5047857761383057 2.5047855377197266 2.5047857761383057 2.5047860145568848 2.5047857761383057
e7 2.5055251121520996 2.5055246353149414 2.5055246353149414 2.5055253505706787 2.5055248737335205 2.5055248737335205 2.5055246353149414 2.5055246353149414 2.5055248737335205 2.5055248737335205 2.5055248737335205 2.505524158477783 2.5055251121520996 2.5055248737335205 2.5055248737335205 2.5055248737335205 2.5055248737335205 2.5055248737335205 2.5055251121520996 2.5055248737335205 2.5055248737335205 2.5055251121520996 2.5055251121520996 2.5055248737335205 2.5055253505706787 2.5055248737335205 2.5055246353149414 2.505525588989258 2.5055246353149414 2.5055251121520996 2.5055253505706787 2.5055246353149414 2.5055248737335205 2.5055248737335205 2.5055246353149414 2.5055246353149414 2.5055253505706787 2.5055248737335205 2.5055248737335205 2.5055248737335205 2.5055251121520996 2.5055246353149414 2.5055253505706787 2.5055251121520996 2.5055253505706787 2.5055248737335205 2.5055246353149414 2.5055246353149414 2.5055248737335205 2.5055248737335205 2.5055248737335205 2.5055248737335205 2.505525588989258 2.5055248737335205 2.5055246353149414 2.5055248737335205 2.5055251121520996 2.5055248737335205 2.5055248737335205 2.5055248737335205 2.505524158477783 2.5055246353149414 2.5055251121520996 2.5055246353149414
e8 2.5060935020446777 2.5060930252075195 2.5060927867889404 2.506093740463257 2.5060930252075195 2.5060932636260986 2.5060930252075195 2.5060927867889404 2.5060930252075195 2.5060930252075195 2.5060930252075195 2.5060925483703613 2.5060935020446777 2.5060930252075195 2.5060930252075195 2.5060930252075195 2.5060930252075195 2.5060930252075195 2.5060935020446777 2.5060930252075195 2.5060932636260986 2.5060935020446777 2.5060935020446777 2.5060932636260986 2.5060935020446777 2.5060932636260986 2.5060927867889404 2.506093740463257 2.5060927867889404 2.5060935020446777 2.506093740463257 2.5060930252075195 2.5060930252075195 2.5060930252075195 2.5060930252075195 2.5060927867889404 2.5060935020446777 2.5060932636260986 2.5060930252075195 2.5060930252075195 2.5060935020446777 2.5060927867889404 2.506093740463257 2.5060935020446777 2.506093740463257 2.5060930252075195 2.5060927867889404 2.5060930252075195 2.5060932636260986 2.5060930252075195 2.5060930252075195 2.5060930252075195 2.506093740463257 2.5060932636260986 2.5060927867889404 2.5060930252075195 2.5060935020446777 2.5060932636260986 2.5060930252075195 2.5060932636260986 2.5060925483703613 2.5060927867889404 2.5060935020446777 2.5060927867889404
e9 2.5068793296813965 2.506878614425659 2.506878614425659 2.5068798065185547 2.5068790912628174 2.5068790912628174 2.506878614425659 2.506878614425659 2.5068790912628174 2.506878614425659 2.5068790912628174 2.50687837600708 2.5068793296813965 2.5068790912628174 2.5068790912628174 2.506878614425659 2.506878614425659 2.5068790912628174 2.5068793296813965 2.5068790912628174 2.5068790912628174 2.5068793296813965 2.5068798065185547 2.5068790912628174 2.5068798065185547 2.5068790912628174 2.506878614425659 2.5068798065185547 2.506878614425659 2.5068793296813965 2.5068798065185547 2.506878614425659 2.506878614425659 2.5068790912628174 2.506878614425659 2.506878614425659 2.5068798065185547 2.5068790912628174 2.5068790912628174 2.5068790912628174 2.5068793296813965 2.506878614425659 2.5068798065185547 2.5068793296813965 2.5068798065185547 2.5068790912628174 2.506878614425659 2.506878614425659 2.5068790912628174 2.5068790912628174 2.506878614425659 2.5068790912628174 2.5068798065185547 2.5068790912628174 2.506878614425659 2.5068790912628174 2.5068793296813965 2.5068790912628174 2.5068790912628174 2.5068790912628174 2.50687837600708 2.506878614425659 2.5068793296813965 2.506878614425659
e10 2.5081639289855957 2.5081634521484375 2.5081634521484375 2.508164405822754 2.5081634521484375 2.5081636905670166 2.5081634521484375 2.5081634521484375 2.5081636905670166 2.5081634521484375 2.5081634521484375 2.5081629753112793 2.5081639289855957 2.5081636905670166 2.5081636905670166 2.5081634521484375 2.5081634521484375 2.5081634521484375 2.5081639289855957 2.5081636905670166 2.5081636905670166 2.5081639289855957 2.5081639289855957 2.5081639289855957 2.508164405822754 2.5081636905670166 2.5081634521484375 2.508164405822754 2.5081634521484375 2.5081639289855957 2.508164405822754 2.5081634521484375 2.5081634521484375 2.5081636905670166 2.5081634521484375 2.5081634521484375 2.508164405822754 2.5081639289855957 2.5081634521484375 2.5081634521484375 2.5081639289855957 2.5081632137298584 2.508164405822754 2.5081639289855957 2.508164405822754 2.5081636905670166 2.5081634521484375 2.5081634521484375 2.5081639289855957 2.5081634521484375 2.5081634521484375 2.5081639289855957 2.508164405822754 2.5081639289855957 2.5081634521484375 2.5081636905670166 2.5081639289855957 2.5081636905670166 2.5081636905670166 2.5081636905670166 2.5081629753112793 2.5081634521484375 2.5081639289855957 2.5081634521484375
e11 2.509474754333496 2.509474515914917 2.509474515914917 2.509474992752075 2.509474515914917 2.509474515914917 2.509474515914917 2.509474515914917 2.509474515914917 2.509474515914917 2.509474515914917 2.509474277496338 2.509474754333496 2.509474515914917 2.509474515914917 2.509474515914917 2.509474515914917 2.509474515914917 2.509474754333496 2.509474515914917 2.509474515914917 2.509474754333496 2.509474754333496 2.509474515914917 2.509474754333496 2.509474515914917 2.509474515914917 2.5094752311706543 2.509474515914917 2.509474754333496 2.5094752311706543 2.509474515914917 2.509474515914917 2.509474515914917 2.509474515914917 2.509474515914917 2.5094752311706543 2.509474515914917 2.509474515914917 2.509474515914917 2.509474754333496 2.509474515914917 2.5094752311706543 2.509474754333496 2.5094752311706543 2.509474515914917 2.509474515914917 2.509474515914917 2.509474515914917 2.509474515914917 2.509474515914917 2.509474515914917 2.5094752311706543 2.509474515914917 2.509474515914917 2.509474515914917 2.509474754333496 2.509474515914917 2.509474515914917 2.509474515914917 2.509474277496338 2.509474515914917 2.509474754333496 2.509474515914917
e12 2.510592460632324 2.510591983795166 2.510591983795166 2.5105926990509033 2.510591983795166 2.510592222213745 2.510591983795166 2.510591983795166 2.510592222213745 2.510591983795166 2.510591983795166 2.510591983795166 2.510592460632324 2.510592222213745 2.510592222213745 2.510591983795166 2.510591983795166 2.510592222213745 2.510592460632324 2.510591983795166 2.510592222213745 2.510592460632324 2.510592460632324 2.510592222213745 2.510592460632324 2.510592222213745 2.510591983795166 2.5105929374694824 2.510591983795166 2.510592460632324 2.510592460632324 2.510591983795166 2.510591983795166 2.510592222213745 2.510591983795166 2.510591983795166 2.510592460632324 2.510592222213745 2.510591983795166 2.510591983795166 2.510592460632324 2.510591983795166 2.510592460632324 2.510592460632324 2.510592460632324 2.510592222213745 2.510591983795166 2.510591983795166 2.510592222213745 2.510591983795166 2.510591983795166 2.510592222213745 2.5105926990509033 2.510592222213745 2.510591983795166 2.510592222213745 2.510592460632324 2.510592222213745 2.510592222213745 2.510592222213745 2.510591983795166 2.510591983795166 2.510592460632324 2.510591983795166
e13 2.512052536010742 2.512052536010742 2.5120527744293213 2.5120530128479004 2.512052536010742 2.5120527744293213 2.512052536010742 2.512052297592163 2.512052536010742 2.5120527744293213 2.512052536010742 2.512052059173584 2.5120530128479004 2.5120527744293213 2.5120527744293213 2.512052536010742 2.512052536010742 2.5120527744293213 2.512052536010742 2.512052536010742 2.512052536010742 2.5120530128479004 2.5120530128479004 2.512052536010742 2.5120530128479004 2.512052536010742 2.512052297592163 2.5120530128479004 2.512052297592163 2.5120530128479004 2.5120530128479004 2.512052536010742 2.512052536010742 2.5120527744293213 2.512052536010742 2.512052297592163 2.5120530128479004 2.512052536010742 2.5120527744293213 2.512052536010742 2.5120530128479004 2.512052297592163 2.5120530128479004 2.5120530128479004 2.5120530128479004 2.5120527744293213 2.512052297592163 2.512052297592163 2.512052536010742 2.5120527744293213 2.512052536010742 2.5120527744293213 2.5120530128479004 2.5120527744293213 2.512052297592163 2.5120527744293213 2.5120530128479004 2.512052536010742 2.512052536010742 2.5120527744293213 2.512052059173584 2.512052297592163 2.5120530128479004 2.512052297592163
e14 2.5092554092407227 2.5092551708221436 2.5092551708221436 2.5092556476593018 2.5092551708221436 2.5092551708221436 2.5092551708221436 2.5092551708221436 2.5092551708221436 2.5092551708221436 2.5092551708221436 2.5092549324035645 2.5092554092407227 2.5092551708221436 2.5092551708221436 2.5092551708221436 2.5092551708221436 2.5092551708221436 2.5092554092407227 2.5092551708221436 2.5092551708221436 2.5092554092407227 2.5092554092407227 2.5092551708221436 2.5092556476593018 2.5092551708221436 2.5092551708221436 2.5092556476593018 2.5092551708221436 2.5092554092407227 2.5092556476593018 2.5092551708221436 2.5092551708221436 2.5092551708221436 2.5092551708221436 2.5092551708221436 2.5092556476593018 2.5092554092407227 2.5092551708221436 2.5092551708221436 2.5092554092407227 2.5092551708221436 2.5092556476593018 2.5092554092407227 2.5092556476593018 2.5092551708221436 2.5092551708221436 2.5092551708221436 2.5092551708221436 2.5092551708221436 2.5092551708221436 2.5092551708221436 2.5092556476593018 2.5092554092407227 2.5092551708221436 2.5092551708221436 2.5092554092407227 2.5092551708221436 2.5092551708221436 2.5092551708221436 2.5092549324035645 2.5092551708221436 2.5092554092407227 2.5092551708221436
e15 2.508324146270752 2.508323907852173 2.508323907852173 2.508324146270752 2.508323907852173 2.508323907852173 2.508323907852173 2.5083234310150146 2.508323907852173 2.508323907852173 2.508323907852173 2.5083231925964355 2.508324146270752 2.508323907852173 2.508323907852173 2.508323907852173 2.508323907852173 2.508323907852173 2.508324146270752 2.508323907852173 2.508323907852173 2.508324146270752 2.508324146270752 2.508323907852173 2.508324146270752 2.508323907852173 2.5083234310150146 2.508324146270752 2.5083234310150146 2.508324146270752 2.508324146270752 2.5083234310150146 2.508323907852173 2.508323907852173 2.508323907852173 2.508323907852173 2.508324146270752 2.508323907852173 2.508323907852173 2.508323907852173 2.508324146270752 2.5083234310150146 2.508324146270752 2.508324146270752 2.508324146270752 2.508323907852173 2.5083234310150146 2.508323907852173 2.508323907852173 2.508323907852173 2.508323907852173 2.508323907852173 2.508324146270752 2.508323907852173 2.5083236694335938 2.508323907852173 2.508324146270752 2.508323907852173 2.508323907852173 2.508323907852173 2.5083231925964355 2.5083234310150146 2.508324146270752 2.5083236694335938
e16 2.510194778442383 2.5101943016052246 2.5101943016052246 2.510194778442383 2.5101940631866455 2.5101945400238037 2.5101940631866455 2.5101940631866455 2.5101943016052246 2.5101943016052246 2.5101940631866455 2.5101938247680664 2.510194778442383 2.5101945400238037 2.5101945400238037 2.5101943016052246 2.5101943016052246 2.5101943016052246 2.510194778442383 2.5101940631866455 2.5101943016052246 2.510194778442383 2.510194778442383 2.5101945400238037 2.510194778442383 2.5101943016052246 2.5101940631866455 2.510195016860962 2.5101943016052246 2.510194778442383 2.510194778442383 2.5101943016052246 2.5101943016052246 2.5101943016052246 2.5101943016052246 2.5101943016052246 2.510194778442383 2.5101945400238037 2.5101943016052246 2.5101940631866455 2.510194778442383 2.5101940631866455 2.510194778442383 2.510194778442383 2.510194778442383 2.5101943016052246 2.5101943016052246 2.5101943016052246 2.5101945400238037 2.5101943016052246 2.5101943016052246 2.5101945400238037 2.510194778442383 2.5101945400238037 2.5101943016052246 2.5101945400238037 2.510194778442383 2.5101943016052246 2.5101943016052246 2.5101943016052246 2.5101938247680664 2.5101943016052246 2.510194778442383 2.5101943016052246
e17 2.5077013969421387 2.507701873779297 2.507701873779297 2.5077009201049805 2.5077016353607178 2.5077016353607178 2.5077016353607178 2.5077016353607178 2.5077016353607178 2.5077016353607178 2.5077016353607178 2.507701873779297 2.5077013969421387 2.5077016353607178 2.5077016353607178 2.5077016353607178 2.5077016353607178 2.5077016353607178 2.5077013969421387 2.5077016353607178 2.5077011585235596 2.5077013969421387 2.5077013969421387 2.5077011585235596 2.5077013969421387 2.5077011585235596 2.5077016353607178 2.5077011585235596 2.5077016353607178 2.5077013969421387 2.5077011585235596 2.5077016353607178 2.5077016353607178 2.5077016353607178 2.507702112197876 2.507702112197876 2.5077011585235596 2.5077011585235596 2.5077016353607178 2.5077016353607178 2.5077013969421387 2.507702112197876 2.5077011585235596 2.5077013969421387 2.5077011585235596 2.5077016353607178 2.5077016353607178 2.507701873779297 2.5077011585235596 2.5077016353607178 2.5077016353607178 2.5077016353607178 2.5077009201049805 2.5077016353607178 2.507702112197876 2.5077016353607178 2.5077013969421387 2.5077016353607178 2.5077016353607178 2.5077016353607178 2.507701873779297 2.507701873779297 2.5077013969421387 2.507702112197876
e18 2.5078892707824707 2.5078890323638916 2.5078890323638916 2.507889747619629 2.5078890323638916 2.5078892707824707 2.5078890323638916 2.5078890323638916 2.5078892707824707 2.5078890323638916 2.5078890323638916 2.5078887939453125 2.5078892707824707 2.5078892707824707 2.5078892707824707 2.5078890323638916 2.5078890323638916 2.5078892707824707 2.5078892707824707 2.5078892707824707 2.5078892707824707 2.5078892707824707 2.507889747619629 2.5078892707824707 2.507889747619629 2.5078892707824707 2.5078887939453125 2.507889747619629 2.5078890323638916 2.5078892707824707 2.507889747619629 2.5078890323638916 2.5078890323638916 2.5078892707824707 2.5078890323638916 2.5078890323638916 2.507889747619629 2.5078892707824707 2.5078890323638916 2.5078890323638916 2.5078892707824707 2.5078887939453125 2.507889747619629 2.5078892707824707 2.507889747619629 2.5078892707824707 2.5078890323638916 2.5078890323638916 2.5078892707824707 2.5078890323638916 2.5078890323638916 2.5078892707824707 2.507889747619629 2.5078892707824707 2.5078890323638916 2.5078892707824707 2.5078892707824707 2.5078892707824707 2.5078892707824707 2.5078892707824707 2.5078887939453125 2.5078890323638916 2.5078892707824707 2.5078890323638916
e19 2.5118160247802734 2.511815309524536 2.511815309524536 2.5118160247802734 2.511815309524536 2.5118157863616943 2.511815309524536 2.511815309524536 2.511815309524536 2.511815309524536 2.511815309524536 2.511815071105957 2.5118160247802734 2.511815309524536 2.511815309524536 2.511815309524536 2.511815309524536 2.511815309524536 2.5118155479431152 2.511815309524536 2.5118157863616943 2.5118160247802734 2.5118160247802734 2.5118157863616943 2.5118160247802734 2.5118157863616943 2.511815309524536 2.5118160247802734 2.511815309524536 2.5118155479431152 2.5118157863616943 2.511815309524536 2.511815309524536 2.511815309524536 2.511815309524536 2.5118155479431152 2.5118160247802734 2.5118157863616943 2.511815309524536 2.511815309524536 2.5118160247802734 2.511815309524536 2.5118160247802734 2.5118160247802734 2.5118160247802734 2.511815309524536 2.511815309524536 2.5118155479431152 2.5118157863616943 2.511815309524536 2.511815309524536 2.5118157863616943 2.5118160247802734 2.5118157863616943 2.5118155479431152 2.511815309524536 2.5118160247802734 2.5118157863616943 2.511815309524536 2.511815309524536 2.511815071105957 2.511815309524536 2.5118160247802734 2.511815309524536
e20 2.5129833221435547 2.5129826068878174 2.5129826068878174 2.5129833221435547 2.5129826068878174 2.5129828453063965 2.5129826068878174 2.5129826068878174 2.5129826068878174 2.5129826068878174 2.5129826068878174 2.5129823684692383 2.5129833221435547 2.5129826068878174 2.5129828453063965 2.5129826068878174 2.5129826068878174 2.5129826068878174 2.5129828453063965 2.5129826068878174 2.5129828453063965 2.5129833221435547 2.5129833221435547 2.5129828453063965 2.5129830837249756 2.5129828453063965 2.5129826068878174 2.5129833221435547 2.5129826068878174 2.5129828453063965 2.5129830837249756 2.5129826068878174 2.5129826068878174 2.5129828453063965 2.5129826068878174 2.5129828453063965 2.5129830837249756 2.5129830837249756 2.5129826068878174 2.5129826068878174 2.5129833221435547 2.5129826068878174 2.5129830837249756 2.5129833221435547 2.5129830837249756 2.5129828453063965 2.5129826068878174 2.5129828453063965 2.5129828453063965 2.5129826068878174 2.5129826068878174 2.5129830837249756 2.5129833221435547 2.5129830837249756 2.5129828453063965 2.5129828453063965 2.5129833221435547 2.5129828453063965 2.5129826068878174 2.5129826068878174 2.5129823684692383 2.5129826068878174 2.5129833221435547 2.5129826068878174
e21 2.515735149383545 2.515734910964966 2.515734910964966 2.515735387802124 2.515734910964966 2.515734910964966 2.515734910964966 2.515734910964966 2.515734910964966 2.515734910964966 2.515734910964966 2.5157346725463867 2.515735149383545 2.515734910964966 2.515734910964966 2.515734910964966 2.515734910964966 2.515734910964966 2.515735149383545 2.515734910964966 2.515734910964966 2.515735149383545 2.515735149383545 2.515734910964966 2.515735387802124 2.515734910964966 2.515734910964966 2.515735387802124 2.515734910964966 2.515735149383545 2.515735149383545 2.515734910964966 2.515734910964966 2.515734910964966 2.515734910964966 2.515734910964966 2.515735387802124 2.515734910964966 2.515734910964966 2.515734910964966 2.515735149383545 2.515734910964966 2.515735387802124 2.515735149383545 2.515735387802124 2.515734910964966 2.515734910964966 2.515734910964966 2.515734910964966 2.515734910964966 2.515734910964966 2.515735149383545 2.515735387802124 2.515734910964966 2.515734910964966 2.515734910964966 2.515735149383545 2.515734910964966 2.515734910964966 2.515734910964966 2.5157346725463867 2.515734910964966 2.515735149383545 2.515734910964966
e22 2.512744426727295 2.512744188308716 2.512744188308716 2.512744903564453 2.512744188308716 2.512744426727295 2.512744188308716 2.512744188308716 2.512744188308716 2.512744188308716 2.512744188308716 2.5127439498901367 2.512744426727295 2.512744188308716 2.512744188308716 2.512744188308716 2.512744188308716 2.512744188308716 2.512744426727295 2.512744188308716 2.512744426727295 2.512744903564453 2.512744903564453 2.512744426727295 2.512744903564453 2.512744426727295 2.512744188308716 2.512744903564453 2.512744188308716 2.512744426727295 2.512744903564453 2.512744188308716 2.512744188308716 2.512744188308716 2.512744188308716 2.512744426727295 2.512744903564453 2.512744426727295 2.512744188308716 2.512744188308716 2.512744426727295 2.512744188308716 2.512744903564453 2.512744426727295 2.512744903564453 2.512744188308716 2.512744188308716 2.512744426727295 2.512744426727295 2.512744188308716 2.512744188308716 2.512744665145874 2.512744903564453 2.512744426727295 2.512744426727295 2.512744188308716 2.512744426727295 2.512744188308716 2.512744188308716 2.512744188308716 2.5127439498901367 2.512744188308716 2.512744426727295 2.512744188308716
e23 2.5166187286376953 2.516618490219116 2.516618490219116 2.5166189670562744 2.516618490219116 2.5166187286376953 2.516618490219116 2.516618490219116 2.5166187286376953 2.516618490219116 2.516618490219116 2.516618251800537 2.5166187286376953 2.5166187286376953 2.5166187286376953 2.516618490219116 2.516618490219116 2.516618490219116 2.5166187286376953 2.516618490219116 2.5166187286376953 2.5166192054748535 2.5166192054748535 2.5166187286376953 2.5166189670562744 2.5166187286376953 2.516618490219116 2.5166189670562744 2.516618490219116 2.5166187286376953 2.5166189670562744 2.516618490219116 2.516618490219116 2.5166187286376953 2.516618490219116 2.516618490219116 2.5166189670562744 2.5166187286376953 2.516618490219116 2.516618490219116 2.5166187286376953 2.516618490219116 2.5166189670562744 2.5166187286376953 2.5166189670562744 2.5166187286376953 2.516618490219116 2.516618490219116 2.5166187286376953 2.516618490219116 2.516618490219116 2.5166187286376953 2.5166189670562744 2.5166187286376953 2.516618490219116 2.5166187286376953 2.5166187286376953 2.5166187286376953 2.5166187286376953 2.516618490219116 2.516618251800537 2.516618490219116 2.5166187286376953 2.516618490219116
e24 2.5156216621398926 2.5156214237213135 2.5156211853027344 2.5156216621398926 2.5156214237213135 2.5156214237213135 2.5156214237213135 2.5156214237213135 2.5156214237213135 2.5156214237213135 2.5156214237213135 2.5156211853027344 2.5156216621398926 2.5156214237213135 2.5156214237213135 2.5156214237213135 2.5156214237213135 2.5156214237213135 2.5156216621398926 2.5156214237213135 2.5156214237213135 2.5156216621398926 2.5156216621398926 2.5156214237213135 2.5156216621398926 2.5156214237213135 2.5156211853027344 2.5156219005584717 2.5156214237213135 2.5156216621398926 2.5156216621398926 2.5156214237213135 2.5156214237213135 2.5156214237213135 2.5156214237213135 2.5156214237213135 2.5156216621398926 2.5156216621398926 2.5156214237213135 2.5156211853027344 2.5156216621398926 2.5156211853027344 2.5156216621398926 2.5156216621398926 2.5156216621398926 2.5156214237213135 2.5156214237213135 2.5156214237213135 2.5156214237213135 2.5156214237213135 2.5156214237213135 2.5156214237213135 2.5156219005584717 2.5156216621398926 2.5156214237213135 2.5156214237213135 2.5156216621398926 2.5156214237213135 2.5156214237213135 2.5156214237213135 2.5156211853027344 2.5156214237213135 2.5156216621398926 2.5156211853027344
e25 2.5157766342163086 2.5157763957977295 2.5157763957977295 2.5157768726348877 2.5157763957977295 2.5157763957977295 2.5157763957977295 2.5157763957977295 2.5157763957977295 2.5157763957977295 2.5157763957977295 2.5157761573791504 2.5157766342163086 2.5157763957977295 2.5157763957977295 2.5157763957977295 2.5157763957977295 2.5157763957977295 2.5157766342163086 2.5157763957977295 2.5157763957977295 2.515777111053467 2.5157766342163086 2.5157763957977295 2.5157768726348877 2.5157763957977295 2.5157763957977295 2.515777111053467 2.5157763957977295 2.5157766342163086 2.5157768726348877 2.5157763957977295 2.5157763957977295 2.5157763957977295 2.5157763957977295 2.5157763957977295 2.5157768726348877 2.5157766342163086 2.5157763957977295 2.5157763957977295 2.5157766342163086 2.5157763957977295 2.5157768726348877 2.5157766342163086 2.5157768726348877 2.5157763957977295 2.5157763957977295 2.5157763957977295 2.5157763957977295 2.5157763957977295 2.5157763957977295 2.5157766342163086 2.515777111053467 2.5157766342163086 2.5157763957977295 2.5157763957977295 2.5157766342163086 2.5157763957977295 2.5157763957977295 2.5157763957977295 2.5157761573791504 2.5157763957977295 2.5157766342163086 2.5157763957977295
e26 2.511641025543213 2.511640787124634 2.511640787124634 2.511641025543213 2.511640787124634 2.511640787124634 2.511640787124634 2.511640787124634 2.511640787124634 2.511640787124634 2.511640787124634 2.5116405487060547 2.511641025543213 2.511640787124634 2.511640787124634 2.511640787124634 2.511640787124634 2.511640787124634 2.511641025543213 2.511640787124634 2.511640787124634 2.511641502380371 2.511641025543213 2.511640787124634 2.511641263961792 2.511640787124634 2.511640787124634 2.511641025543213 2.511640787124634 2.511641025543213 2.511641025543213 2.511640787124634 2.511640787124634 2.511640787124634 2.511640787124634 2.511641025543213 2.511641263961792 2.511640787124634 2.511640787124634 2.511640787124634 2.511641025543213 2.511640787124634 2.511641025543213 2.511641025543213 2.511641025543213 2.511640787124634 2.511640787124634 2.511640787124634 2.511640787124634 2.511640787124634 2.511640787124634 2.511641263961792 2.511641025543213 2.511640787124634 2.511641025543213 2.511640787124634 2.511641025543213 2.511640787124634 2.511640787124634 2.511640787124634 2.5116405487060547 2.511640787124634 2.511641025543213 2.511640787124634
e27 2.5117440223693848 2.5117435455322266 2.5117435455322266 2.511744260787964 2.5117435455322266 2.5117437839508057 2.5117435455322266 2.5117435455322266 2.5117437839508057 2.5117435455322266 2.5117435455322266 2.5117435455322266 2.5117440223693848 2.5117437839508057 2.5117437839508057 2.5117435455322266 2.5117435455322266 2.5117435455322266 2.5117440223693848 2.5117437839508057 2.5117437839508057 2.5117440223693848 2.5117440223693848 2.5117437839508057 2.5117440223693848 2.5117437839508057 2.5117435455322266 2.511744260787964 2.5117435455322266 2.5117440223693848 2.5117440223693848 2.5117435455322266 2.5117435455322266 2.5117437839508057 2.5117435455322266 2.5117437839508057 2.5117440223693848 2.5117437839508057 2.5117435455322266 2.5117435455322266 2.5117440223693848 2.5117435455322266 2.5117440223693848 2.5117440223693848 2.5117440223693848 2.5117437839508057 2.5117435455322266 2.5117437839508057 2.5117437839508057 2.5117435455322266 2.5117435455322266 2.5117437839508057 2.511744260787964 2.5117437839508057 2.5117437839508057 2.5117437839508057 2.5117440223693848 2.5117437839508057 2.5117437839508057 2.5117437839508057 2.5117435455322266 2.5117435455322266 2.5117440223693848 2.5117435455322266
e28 2.5167155265808105 2.5167152881622314 2.5167152881622314 2.5167155265808105 2.5167152881622314 2.5167152881622314 2.5167152881622314 2.5167152881622314 2.5167152881622314 2.5167152881622314 2.5167152881622314 2.5167150497436523 2.5167155265808105 2.5167152881622314 2.5167152881622314 2.5167152881622314 2.5167152881622314 2.5167152881622314 2.5167155265808105 2.5167152881622314 2.5167152881622314 2.5167155265808105 2.5167155265808105 2.5167152881622314 2.5167155265808105 2.5167152881622314 2.5167150497436523 2.5167155265808105 2.5167152881622314 2.5167155265808105 2.5167155265808105 2.5167152881622314 2.5167152881622314 2.5167152881622314 2.5167152881622314 2.5167152881622314 2.5167155265808105 2.5167152881622314 2.5167152881622314 2.5167152881622314 2.5167155265808105 2.5167150497436523 2.5167155265808105 2.5167155265808105 2.5167155265808105 2.5167152881622314 2.5167152881622314 2.5167152881622314 2.5167152881622314 2.5167152881622314 2.5167152881622314 2.5167155265808105 2.5167155265808105 2.5167152881622314 2.5167152881622314 2.5167152881622314 2.5167155265808105 2.5167152881622314 2.5167152881622314 2.5167152881622314 2.5167150497436523 2.5167152881622314 2.5167155265808105 2.5167152881622314
e29 2.51670503616333 2.516704797744751 2.516704797744751 2.516705274581909 2.516704797744751 2.516704797744751 2.516704797744751 2.516704797744751 2.516704797744751 2.516704797744751 2.516704797744751 2.516704559326172 2.51670503616333 2.516704797744751 2.516704797744751 2.516704797744751 2.516704797744751 2.516704797744751 2.51670503616333 2.516704797744751 2.516704797744751 2.51670503616333 2.51670503616333 2.516704797744751 2.516705274581909 2.516704797744751 2.516704559326172 2.516705274581909 2.516704797744751 2.51670503616333 2.516705274581909 2.516704797744751 2.516704797744751 2.516704797744751 2.516704797744751 2.516704797744751 2.516705274581909 2.51670503616333 2.516704797744751 2.516704797744751 2.51670503616333 2.516704797744751 2.516705274581909 2.51670503616333 2.516705274581909 2.516704797744751 2.516704797744751 2.516704797744751 2.516704797744751 2.516704797744751 2.516704797744751 2.516704797744751 2.516705274581909 2.51670503616333 2.516704797744751 2.516704797744751 2.51670503616333 2.516704797744751 2.516704797744751 2.516704797744751 2.516704559326172 2.516704797744751 2.51670503616333 2.516704797744751
e30 2.5120415687561035 2.5120413303375244 2.5120413303375244 2.5120420455932617 2.5120413303375244 2.5120415687561035 2.5120413303375244 2.5120413303375244 2.5120413303375244 2.5120413303375244 2.5120413303375244 2.5120410919189453 2.5120420455932617 2.5120413303375244 2.5120415687561035 2.5120413303375244 2.5120413303375244 2.5120413303375244 2.5120415687561035 2.5120413303375244 2.5120415687561035 2.5120420455932617 2.5120420455932617 2.5120415687561035 2.5120420455932617 2.5120415687561035 2.5120413303375244 2.5120420455932617 2.5120413303375244 2.5120420455932617 2.5120420455932617 2.5120413303375244 2.5120413303375244 2.5120415687561035 2.5120413303375244 2.5120413303375244 2.5120420455932617 2.5120415687561035 2.5120413303375244 2.5120413303375244 2.5120420455932617 2.5120413303375244 2.5120420455932617 2.5120420455932617 2.5120420455932617 2.5120415687561035 2.5120413303375244 2.5120413303375244 2.5120415687561035 2.5120413303375244 2.5120413303375244 2.5120415687561035 2.5120420455932617 2.5120418071746826 2.5120413303375244 2.5120415687561035 2.5120420455932617 2.5120415687561035 2.5120413303375244 2.5120413303375244 2.5120410919189453 2.5120413303375244 2.5120420455932617 2.5120413303375244
e31 2.5111074447631836 2.5111072063446045 2.5111072063446045 2.5111076831817627 2.5111072063446045 2.5111072063446045 2.5111072063446045 2.5111072063446045 2.5111072063446045 2.5111072063446045 2.5111072063446045 2.5111069679260254 2.5111074447631836 2.5111072063446045 2.5111072063446045 2.5111072063446045 2.5111072063446045 2.5111072063446045 2.5111074447631836 2.5111072063446045 2.5111072063446045 2.5111074447631836 2.5111074447631836 2.5111072063446045 2.5111076831817627 2.5111072063446045 2.5111072063446045 2.5111076831817627 2.5111072063446045 2.5111074447631836 2.5111076831817627 2.5111072063446045 2.5111072063446045 2.5111072063446045 2.5111072063446045 2.5111072063446045 2.5111076831817627 2.5111072063446045 2.5111072063446045 2.5111072063446045 2.5111074447631836 2.5111072063446045 2.5111076831817627 2.5111074447631836 2.5111076831817627 2.5111072063446045 2.5111072063446045 2.5111072063446045 2.5111072063446045 2.5111072063446045 2.5111072063446045 2.5111072063446045 2.5111076831817627 2.5111072063446045 2.5111072063446045 2.5111072063446045 2.5111074447631836 2.5111072063446045 2.5111072063446045 2.5111072063446045 2.5111069679260254 2.5111072063446045 2.5111074447631836 2.5111072063446045
e32 2.5120291709899902 2.512028932571411 2.512028932571411 2.5120296478271484 2.512028932571411 2.5120291709899902 2.512028932571411 2.512028932571411 2.5120291709899902 2.512028932571411 2.512028932571411 2.512028694152832 2.5120296478271484 2.5120291709899902 2.5120291709899902 2.512028932571411 2.512028932571411 2.512028932571411 2.5120291709899902 2.512028932571411 2.5120291709899902 2.5120296478271484 2.5120296478271484 2.5120291709899902 2.5120296478271484 2.5120291709899902 2.512028932571411 2.5120296478271484 2.512028932571411 2.5120296478271484 2.5120296478271484 2.512028932571411 2.512028932571411 2.5120291709899902 2.512028932571411 2.5120291709899902 2.5120296478271484 2.5120291709899902 2.512028932571411 2.512028932571411 2.5120296478271484 2.512028932571411 2.5120296478271484 2.5120296478271484 2.5120296478271484 2.5120291709899902 2.512028932571411 2.5120291709899902 2.5120291709899902 2.512028932571411 2.512028932571411 2.5120294094085693 2.5120296478271484 2.5120294094085693 2.5120291709899902 2.5120291709899902 2.5120296478271484 2.5120291709899902 2.5120291709899902 2.5120291709899902 2.512028694152832 2.512028932571411 2.5120296478271484 2.512028932571411
e33 2.5099077224731445 2.5099072456359863 2.5099072456359863 2.5099077224731445 2.5099072456359863 2.5099074840545654 2.5099072456359863 2.5099072456359863 2.5099072456359863 2.5099072456359863 2.5099072456359863 2.5099072456359863 2.5099077224731445 2.5099072456359863 2.5099072456359863 2.5099072456359863 2.5099072456359863 2.5099072456359863 2.5099077224731445 2.5099072456359863 2.5099072456359863 2.5099077224731445 2.5099077224731445 2.5099072456359863 2.5099077224731445 2.5099072456359863 2.5099070072174072 2.5099077224731445 2.5099072456359863 2.5099077224731445 2.5099077224731445 2.5099072456359863 2.5099072456359863 2.5099072456359863 2.5099072456359863 2.5099072456359863 2.5099077224731445 2.5099074840545654 2.5099072456359863 2.5099072456359863 2.5099077224731445 2.5099072456359863 2.5099077224731445 2.5099077224731445 2.5099077224731445 2.5099072456359863 2.5099072456359863 2.5099072456359863 2.5099072456359863 2.5099072456359863 2.5099072456359863 2.5099074840545654 2.5099077224731445 2.5099074840545654 2.5099072456359863 2.5099072456359863 2.5099077224731445 2.5099072456359863 2.5099072456359863 2.5099072456359863 2.5099072456359863 2.5099072456359863 2.5099077224731445 2.5099072456359863
e34 2.516782760620117 2.516782522201538 2.516782522201538 2.5167832374572754 2.516782522201538 2.516782760620117 2.516782522201538 2.516782522201538 2.516782760620117 2.516782522201538 2.516782522201538 2.516782283782959 2.516782760620117 2.516782760620117 2.516782760620117 2.516782522201538 2.516782522201538 2.516782522201538 2.516782760620117 2.516782522201538 2.516782760620117 2.5167832374572754 2.5167832374572754 2.516782760620117 2.5167832374572754 2.516782760620117 2.516782522201538 2.5167832374572754 2.516782522201538 2.516782760620117 2.5167829990386963 2.516782522201538 2.516782522201538 2.516782760620117 2.516782522201538 2.516782522201538 2.5167832374572754 2.516782760620117 2.516782522201538 2.516782522201538 2.516782760620117 2.516782522201538 2.5167832374572754 2.516782760620117 2.5167832374572754 2.516782760620117 2.516782522201538 2.516782522201538 2.516782760620117 2.516782522201538 2.516782522201538 2.5167829990386963 2.5167832374572754 2.516782760620117 2.516782522201538 2.516782760620117 2.516782760620117 2.516782760620117 2.516782760620117 2.516782522201538 2.516782283782959 2.516782522201538 2.516782760620117 2.516782522201538
e35 2.510718822479248 2.510718584060669 2.51071834564209 2.510719060897827 2.510718584060669 2.510718584060669 2.510718584060669 2.510718584060669 2.510718584060669 2.510718584060669 2.510718584060669 2.51071834564209 2.510718822479248 2.510718584060669 2.510718584060669 2.510718584060669 2.510718584060669 2.510718584060669 2.510718822479248 2.510718584060669 2.510718584060669 2.510718822479248 2.510718822479248 2.510718584060669 2.510719060897827 2.510718584060669 2.51071834564209 2.510719060897827 2.510718584060669 2.510718822479248 2.510719060897827 2.510718584060669 2.510718584060669 2.510718584060669 2.510718584060669 2.510718584060669 2.510719060897827 2.510718822479248 2.510718584060669 2.51071834564209 2.510718822479248 2.510718584060669 2.510719060897827 2.510718822479248 2.510719060897827 2.510718584060669 2.510718584060669 2.510718584060669 2.510718584060669 2.510718584060669 2.510718584060669 2.510718584060669 2.510719060897827 2.510718822479248 2.510718584060669 2.510718584060669 2.510718822479248 2.510718584060669 2.510718584060669 2.510718584060669 2.51071834564209 2.510718584060669 2.510718822479248 2.510718584060669
e36 2.51670503616333 2.516704797744751 2.516704797744751 2.516705274581909 2.516704797744751 2.51670503616333 2.516704797744751 2.516704797744751 2.51670503616333 2.516704797744751 2.516704797744751 2.516704559326172 2.51670503616333 2.51670503616333 2.51670503616333 2.516704797744751 2.516704797744751 2.516704797744751 2.51670503616333 2.516704797744751 2.51670503616333 2.5167055130004883 2.51670503616333 2.51670503616333 2.516705274581909 2.51670503616333 2.516704797744751 2.516705274581909 2.516704797744751 2.51670503616333 2.516705274581909 2.516704797744751 2.516704797744751 2.51670503616333 2.516704797744751 2.516704797744751 2.516705274581909 2.51670503616333 2.516704797744751 2.516704797744751 2.51670503616333 2.516704797744751 2.516705274581909 2.51670503616333 2.516705274581909 2.51670503616333 2.516704797744751 2.516704797744751 2.51670503616333 2.516704797744751 2.516704797744751 2.51670503616333 2.516705274581909 2.51670503616333 2.516704797744751 2.51670503616333 2.51670503616333 2.51670503616333 2.51670503616333 2.516704797744751 2.516704559326172 2.516704797744751 2.51670503616333 2.516704797744751
e37 2.5116257667541504 2.5116255283355713 2.5116255283355713 2.5116257667541504 2.5116255283355713 2.5116255283355713 2.5116255283355713 2.5116255283355713 2.5116255283355713 2.5116255283355713 2.5116255283355713 2.511625289916992 2.5116257667541504 2.5116255283355713 2.5116255283355713 2.5116255283355713 2.5116255283355713 2.5116255283355713 2.5116257667541504 2.5116255283355713 2.5116255283355713 2.5116262435913086 2.5116257667541504 2.5116255283355713 2.5116257667541504 2.5116255283355713 2.5116255283355713 2.5116257667541504 2.5116255283355713 2.5116257667541504 2.5116257667541504 2.5116255283355713 2.5116255283355713 2.5116255283355713 2.5116255283355713 2.5116257667541504 2.5116257667541504 2.5116255283355713 2.5116255283355713 2.5116255283355713 2.5116257667541504 2.5116255283355713 2.5116257667541504 2.5116257667541504 2.5116257667541504 2.5116255283355713 2.5116255283355713 2.5116255283355713 2.5116255283355713 2.5116255283355713 2.5116255283355713 2.5116257667541504 2.5116257667541504 2.5116255283355713 2.5116257667541504 2.5116255283355713 2.5116257667541504 2.5116255283355713 2.5116255283355713 2.5116255283355713 2.511625289916992 2.5116255283355713 2.5116257667541504 2.5116255283355713
e38 2.5119447708129883 2.511944532394409 2.511944532394409 2.5119452476501465 2.511944532394409 2.5119447708129883 2.511944532394409 2.511944532394409 2.511944532394409 2.511944532394409 2.511944532394409 2.51194429397583 2.5119447708129883 2.511944532394409 2.511944532394409 2.511944532394409 2.511944532394409 2.511944532394409 2.5119447708129883 2.511944532394409 2.5119447708129883 2.5119452476501465 2.5119447708129883 2.5119447708129883 2.5119450092315674 2.5119447708129883 2.511944532394409 2.5119452476501465 2.511944532394409 2.5119447708129883 2.5119452476501465 2.511944532394409 2.511944532394409 2.511944532394409 2.511944532394409 2.511944532394409 2.5119450092315674 2.5119447708129883 2.511944532394409 2.511944532394409 2.5119447708129883 2.511944532394409 2.5119452476501465 2.5119447708129883 2.5119452476501465 2.511944532394409 2.511944532394409 2.5119447708129883 2.5119447708129883 2.511944532394409 2.511944532394409 2.5119450092315674 2.5119452476501465 2.5119447708129883 2.511944532394409 2.511944532394409 2.5119447708129883 2.511944532394409 2.511944532394409 2.511944532394409 2.51194429397583 2.511944532394409 2.5119447708129883 2.511944532394409
e39 2.5119481086730957 2.5119478702545166 2.5119478702545166 2.5119481086730957 2.5119478702545166 2.5119478702545166 2.5119478702545166 2.5119478702545166 2.5119478702545166 2.5119478702545166 2.5119478702545166 2.5119476318359375 2.5119481086730957 2.5119478702545166 2.5119478702545166 2.5119478702545166 2.5119478702545166 2.5119478702545166 2.5119481086730957 2.5119478702545166 2.5119478702545166 2.511948585510254 2.5119481086730957 2.5119478702545166 2.5119481086730957 2.5119478702545166 2.5119478702545166 2.511948347091675 2.5119478702545166 2.5119481086730957 2.5119481086730957 2.5119478702545166 2.5119478702545166 2.5119478702545166 2.5119478702545166 2.5119478702545166 2.5119481086730957 2.5119478702545166 2.5119478702545166 2.5119478702545166 2.5119481086730957 2.5119478702545166 2.5119481086730957 2.5119481086730957 2.5119481086730957 2.5119478702545166 2.5119478702545166 2.5119478702545166 2.5119478702545166 2.5119478702545166 2.5119478702545166 2.5119481086730957 2.5119481086730957 2.5119478702545166 2.5119478702545166 2.5119478702545166 2.5119481086730957 2.5119478702545166 2.5119478702545166 2.5119478702545166 2.5119476318359375 2.5119478702545166 2.5119481086730957 2.5119478702545166
e40 2.5117783546447754 2.511777877807617 2.511777877807617 2.5117783546447754 2.511777877807617 2.5117781162261963 2.511777877807617 2.511777877807617 2.5117781162261963 2.511777877807617 2.511777877807617 2.511777877807617 2.5117783546447754 2.5117781162261963 2.5117781162261963 2.511777877807617 2.511777877807617 2.5117781162261963 2.5117783546447754 2.511777877807617 2.5117781162261963 2.5117783546447754 2.5117783546447754 2.5117781162261963 2.5117783546447754 2.5117781162261963 2.511777877807617 2.5117783546447754 2.511777877807617 2.5117783546447754 2.5117783546447754 2.511777877807617 2.511777877807617 2.5117781162261963 2.511777877807617 2.5117781162261963 2.5117783546447754 2.5117781162261963 2.5117781162261963 2.511777877807617 2.5117783546447754 2.511777877807617 2.5117783546447754 2.5117783546447754 2.5117783546447754 2.5117781162261963 2.511777877807617 2.5117781162261963 2.5117781162261963 2.511777877807617 2.511777877807617 2.5117783546447754 2.5117783546447754 2.5117781162261963 2.511777877807617 2.5117781162261963 2.5117783546447754 2.5117781162261963 2.5117781162261963 2.5117781162261963 2.511777877807617 2.511777877807617 2.5117783546447754 2.511777877807617
e41 2.512025833129883 2.5120255947113037 2.5120255947113037 2.512026309967041 2.5120255947113037 2.5120255947113037 2.5120255947113037 2.5120255947113037 2.5120255947113037 2.5120255947113037 2.5120255947113037 2.5120253562927246 2.512025833129883 2.5120255947113037 2.5120255947113037 2.5120255947113037 2.5120255947113037 2.5120255947113037 2.512025833129883 2.5120255947113037 2.5120255947113037 2.512026309967041 2.512025833129883 2.5120255947113037 2.512026071548462 2.5120255947113037 2.5120255947113037 2.512026309967041 2.5120255947113037 2.512025833129883 2.512026071548462 2.5120255947113037 2.5120255947113037 2.5120255947113037 2.5120255947113037 2.5120255947113037 2.512026071548462 2.5120255947113037 2.5120255947113037 2.5120255947113037 2.512025833129883 2.5120255947113037 2.512026309967041 2.512025833129883 2.512026309967041 2.5120255947113037 2.5120255947113037 2.5120255947113037 2.5120255947113037 2.5120255947113037 2.5120255947113037 2.512026071548462 2.512026309967041 2.5120255947113037 2.5120255947113037 2.5120255947113037 2.512025833129883 2.5120255947113037 2.5120255947113037 2.5120255947113037 2.5120253562927246 2.5120255947113037 2.512025833129883 2.5120255947113037
e42 2.5109777450561523 2.5109775066375732 2.5109775066375732 2.5109782218933105 2.5109775066375732 2.5109777450561523 2.5109775066375732 2.5109775066375732 2.5109775066375732 2.5109775066375732 2.5109775066375732 2.510977268218994 2.5109782218933105 2.5109775066375732 2.5109775066375732 2.5109775066375732 2.5109775066375732 2.5109775066375732 2.5109777450561523 2.5109775066375732 2.5109777450561523 2.5109782218933105 2.5109782218933105 2.5109777450561523 2.5109782218933105 2.5109777450561523 2.5109775066375732 2.5109782218933105 2.5109775066375732 2.5109777450561523 2.5109779834747314 2.5109775066375732 2.5109775066375732 2.5109775066375732 2.5109775066375732 2.5109775066375732 2.5109782218933105 2.5109777450561523 2.5109775066375732 2.5109775066375732 2.5109782218933105 2.5109775066375732 2.5109782218933105 2.5109782218933105 2.5109782218933105 2.5109777450561523 2.5109775066375732 2.5109779834747314 2.5109777450561523 2.5109775066375732 2.5109775066375732 2.5109779834747314 2.5109782218933105 2.5109777450561523 2.5109775066375732 2.5109775066375732 2.5109782218933105 2.5109777450561523 2.5109775066375732 2.5109775066375732 2.510977268218994 2.5109775066375732 2.5109782218933105 2.5109775066375732
e43 2.513030529022217 2.5130302906036377 2.5130302906036377 2.513030767440796 2.5130302906036377 2.5130302906036377 2.5130302906036377 2.5130302906036377 2.5130302906036377 2.5130302906036377 2.5130302906036377 2.5130300521850586 2.513030529022217 2.5130302906036377 2.5130302906036377 2.5130302906036377 2.5130302906036377 2.5130302906036377 2.513030529022217 2.5130302906036377 2.5130302906036377 2.513031005859375 2.513030529022217 2.5130302906036377 2.513030767440796 2.5130302906036377 2.5130302906036377 2.513030767440796 2.5130302906036377 2.513030529022217 2.513030767440796 2.5130302906036377 2.5130302906036377 2.5130302906036377 2.5130302906036377 2.5130302906036377 2.513030767440796 2.513030529022217 2.5130302906036377 2.5130302906036377 2.513030529022217 2.5130302906036377 2.513030767440796 2.513030529022217 2.513030767440796 2.5130302906036377 2.5130302906036377 2.5130302906036377 2.5130302906036377 2.5130302906036377 2.5130302906036377 2.513030529022217 2.513030767440796 2.513030529022217 2.5130302906036377 2.5130302906036377 2.513030529022217 2.5130302906036377 2.5130302906036377 2.5130302906036377 2.5130300521850586 2.5130302906036377 2.513030529022217 2.5130302906036377
e44 2.511993885040283 2.511993646621704 2.511993646621704 2.511993885040283 2.511993646621704 2.511993646621704 2.511993646621704 2.511993646621704 2.511993646621704 2.511993646621704 2.511993646621704 2.511993408203125 2.511993885040283 2.511993646621704 2.511993646621704 2.511993646621704 2.511993646621704 2.511993646621704 2.511993885040283 2.511993646621704 2.511993646621704 2.5119943618774414 2.511993885040283 2.511993646621704 2.511993885040283 2.511993646621704 2.511993646621704 2.5119941234588623 2.511993646621704 2.511993885040283 2.511993885040283 2.511993646621704 2.511993646621704 2.511993646621704 2.511993646621704 2.511993646621704 2.511993885040283 2.511993646621704 2.511993646621704 2.511993646621704 2.511993885040283 2.511993646621704 2.511993885040283 2.511993885040283 2.511993885040283 2.511993646621704 2.511993646621704 2.511993646621704 2.511993646621704 2.511993646621704 2.511993646621704 2.511993885040283 2.511993885040283 2.511993646621704 2.511993646621704 2.511993646621704 2.511993885040283 2.511993646621704 2.511993646621704 2.511993646621704 2.511993408203125 2.511993646621704 2.511993885040283 2.511993646621704
e45 2.511660099029541 2.511659860610962 2.511659860610962 2.511660099029541 2.511659860610962 2.511659860610962 2.511659860610962 2.511659860610962 2.511659860610962 2.511659860610962 2.511659860610962 2.511659622192383 2.511660099029541 2.511659860610962 2.511659860610962 2.511659860610962 2.511659860610962 2.511659860610962 2.511660099029541 2.511659860610962 2.511659860610962 2.511660575866699 2.511660099029541 2.511659860610962 2.511660099029541 2.511659860610962 2.511659860610962 2.511660099029541 2.511659860610962 2.511660099029541 2.511660099029541 2.511659860610962 2.511659860610962 2.511659860610962 2.511659860610962 2.511660099029541 2.511660099029541 2.511659860610962 2.511659860610962 2.511659860610962 2.511660099029541 2.511659860610962 2.511660099029541 2.511660099029541 2.511660099029541 2.511659860610962 2.511659860610962 2.511659860610962 2.511659860610962 2.511659860610962 2.511659860610962 2.511660099029541 2.511660099029541 2.511659860610962 2.511659860610962 2.511659860610962 2.511660099029541 2.511659860610962 2.511659860610962 2.511659860610962 2.511659622192383 2.511659860610962 2.511660099029541 2.511659860610962
e46 2.510322093963623 2.510321617126465 2.5103213787078857 2.510322093963623 2.510321617126465 2.510321617126465 2.510321617126465 2.510321617126465 2.510321617126465 2.510321617126465 2.510321617126465 2.5103211402893066 2.510322093963623 2.510321617126465 2.510321617126465 2.510321617126465 2.510321617126465 2.510321617126465 2.510322093963623 2.510321617126465 2.510321617126465 2.510322093963623 2.510322093963623 2.510321617126465 2.510322093963623 2.510321617126465 2.5103213787078857 2.510322093963623 2.510321617126465 2.510322093963623 2.510322093963623 2.510321617126465 2.510321617126465 2.510321617126465 2.510321617126465 2.510321617126465 2.510322093963623 2.510321855545044 2.510321617126465 2.5103213787078857 2.510322093963623 2.510321617126465 2.510322093963623 2.510322093963623 2.510322093963623 2.510321617126465 2.510321617126465 2.510321617126465 2.510321617126465 2.510321617126465 2.510321617126465 2.510321617126465 2.510322093963623 2.510321855545044 2.510321617126465 2.510321617126465 2.510322093963623 2.510321617126465 2.510321617126465 2.510321617126465 2.5103211402893066 2.510321617126465 2.510322093963623 2.510321617126465
e47 2.510483741760254 2.510483503341675 2.5104830265045166 2.510483741760254 2.5104832649230957 2.510483503341675 2.5104832649230957 2.5104832649230957 2.510483503341675 2.510483503341675 2.510483503341675 2.5104827880859375 2.510483741760254 2.510483503341675 2.510483503341675 2.510483503341675 2.510483503341675 2.510483503341675 2.510483741760254 2.510483503341675 2.510483503341675 2.510483741760254 2.510483741760254 2.510483503341675 2.510483741760254 2.510483503341675 2.5104830265045166 2.510483741760254 2.5104832649230957 2.510483741760254 2.510483741760254 2.5104832649230957 2.510483503341675 2.510483503341675 2.510483503341675 2.510483503341675 2.510483741760254 2.510483503341675 2.510483503341675 2.5104830265045166 2.510483741760254 2.5104830265045166 2.510483741760254 2.510483741760254 2.510483741760254 2.510483503341675 2.5104832649230957 2.510483503341675 2.510483503341675 2.510483503341675 2.510483503341675 2.510483503341675 2.510483741760254 2.510483503341675 2.510483503341675 2.510483503341675 2.510483741760254 2.510483503341675 2.510483503341675 2.510483503341675 2.5104827880859375 2.5104832649230957 2.510483741760254 2.510483503341675
e48 2.510835647583008 2.5108354091644287 2.5108354091644287 2.510836124420166 2.5108354091644287 2.5108354091644287 2.5108354091644287 2.5108354091644287 2.5108354091644287 2.5108354091644287 2.5108354091644287 2.5108351707458496 2.510835647583008 2.5108354091644287 2.5108354091644287 2.5108354091644287 2.5108354091644287 2.5108354091644287 2.510835647583008 2.5108354091644287 2.5108354091644287 2.510836124420166 2.510836124420166 2.5108354091644287 2.510835886001587 2.5108354091644287 2.5108354091644287 2.510836124420166 2.5108354091644287 2.510835647583008 2.510835886001587 2.5108354091644287 2.5108354091644287 2.5108354091644287 2.5108354091644287 2.5108354091644287 2.510835886001587 2.5108354091644287 2.5108354091644287 2.5108354091644287 2.510835647583008 2.5108354091644287 2.510835886001587 2.510835647583008 2.510835886001587 2.5108354091644287 2.5108354091644287 2.5108354091644287 2.5108354091644287 2.5108354091644287 2.5108354091644287 2.510835886001587 2.510836124420166 2.5108354091644287 2.5108354091644287 2.5108354091644287 2.510835647583008 2.5108354091644287 2.5108354091644287 2.5108354091644287 2.5108351707458496 2.5108354091644287 2.510835647583008 2.5108354091644287
e49 2.5127243995666504 2.5127243995666504 2.5127243995666504 2.5127248764038086 2.5127243995666504 2.5127243995666504 2.5127243995666504 2.5127243995666504 2.5127243995666504 2.5127243995666504 2.5127243995666504 2.5127243995666504 2.5127243995666504 2.5127243995666504 2.5127243995666504 2.5127243995666504 2.5127243995666504 2.5127243995666504 2.5127243995666504 2.5127243995666504 2.5127243995666504 2.5127248764038086 2.5127248764038086 2.5127243995666504 2.5127248764038086 2.5127243995666504 2.5127243995666504 2.5127248764038086 2.5127243995666504 2.5127243995666504 2.5127246379852295 2.5127243995666504 2.5127243995666504 2.5127243995666504 2.5127243995666504 2.5127243995666504 2.5127248764038086 2.5127243995666504 2.5127243995666504 2.5127243995666504 2.5127243995666504 2.5127243995666504 2.5127248764038086 2.5127243995666504 2.5127248764038086 2.5127243995666504 2.5127243995666504 2.5127243995666504 2.5127243995666504 2.5127243995666504 2.5127243995666504 2.5127246379852295 2.5127248764038086 2.5127243995666504 2.5127243995666504 2.5127243995666504 2.5127243995666504 2.5127243995666504 2.5127243995666504 2.5127243995666504 2.5127243995666504 2.5127243995666504 2.5127243995666504 2.5127243995666504
e50 2.516629695892334 2.516629457473755 2.516629457473755 2.516629934310913 2.516629457473755 2.516629695892334 2.516629457473755 2.516629457473755 2.516629695892334 2.516629457473755 2.516629457473755 2.516629219055176 2.516629695892334 2.516629695892334 2.516629695892334 2.516629457473755 2.516629457473755 2.516629457473755 2.516629695892334 2.516629457473755 2.516629695892334 2.516629695892334 2.516629695892334 2.516629695892334 2.516629934310913 2.516629695892334 2.516629457473755 2.516629934310913 2.516629457473755 2.516629695892334 2.516629934310913 2.516629457473755 2.516629457473755 2.516629695892334 2.516629457473755 2.516629457473755 2.516629934310913 2.516629695892334 2.516629457473755 2.516629457473755 2.516629695892334 2.516629457473755 2.516629934310913 2.516629695892334 2.516629934310913 2.516629695892334 2.516629457473755 2.516629457473755 2.516629695892334 2.516629457473755 2.516629457473755 2.516629695892334 2.516629934310913 2.516629695892334 2.516629457473755 2.516629695892334 2.516629695892334 2.516629695892334 2.516629695892334 2.516629457473755 2.516629219055176 2.516629457473755 2.516629695892334 2.516629457473755
e51 2.510708808898926 2.5107083320617676 2.5107080936431885 2.510708808898926 2.5107083320617676 2.5107085704803467 2.5107083320617676 2.5107083320617676 2.5107083320617676 2.5107083320617676 2.5107083320617676 2.5107078552246094 2.510708808898926 2.5107083320617676 2.5107083320617676 2.5107083320617676 2.5107083320617676 2.5107083320617676 2.5107083320617676 2.5107083320617676 2.5107083320617676 2.510708808898926 2.510708808898926 2.5107083320617676 2.510708808898926 2.5107083320617676 2.5107080936431885 2.510708808898926 2.5107083320617676 2.510708808898926 2.510708808898926 2.5107083320617676 2.5107083320617676 2.5107083320617676 2.5107083320617676 2.5107083320617676 2.510708808898926 2.5107085704803467 2.5107083320617676 2.5107080936431885 2.510708808898926 2.5107080936431885 2.510708808898926 2.510708808898926 2.510708808898926 2.5107083320617676 2.5107083320617676 2.5107083320617676 2.5107085704803467 2.5107083320617676 2.5107083320617676 2.5107085704803467 2.510708808898926 2.5107085704803467 2.5107083320617676 2.5107085704803467 2.510708808898926 2.5107083320617676 2.5107083320617676 2.5107083320617676 2.5107078552246094 2.5107083320617676 2.510708808898926 2.5107083320617676
e52 2.5117340087890625 2.5117335319519043 2.5117335319519043 2.5117340087890625 2.5117335319519043 2.5117337703704834 2.5117335319519043 2.5117335319519043 2.5117335319519043 2.5117335319519043 2.5117335319519043 2.511733055114746 2.5117340087890625 2.5117335319519043 2.5117337703704834 2.5117335319519043 2.5117335319519043 2.5117335319519043 2.5117340087890625 2.5117335319519043 2.5117337703704834 2.5117340087890625 2.5117340087890625 2.5117337703704834 2.5117340087890625 2.5117337703704834 2.511733293533325 2.5117340087890625 2.5117335319519043 2.5117340087890625 2.5117340087890625 2.5117335319519043 2.5117335319519043 2.5117337703704834 2.5117335319519043 2.5117335319519043 2.5117340087890625 2.5117337703704834 2.5117335319519043 2.5117335319519043 2.5117340087890625 2.511733293533325 2.5117340087890625 2.5117340087890625 2.5117340087890625 2.5117337703704834 2.5117335319519043 2.5117335319519043 2.5117337703704834 2.5117335319519043 2.5117335319519043 2.5117337703704834 2.5117340087890625 2.5117337703704834 2.5117335319519043 2.5117337703704834 2.5117340087890625 2.5117337703704834 2.5117335319519043 2.5117335319519043 2.511733055114746 2.5117335319519043 2.5117340087890625 2.5117335319519043
e53 2.512042999267578 2.512042760848999 2.512042760848999 2.5120434761047363 2.512042760848999 2.512042999267578 2.512042760848999 2.512042760848999 2.512042760848999 2.512042760848999 2.512042760848999 2.51204252243042 2.5120434761047363 2.512042760848999 2.512042999267578 2.512042760848999 2.512042760848999 2.512042760848999 2.512042999267578 2.512042760848999 2.512042999267578 2.5120434761047363 2.5120434761047363 2.512042999267578 2.5120434761047363 2.512042999267578 2.51204252243042 2.5120434761047363 2.512042760848999 2.5120434761047363 2.5120434761047363 2.512042760848999 2.512042760848999 2.512042999267578 2.512042760848999 2.512042760848999 2.5120434761047363 2.512042999267578 2.512042760848999 2.512042760848999 2.5120434761047363 2.512042760848999 2.5120434761047363 2.5120434761047363 2.5120434761047363 2.512042999267578 2.512042760848999 2.512042760848999 2.512042999267578 2.512042760848999 2.512042760848999 2.512042999267578 2.5120434761047363 2.5120432376861572 2.512042760848999 2.512042999267578 2.5120434761047363 2.512042999267578 2.512042760848999 2.512042760848999 2.51204252243042 2.512042760848999 2.5120434761047363 2.512042760848999
e54 2.511723518371582 2.5117228031158447 2.5117228031158447 2.511723518371582 2.5117228031158447 2.511723041534424 2.5117228031158447 2.5117228031158447 2.5117228031158447 2.5117228031158447 2.5117228031158447 2.5117225646972656 2.511723518371582 2.5117228031158447 2.5117228031158447 2.5117228031158447 2.5117228031158447 2.5117228031158447 2.511723041534424 2.5117228031158447 2.511723041534424 2.511723518371582 2.511723518371582 2.511723041534424 2.511723279953003 2.511723041534424 2.5117225646972656 2.511723518371582 2.5117228031158447 2.511723041534424 2.511723279953003 2.5117228031158447 2.5117228031158447 2.511723041534424 2.5117228031158447 2.5117228031158447 2.511723279953003 2.511723279953003 2.5117228031158447 2.5117228031158447 2.511723518371582 2.5117228031158447 2.511723279953003 2.511723518371582 2.511723279953003 2.511723041534424 2.5117228031158447 2.5117228031158447 2.511723041534424 2.5117228031158447 2.5117228031158447 2.511723041534424 2.511723518371582 2.511723279953003 2.5117228031158447 2.511723041534424 2.511723518371582 2.511723041534424 2.5117228031158447 2.5117228031158447 2.5117225646972656 2.5117228031158447 2.511723518371582 2.5117228031158447
e55 2.513665199279785 2.513665199279785 2.513665199279785 2.5136654376983643 2.513665199279785 2.513665199279785 2.513665199279785 2.513665199279785 2.513665199279785 2.513665199279785 2.513665199279785 2.513664722442627 2.513665199279785 2.513665199279785 2.513665199279785 2.513665199279785 2.513665199279785 2.513665199279785 2.513665199279785 2.513665199279785 2.513665199279785 2.513665199279785 2.513665199279785 2.513665199279785 2.5136654376983643 2.513665199279785 2.513664960861206 2.5136654376983643 2.513665199279785 2.513665199279785 2.5136654376983643 2.513665199279785 2.513665199279785 2.513665199279785 2.513665199279785 2.513665199279785 2.5136654376983643 2.513665199279785 2.513665199279785 2.513665199279785 2.513665199279785 2.513664960861206 2.5136654376983643 2.513665199279785 2.5136654376983643 2.513665199279785 2.513665199279785 2.513665199279785 2.513665199279785 2.513665199279785 2.513665199279785 2.513665199279785 2.5136654376983643 2.513665199279785 2.513665199279785 2.513665199279785 2.513665199279785 2.513665199279785 2.513665199279785 2.513665199279785 2.513664722442627 2.513665199279785 2.513665199279785 2.513665199279785
e56 2.510866641998291 2.510866403579712 2.510866403579712 2.510866641998291 2.510866403579712 2.510866403579712 2.510866403579712 2.510866403579712 2.510866403579712 2.510866403579712 2.510866403579712 2.510866165161133 2.510866641998291 2.510866403579712 2.510866403579712 2.510866403579712 2.510866403579712 2.510866403579712 2.510866641998291 2.510866403579712 2.510866403579712 2.510867118835449 2.510866641998291 2.510866403579712 2.510866641998291 2.510866403579712 2.510866403579712 2.510866641998291 2.510866403579712 2.510866641998291 2.510866641998291 2.510866403579712 2.510866403579712 2.510866403579712 2.510866403579712 2.510866641998291 2.510866641998291 2.510866403579712 2.510866403579712 2.510866403579712 2.510866641998291 2.510866403579712 2.510866641998291 2.510866641998291 2.510866641998291 2.510866403579712 2.510866403579712 2.510866641998291 2.510866403579712 2.510866403579712 2.510866403579712 2.510866641998291 2.510866641998291 2.510866641998291 2.510866403579712 2.510866403579712 2.510866641998291 2.510866403579712 2.510866403579712 2.510866403579712 2.510866165161133 2.510866403579712 2.510866641998291 2.510866403579712
e57 2.5157246589660645 2.5157244205474854 2.5157244205474854 2.5157248973846436 2.5157244205474854 2.5157244205474854 2.5157244205474854 2.5157244205474854 2.5157244205474854 2.5157244205474854 2.5157244205474854 2.5157241821289062 2.5157246589660645 2.5157244205474854 2.5157244205474854 2.5157244205474854 2.5157244205474854 2.5157244205474854 2.5157246589660645 2.5157244205474854 2.5157244205474854 2.5157251358032227 2.5157246589660645 2.5157244205474854 2.5157248973846436 2.5157244205474854 2.5157244205474854 2.5157251358032227 2.5157244205474854 2.5157246589660645 2.5157248973846436 2.5157244205474854 2.5157244205474854 2.5157244205474854 2.5157244205474854 2.5157244205474854 2.5157248973846436 2.5157246589660645 2.5157244205474854 2.5157244205474854 2.5157246589660645 2.5157244205474854 2.5157248973846436 2.5157246589660645 2.5157248973846436 2.5157244205474854 2.5157244205474854 2.5157244205474854 2.5157244205474854 2.5157244205474854 2.5157244205474854 2.5157246589660645 2.5157251358032227 2.5157246589660645 2.5157244205474854 2.5157244205474854 2.5157246589660645 2.5157244205474854 2.5157244205474854 2.5157244205474854 2.5157241821289062 2.5157244205474854 2.5157246589660645 2.5157244205474854
e58 2.510059356689453 2.510059356689453 2.510059356689453 2.5100595951080322 2.510059356689453 2.510059356689453 2.510059356689453 2.510059356689453 2.510059356689453 2.510059356689453 2.510059356689453 2.510058879852295 2.510059356689453 2.510059356689453 2.510059356689453 2.510059356689453 2.510059356689453 2.510059356689453 2.510059356689453 2.510059356689453 2.510059356689453 2.510059356689453 2.510059356689453 2.510059356689453 2.5100595951080322 2.510059356689453 2.510059118270874 2.5100595951080322 2.510059356689453 2.510059356689453 2.5100595951080322 2.510059356689453 2.510059356689453 2.510059356689453 2.510059356689453 2.510059356689453 2.5100595951080322 2.510059356689453 2.510059356689453 2.510059356689453 2.510059356689453 2.510059356689453 2.5100595951080322 2.510059356689453 2.5100595951080322 2.510059356689453 2.510059356689453 2.510059356689453 2.510059356689453 2.510059356689453 2.510059356689453 2.510059356689453 2.5100595951080322 2.510059356689453 2.510059356689453 2.510059356689453 2.510059356689453 2.510059356689453 2.510059356689453 2.510059356689453 2.510059356689453 2.510059356689453 2.510059356689453 2.510059356689453
e59 2.5157246589660645 2.5157244205474854 2.5157244205474854 2.5157248973846436 2.5157244205474854 2.5157244205474854 2.5157244205474854 2.5157244205474854 2.5157244205474854 2.5157244205474854 2.5157244205474854 2.5157241821289062 2.5157246589660645 2.5157244205474854 2.5157244205474854 2.5157244205474854 2.5157244205474854 2.5157244205474854 2.5157246589660645 2.5157244205474854 2.5157244205474854 2.5157246589660645 2.5157246589660645 2.5157244205474854 2.5157248973846436 2.5157244205474854 2.5157244205474854 2.5157251358032227 2.5157244205474854 2.5157246589660645 2.5157248973846436 2.5157244205474854 2.5157244205474854 2.5157244205474854 2.5157244205474854 2.5157244205474854 2.5157248973846436 2.5157246589660645 2.5157244205474854 2.5157244205474854 2.5157246589660645 2.5157244205474854 2.5157248973846436 2.5157246589660645 2.5157248973846436 2.5157244205474854 2.5157244205474854 2.5157244205474854 2.5157244205474854 2.5157244205474854 2.5157244205474854 2.5157246589660645 2.5157251358032227 2.5157246589660645 2.5157244205474854 2.5157244205474854 2.5157246589660645 2.5157244205474854 2.5157244205474854 2.5157244205474854 2.5157241821289062 2.5157244205474854 2.5157246589660645 2.5157244205474854
e60 2.51670503616333 2.516704797744751 2.516704797744751 2.516705274581909 2.516704797744751 2.51670503616333 2.516704797744751 2.516704797744751 2.51670503616333 2.516704797744751 2.516704797744751 2.516704559326172 2.51670503616333 2.51670503616333 2.51670503616333 2.516704797744751 2.516704797744751 2.516704797744751 2.51670503616333 2.516704797744751 2.51670503616333 2.5167055130004883 2.51670503616333 2.51670503616333 2.516705274581909 2.51670503616333 2.516704797744751 2.516705274581909 2.516704797744751 2.51670503616333 2.516705274581909 2.516704797744751 2.516704797744751 2.51670503616333 2.516704797744751 2.516704797744751 2.516705274581909 2.51670503616333 2.516704797744751 2.516704797744751 2.51670503616333 2.516704797744751 2.516705274581909 2.51670503616333 2.516705274581909 2.51670503616333 2.516704797744751 2.516704797744751 2.51670503616333 2.516704797744751 2.516704797744751 2.51670503616333 2.516705274581909 2.51670503616333 2.516704797744751 2.51670503616333 2.51670503616333 2.51670503616333 2.51670503616333 2.516704797744751 2.516704559326172 2.516704797744751 2.51670503616333 2.516704797744751
e61 2.5157251358032227 2.5157246589660645 2.5157246589660645 2.5157251358032227 2.5157246589660645 2.5157248973846436 2.5157246589660645 2.5157246589660645 2.5157246589660645 2.5157246589660645 2.5157246589660645 2.5157246589660645 2.5157251358032227 2.5157246589660645 2.5157246589660645 2.5157246589660645 2.5157246589660645 2.5157246589660645 2.5157251358032227 2.5157246589660645 2.5157248973846436 2.5157251358032227 2.5157251358032227 2.5157248973846436 2.5157251358032227 2.5157248973846436 2.5157246589660645 2.5157251358032227 2.5157246589660645 2.5157251358032227 2.5157251358032227 2.5157246589660645 2.5157246589660645 2.5157248973846436 2.5157246589660645 2.5157246589660645 2.5157251358032227 2.5157248973846436 2.5157246589660645 2.5157246589660645 2.5157251358032227 2.5157246589660645 2.5157251358032227 2.5157251358032227 2.5157251358032227 2.5157248973846436 2.5157246589660645 2.5157246589660645 2.5157248973846436 2.5157246589660645 2.5157246589660645 2.5157248973846436 2.5157251358032227 2.5157248973846436 2.5157246589660645 2.5157248973846436 2.5157251358032227 2.5157248973846436 2.5157248973846436 2.5157246589660645 2.5157246589660645 2.5157246589660645 2.5157251358032227 2.5157246589660645
e62 2.5127720832824707 2.5127716064453125 2.5127716064453125 2.5127720832824707 2.5127718448638916 2.5127718448638916 2.5127716064453125 2.5127716064453125 2.5127718448638916 2.5127716064453125 2.5127718448638916 2.5127716064453125 2.5127720832824707 2.5127718448638916 2.5127718448638916 2.5127716064453125 2.5127716064453125 2.5127718448638916 2.5127720832824707 2.5127718448638916 2.5127718448638916 2.512772560119629 2.5127720832824707 2.5127718448638916 2.5127720832824707 2.5127718448638916 2.5127716064453125 2.5127720832824707 2.5127716064453125 2.5127720832824707 2.5127720832824707 2.5127716064453125 2.5127716064453125 2.5127718448638916 2.5127716064453125 2.5127718448638916 2.5127720832824707 2.5127718448638916 2.5127718448638916 2.5127716064453125 2.5127720832824707 2.5127716064453125 2.5127720832824707 2.5127720832824707 2.5127720832824707 2.5127718448638916 2.5127716064453125 2.5127718448638916 2.5127718448638916 2.5127716064453125 2.5127716064453125 2.5127720832824707 2.5127720832824707 2.5127718448638916 2.5127718448638916 2.5127718448638916 2.5127720832824707 2.5127718448638916 2.5127718448638916 2.5127718448638916 2.5127716064453125 2.5127716064453125 2.5127720832824707 2.5127716064453125
e63 2.5109710693359375 2.5109705924987793 2.5109705924987793 2.5109710693359375 2.5109705924987793 2.5109708309173584 2.5109705924987793 2.5109705924987793 2.5109705924987793 2.5109705924987793 2.5109705924987793 2.5109705924987793 2.5109710693359375 2.5109705924987793 2.5109705924987793 2.5109705924987793 2.5109705924987793 2.5109705924987793 2.5109710693359375 2.5109705924987793 2.5109708309173584 2.5109710693359375 2.5109710693359375 2.5109708309173584 2.5109710693359375 2.5109708309173584 2.5109705924987793 2.5109713077545166 2.5109705924987793 2.5109710693359375 2.5109710693359375 2.5109705924987793 2.5109705924987793 2.5109705924987793 2.5109705924987793 2.5109705924987793 2.5109710693359375 2.5109708309173584 2.5109705924987793 2.5109705924987793 2.5109710693359375 2.5109705924987793 2.5109710693359375 2.5109710693359375 2.5109710693359375 2.5109708309173584 2.5109705924987793 2.5109705924987793 2.5109708309173584 2.5109705924987793 2.5109705924987793 2.5109708309173584 2.5109713077545166 2.5109708309173584 2.5109705924987793 2.5109705924987793 2.5109710693359375 2.5109708309173584 2.5109705924987793 2.5109705924987793 2.510970115661621 2.5109705924987793 2.5109710693359375 2.5109705924987793
e64 2.51190185546875 2.511901378631592 2.5119011402130127 2.51190185546875 2.511901378631592 2.511901378631592 2.5119011402130127 2.5119011402130127 2.511901378631592 2.511901378631592 2.511901378631592 2.5119009017944336 2.51190185546875 2.511901378631592 2.511901378631592 2.5119011402130127 2.511901378631592 2.511901378631592 2.511901378631592 2.511901378631592 2.511901378631592 2.51190185546875 2.51190185546875 2.511901378631592 2.51190185546875 2.511901378631592 2.5119011402130127 2.51190185546875 2.5119011402130127 2.51190185546875 2.51190185546875 2.5119011402130127 2.511901378631592 2.511901378631592 2.511901378631592 2.511901378631592 2.51190185546875 2.511901617050171 2.511901378631592 2.5119011402130127 2.51190185546875 2.5119011402130127 2.51190185546875 2.51190185546875 2.51190185546875 2.511901378631592 2.5119011402130127 2.511901378631592 2.511901378631592 2.511901378631592 2.511901378631592 2.511901617050171 2.51190185546875 2.511901617050171 2.511901378631592 2.511901378631592 2.51190185546875 2.511901378631592 2.511901378631592 2.511901378631592 2.5119009017944336 2.5119011402130127 2.51190185546875 2.5119011402130127
e65 2.5127196311950684 2.5127196311950684 2.5127193927764893 2.5127198696136475 2.5127196311950684 2.5127196311950684 2.5127196311950684 2.5127196311950684 2.5127196311950684 2.5127196311950684 2.5127196311950684 2.51271915435791 2.5127201080322266 2.5127196311950684 2.5127196311950684 2.5127196311950684 2.5127196311950684 2.5127196311950684 2.5127196311950684 2.5127196311950684 2.5127196311950684 2.5127201080322266 2.5127201080322266 2.5127196311950684 2.5127198696136475 2.5127196311950684 2.5127193927764893 2.5127198696136475 2.5127196311950684 2.5127196311950684 2.5127198696136475 2.5127196311950684 2.5127196311950684 2.5127196311950684 2.5127196311950684 2.5127198696136475 2.5127198696136475 2.5127196311950684 2.5127196311950684 2.5127193927764893 2.5127201080322266 2.5127193927764893 2.5127198696136475 2.5127201080322266 2.5127198696136475 2.5127196311950684 2.5127196311950684 2.5127198696136475 2.5127196311950684 2.5127196311950684 2.5127196311950684 2.5127198696136475 2.5127198696136475 2.5127196311950684 2.5127196311950684 2.5127196311950684 2.5127201080322266 2.5127196311950684 2.5127196311950684 2.5127196311950684 2.51271915435791 2.5127196311950684 2.5127201080322266 2.5127193927764893
e66 2.5157246589660645 2.5157244205474854 2.5157244205474854 2.5157248973846436 2.5157244205474854 2.5157246589660645 2.5157244205474854 2.5157244205474854 2.5157246589660645 2.5157244205474854 2.5157244205474854 2.5157241821289062 2.5157246589660645 2.5157246589660645 2.5157246589660645 2.5157244205474854 2.5157244205474854 2.5157244205474854 2.5157246589660645 2.5157244205474854 2.5157246589660645 2.5157251358032227 2.5157246589660645 2.5157246589660645 2.5157248973846436 2.5157246589660645 2.5157244205474854 2.5157251358032227 2.5157244205474854 2.5157246589660645 2.5157248973846436 2.5157244205474854 2.5157244205474854 2.5157246589660645 2.5157244205474854 2.5157246589660645 2.5157248973846436 2.5157246589660645 2.5157244205474854 2.5157244205474854 2.5157246589660645 2.5157244205474854 2.5157248973846436 2.5157246589660645 2.5157248973846436 2.5157246589660645 2.5157244205474854 2.5157246589660645 2.5157246589660645 2.5157244205474854 2.5157244205474854 2.5157248973846436 2.5157251358032227 2.5157246589660645 2.5157244205474854 2.5157246589660645 2.5157246589660645 2.5157246589660645 2.5157246589660645 2.5157246589660645 2.5157241821289062 2.5157244205474854 2.5157246589660645 2.5157244205474854
e67 2.512627124786377 2.5126266479492188 2.5126266479492188 2.512627124786377 2.5126266479492188 2.512627124786377 2.5126266479492188 2.5126266479492188 2.512627124786377 2.5126266479492188 2.5126266479492188 2.5126266479492188 2.512627124786377 2.512627124786377 2.512627124786377 2.5126266479492188 2.5126266479492188 2.5126266479492188 2.512627124786377 2.5126266479492188 2.512627124786377 2.512627124786377 2.512627124786377 2.512627124786377 2.512627124786377 2.512627124786377 2.5126266479492188 2.512627124786377 2.5126266479492188 2.512627124786377 2.512627124786377 2.5126266479492188 2.5126266479492188 2.512627124786377 2.5126266479492188 2.512627124786377 2.512627124786377 2.512627124786377 2.5126266479492188 2.5126266479492188 2.512627124786377 2.5126266479492188 2.512627124786377 2.512627124786377 2.512627124786377 2.512627124786377 2.5126266479492188 2.512627124786377 2.512627124786377 2.5126266479492188 2.5126266479492188 2.512627124786377 2.512627124786377 2.512627124786377 2.512627124786377 2.512627124786377 2.512627124786377 2.512627124786377 2.512627124786377 2.512627124786377 2.5126266479492188 2.5126266479492188 2.512627124786377 2.5126266479492188
e68 2.518162727355957 2.518162250518799 2.518162250518799 2.518162488937378 2.518162250518799 2.518162727355957 2.518162250518799 2.518162250518799 2.518162727355957 2.518162250518799 2.518162250518799 2.518162250518799 2.518162727355957 2.518162727355957 2.518162727355957 2.518162250518799 2.518162250518799 2.518162250518799 2.518162727355957 2.518162250518799 2.518162727355957 2.518162727355957 2.518162727355957 2.518162727355957 2.518162727355957 2.518162727355957 2.518162250518799 2.518162727355957 2.518162250518799 2.518162727355957 2.518162727355957 2.518162250518799 2.518162250518799 2.518162727355957 2.518162250518799 2.518162727355957 2.518162727355957 2.518162727355957 2.518162250518799 2.518162250518799 2.518162727355957 2.518162250518799 2.518162727355957 2.518162727355957 2.518162727355957 2.518162727355957 2.518162250518799 2.518162727355957 2.518162727355957 2.518162250518799 2.518162250518799 2.518162727355957 2.518162727355957 2.518162727355957 2.518162727355957 2.518162727355957 2.518162727355957 2.518162727355957 2.518162727355957 2.518162250518799 2.518162250518799 2.518162250518799 2.518162727355957 2.518162250518799
e69 2.5174598693847656 2.5174593925476074 2.5174593925476074 2.5174596309661865 2.5174593925476074 2.5174598693847656 2.5174593925476074 2.5174593925476074 2.5174598693847656 2.5174593925476074 2.5174593925476074 2.5174593925476074 2.5174598693847656 2.5174598693847656 2.5174598693847656 2.5174593925476074 2.5174593925476074 2.5174593925476074 2.5174593925476074 2.5174593925476074 2.5174598693847656 2.5174598693847656 2.5174598693847656 2.5174598693847656 2.5174598693847656 2.5174598693847656 2.5174591541290283 2.5174598693847656 2.5174593925476074 2.5174593925476074 2.5174598693847656 2.5174593925476074 2.5174593925476074 2.5174598693847656 2.5174593925476074 2.5174593925476074 2.5174598693847656 2.5174598693847656 2.5174593925476074 2.5174593925476074 2.5174598693847656 2.5174593925476074 2.5174598693847656 2.5174598693847656 2.5174598693847656 2.5174598693847656 2.5174593925476074 2.5174593925476074 2.5174598693847656 2.5174593925476074 2.5174593925476074 2.5174598693847656 2.5174596309661865 2.5174598693847656 2.5174593925476074 2.5174598693847656 2.5174598693847656 2.5174598693847656 2.5174598693847656 2.5174593925476074 2.5174593925476074 2.5174593925476074 2.5174598693847656 2.5174593925476074
e70 2.513535499572754 2.513535499572754 2.513535499572754 2.513535499572754 2.513535499572754 2.513535499572754 2.513535499572754 2.513535499572754 2.513535499572754 2.513535499572754 2.513535499572754 2.5135350227355957 2.513535499572754 2.513535499572754 2.513535499572754 2.513535499572754 2.513535499572754 2.513535499572754 2.513535499572754 2.513535499572754 2.513535499572754 2.513535499572754 2.513535499572754 2.513535499572754 2.513535499572754 2.513535499572754 2.5135350227355957 2.513535499572754 2.513535499572754 2.513535499572754 2.513535499572754 2.513535499572754 2.513535499572754 2.513535499572754 2.513535499572754 2.513535499572754 2.513535499572754 2.513535499572754 2.513535499572754 2.513535499572754 2.513535499572754 2.5135350227355957 2.513535499572754 2.513535499572754 2.513535499572754 2.513535499572754 2.513535499572754 2.513535499572754 2.513535499572754 2.513535499572754 2.513535499572754 2.513535499572754 2.513535499572754 2.513535499572754 2.513535499572754 2.513535499572754 2.513535499572754 2.513535499572754 2.513535499572754 2.513535499572754 2.513535499572754 2.513535499572754 2.513535499572754 2.513535499572754
e71 2.5134682655334473 2.513467788696289 2.513467788696289 2.513468027114868 2.513467788696289 2.5134682655334473 2.513467788696289 2.513467788696289 2.513467788696289 2.513467788696289 2.513467788696289 2.513467788696289 2.5134682655334473 2.513467788696289 2.513467788696289 2.513467788696289 2.513467788696289 2.513467788696289 2.513467788696289 2.513467788696289 2.5134682655334473 2.5134682655334473 2.5134682655334473 2.5134682655334473 2.513467788696289 2.5134682655334473 2.513467788696289 2.5134682655334473 2.513467788696289 2.513467788696289 2.5134682655334473 2.513467788696289 2.513467788696289 2.513467788696289 2.513467788696289 2.5134682655334473 2.513467788696289 2.5134682655334473 2.513467788696289 2.513467788696289 2.5134682655334473 2.513467788696289 2.5134682655334473 2.5134682655334473 2.513467788696289 2.5134682655334473 2.513467788696289 2.5134682655334473 2.5134682655334473 2.513467788696289 2.513467788696289 2.5134682655334473 2.513468027114868 2.5134682655334473 2.5134682655334473 2.5134682655334473 2.5134682655334473 2.5134682655334473 2.513467788696289 2.513467788696289 2.513467788696289 2.513467788696289 2.5134682655334473 2.513467788696289
e72 2.5174808502197266 2.5174803733825684 2.5174803733825684 2.5174806118011475 2.5174803733825684 2.5174808502197266 2.5174803733825684 2.5174803733825684 2.5174808502197266 2.5174803733825684 2.5174803733825684 2.5174803733825684 2.5174808502197266 2.5174808502197266 2.5174808502197266 2.5174803733825684 2.5174803733825684 2.5174803733825684 2.5174808502197266 2.5174803733825684 2.5174808502197266 2.5174808502197266 2.5174808502197266 2.5174808502197266 2.5174808502197266 2.5174808502197266 2.5174803733825684 2.5174808502197266 2.5174803733825684 2.5174808502197266 2.5174808502197266 2.5174803733825684 2.5174803733825684 2.5174808502197266 2.5174803733825684 2.5174808502197266 2.5174808502197266 2.5174808502197266 2.5174803733825684 2.5174803733825684 2.5174808502197266 2.5174803733825684 2.5174808502197266 2.5174808502197266 2.5174808502197266 2.5174808502197266 2.5174803733825684 2.5174808502197266 2.5174808502197266 2.5174803733825684 2.5174803733825684 2.5174808502197266 2.5174806118011475 2.5174808502197266 2.5174808502197266 2.5174808502197266 2.5174808502197266 2.5174808502197266 2.5174808502197266 2.5174803733825684 2.5174808502197266 2.5174803733825684 2.5174808502197266 2.5174803733825684
e73 2.517526149749756 2.5175256729125977 2.5175256729125977 2.5175259113311768 2.5175256729125977 2.517526149749756 2.5175256729125977 2.5175256729125977 2.517526149749756 2.5175256729125977 2.5175256729125977 2.5175256729125977 2.517526149749756 2.517526149749756 2.517526149749756 2.5175256729125977 2.5175256729125977 2.5175256729125977 2.517526149749756 2.5175256729125977 2.517526149749756 2.517526149749756 2.517526149749756 2.517526149749756 2.517526149749756 2.517526149749756 2.5175254344940186 2.517526149749756 2.5175256729125977 2.517526149749756 2.517526149749756 2.5175256729125977 2.5175256729125977 2.517526149749756 2.5175256729125977 2.517526149749756 2.517526149749756 2.517526149749756 2.5175256729125977 2.5175256729125977 2.517526149749756 2.5175256729125977 2.517526149749756 2.517526149749756 2.517526149749756 2.517526149749756 2.5175256729125977 2.517526149749756 2.517526149749756 2.5175256729125977 2.5175256729125977 2.517526149749756 2.517526149749756 2.517526149749756 2.517526149749756 2.517526149749756 2.517526149749756 2.517526149749756 2.517526149749756 2.5175256729125977 2.5175256729125977 2.5175256729125977 2.517526149749756 2.5175256729125977
e74 2.5125560760498047 2.5125555992126465 2.5125555992126465 2.5125560760498047 2.5125555992126465 2.5125560760498047 2.5125555992126465 2.5125555992126465 2.5125560760498047 2.5125555992126465 2.5125555992126465 2.5125555992126465 2.5125560760498047 2.5125560760498047 2.5125560760498047 2.5125555992126465 2.5125555992126465 2.5125555992126465 2.5125560760498047 2.5125555992126465 2.5125560760498047 2.5125560760498047 2.5125560760498047 2.5125560760498047 2.5125560760498047 2.5125560760498047 2.5125555992126465 2.5125560760498047 2.5125555992126465 2.5125560760498047 2.5125560760498047 2.5125555992126465 2.5125555992126465 2.5125560760498047 2.5125555992126465 2.5125560760498047 2.5125560760498047 2.5125560760498047 2.5125555992126465 2.5125555992126465 2.5125560760498047 2.5125555992126465 2.5125560760498047 2.5125560760498047 2.5125560760498047 2.5125560760498047 2.5125555992126465 2.5125560760498047 2.5125560760498047 2.5125555992126465 2.5125555992126465 2.5125560760498047 2.5125560760498047 2.5125560760498047 2.5125560760498047 2.5125560760498047 2.5125560760498047 2.5125560760498047 2.5125560760498047 2.5125560760498047 2.5125555992126465 2.5125555992126465 2.5125560760498047 2.5125555992126465
e75 2.5175156593322754 2.5175156593322754 2.517515182495117 2.5175156593322754 2.5175156593322754 2.5175156593322754 2.5175156593322754 2.5175156593322754 2.5175156593322754 2.5175156593322754 2.5175156593322754 2.517515182495117 2.5175156593322754 2.5175156593322754 2.5175156593322754 2.5175156593322754 2.5175156593322754 2.5175156593322754 2.5175156593322754 2.5175156593322754 2.5175156593322754 2.5175161361694336 2.5175156593322754 2.5175156593322754 2.5175156593322754 2.5175156593322754 2.517515182495117 2.5175156593322754 2.5175156593322754 2.5175156593322754 2.5175156593322754 2.5175156593322754 2.5175156593322754 2.5175156593322754 2.5175156593322754 2.5175156593322754 2.5175156593322754 2.5175156593322754 2.5175156593322754 2.517515182495117 2.5175156593322754 2.517515182495117 2.5175156593322754 2.5175156593322754 2.5175156593322754 2.5175156593322754 2.5175156593322754 2.5175156593322754 2.5175156593322754 2.5175156593322754 2.5175156593322754 2.5175156593322754 2.5175156593322754 2.5175156593322754 2.5175156593322754 2.5175156593322754 2.5175156593322754 2.5175156593322754 2.5175156593322754 2.5175156593322754 2.517515182495117 2.517515182495117 2.5175156593322754 2.517515182495117
e76 2.516376495361328 2.516376495361328 2.516376495361328 2.516376495361328 2.516376495361328 2.516376495361328 2.516376495361328 2.516376495361328 2.516376495361328 2.516376495361328 2.516376495361328 2.516376495361328 2.516376495361328 2.516376495361328 2.516376495361328 2.516376495361328 2.516376495361328 2.516376495361328 2.516376495361328 2.516376495361328 2.516376495361328 2.516376495361328 2.516376495361328 2.516376495361328 2.516376495361328 2.516376495361328 2.516376256942749 2.516376495361328 2.516376495361328 2.51637601852417 2.516376495361328 2.516376495361328 2.516376495361328 2.516376495361328 2.516376495361328 2.516376495361328 2.516376495361328 2.516376495361328 2.516376495361328 2.516376495361328 2.516376495361328 2.516376495361328 2.516376495361328 2.516376495361328 2.516376495361328 2.516376495361328 2.516376495361328 2.516376495361328 2.516376495361328 2.516376495361328 2.516376495361328 2.516376495361328 2.516376495361328 2.516376495361328 2.516376495361328 2.516376495361328 2.516376495361328 2.516376495361328 2.516376495361328 2.516376495361328 2.516376495361328 2.516376495361328 2.516376495361328 2.516376495361328
e77 2.51347017288208 2.51347017288208 2.513469696044922 2.513469934463501 2.51347017288208 2.51347017288208 2.51347017288208 2.51347017288208 2.51347017288208 2.51347017288208 2.51347017288208 2.513469696044922 2.51347017288208 2.51347017288208 2.51347017288208 2.51347017288208 2.51347017288208 2.51347017288208 2.51347017288208 2.51347017288208 2.51347017288208 2.51347017288208 2.51347017288208 2.51347017288208 2.51347017288208 2.51347017288208 2.513469696044922 2.51347017288208 2.51347017288208 2.51347017288208 2.51347017288208 2.51347017288208 2.51347017288208 2.51347017288208 2.51347017288208 2.51347017288208 2.51347017288208 2.51347017288208 2.51347017288208 2.513469696044922 2.51347017288208 2.513469696044922 2.51347017288208 2.51347017288208 2.51347017288208 2.51347017288208 2.51347017288208 2.51347017288208 2.51347017288208 2.51347017288208 2.51347017288208 2.51347017288208 2.513469934463501 2.51347017288208 2.51347017288208 2.51347017288208 2.51347017288208 2.51347017288208 2.51347017288208 2.51347017288208 2.513469696044922 2.51347017288208 2.51347017288208 2.513469696044922
e78 2.5134592056274414 2.5134592056274414 2.513458728790283 2.5134592056274414 2.5134592056274414 2.5134592056274414 2.5134592056274414 2.5134592056274414 2.5134592056274414 2.5134592056274414 2.5134592056274414 2.513458728790283 2.5134592056274414 2.5134592056274414 2.5134592056274414 2.5134592056274414 2.5134592056274414 2.5134592056274414 2.5134592056274414 2.5134592056274414 2.5134592056274414 2.5134592056274414 2.5134592056274414 2.5134592056274414 2.5134592056274414 2.5134592056274414 2.513458728790283 2.5134592056274414 2.5134592056274414 2.5134592056274414 2.5134592056274414 2.5134592056274414 2.5134592056274414 2.5134592056274414 2.5134592056274414 2.5134592056274414 2.5134592056274414 2.5134592056274414 2.5134592056274414 2.513458728790283 2.5134592056274414 2.513458728790283 2.5134592056274414 2.5134592056274414 2.5134592056274414 2.5134592056274414 2.5134592056274414 2.5134592056274414 2.5134592056274414 2.5134592056274414 2.5134592056274414 2.5134592056274414 2.5134592056274414 2.5134592056274414 2.5134592056274414 2.5134592056274414 2.5134592056274414 2.5134592056274414 2.5134592056274414 2.5134592056274414 2.513458728790283 2.5134592056274414 2.5134592056274414 2.5134592056274414
e79 2.5129451751708984 2.5129456520080566 2.5129451751708984 2.512944459915161 2.5129451751708984 2.5129456520080566 2.5129451751708984 2.5129451751708984 2.5129451751708984 2.5129451751708984 2.5129451751708984 2.5129456520080566 2.5129456520080566 2.5129451751708984 2.5129456520080566 2.5129451751708984 2.5129456520080566 2.5129456520080566 2.5129451751708984 2.5129451751708984 2.5129451751708984 2.5129456520080566 2.5129451751708984 2.5129451751708984 2.5129451751708984 2.5129451751708984 2.5129451751708984 2.5129446983337402 2.5129456520080566 2.5129446983337402 2.5129446983337402 2.5129451751708984 2.5129451751708984 2.5129451751708984 2.5129456520080566 2.512946128845215 2.5129446983337402 2.5129451751708984 2.5129456520080566 2.5129451751708984 2.5129451751708984 2.5129456520080566 2.5129446983337402 2.5129451751708984 2.5129446983337402 2.5129451751708984 2.5129451751708984 2.512946128845215 2.5129451751708984 2.5129451751708984 2.5129456520080566 2.5129456520080566 2.512944459915161 2.5129456520080566 2.512946128845215 2.5129456520080566 2.5129451751708984 2.5129451751708984 2.5129451751708984 2.5129451751708984 2.512946128845215 2.5129456520080566 2.5129451751708984 2.5129456520080566
e80 2.5135369300842285 2.5135369300842285 2.5135369300842285 2.5135369300842285 2.5135369300842285 2.5135369300842285 2.5135369300842285 2.5135369300842285 2.5135369300842285 2.5135369300842285 2.5135369300842285 2.5135364532470703 2.5135374069213867 2.5135369300842285 2.5135369300842285 2.5135369300842285 2.5135369300842285 2.5135369300842285 2.5135369300842285 2.5135369300842285 2.5135369300842285 2.5135374069213867 2.5135369300842285 2.5135369300842285 2.5135369300842285 2.5135369300842285 2.5135364532470703 2.5135369300842285 2.5135369300842285 2.5135369300842285 2.5135369300842285 2.5135369300842285 2.5135369300842285 2.5135369300842285 2.5135369300842285 2.5135369300842285 2.5135369300842285 2.5135369300842285 2.5135369300842285 2.5135369300842285 2.5135369300842285 2.5135364532470703 2.5135369300842285 2.5135369300842285 2.5135369300842285 2.5135369300842285 2.5135369300842285 2.5135369300842285 2.5135369300842285 2.5135369300842285 2.5135369300842285 2.5135374069213867 2.5135369300842285 2.5135369300842285 2.5135369300842285 2.5135369300842285 2.5135369300842285 2.5135369300842285 2.5135369300842285 2.5135369300842285 2.5135369300842285 2.5135369300842285 2.5135369300842285 2.5135369300842285
e81 2.513821601867676 2.513821601867676 2.513821601867676 2.513821601867676 2.513821601867676 2.513821601867676 2.513821601867676 2.513821601867676 2.513821601867676 2.513821601867676 2.513821601867676 2.513821601867676 2.513822078704834 2.513821601867676 2.513821601867676 2.513821601867676 2.513821601867676 2.513821601867676 2.513821601867676 2.513821601867676 2.513821601867676 2.513822078704834 2.513821601867676 2.513821601867676 2.513821601867676 2.513821601867676 2.5138213634490967 2.513822078704834 2.513821601867676 2.513821601867676 2.513821601867676 2.513821601867676 2.513821601867676 2.513821601867676 2.513821601867676 2.513821601867676 2.513821601867676 2.513821601867676 2.513821601867676 2.513821601867676 2.513821601867676 2.513821601867676 2.513821601867676 2.513821601867676 2.513821601867676 2.513821601867676 2.513821601867676 2.513821601867676 2.513821601867676 2.513821601867676 2.513821601867676 2.513821601867676 2.513821840286255 2.513821601867676 2.513821601867676 2.513821601867676 2.513821601867676 2.513821601867676 2.513821601867676 2.513821601867676 2.513821601867676 2.513821601867676 2.513821601867676 2.513821601867676
e82 2.512453079223633 2.5124526023864746 2.5124526023864746 2.512453079223633 2.5124526023864746 2.512453079223633 2.5124526023864746 2.5124526023864746 2.512453079223633 2.5124526023864746 2.5124526023864746 2.5124526023864746 2.512453079223633 2.512453079223633 2.512453079223633 2.5124526023864746 2.5124526023864746 2.5124526023864746 2.5124526023864746 2.5124526023864746 2.512453079223633 2.512453079223633 2.512453079223633 2.512453079223633 2.512453079223633 2.512453079223633 2.5124526023864746 2.512453079223633 2.5124526023864746 2.5124526023864746 2.512453079223633 2.5124526023864746 2.5124526023864746 2.512453079223633 2.5124526023864746 2.512453079223633 2.512453079223633 2.512453079223633 2.5124526023864746 2.5124526023864746 2.512453079223633 2.5124526023864746 2.512453079223633 2.512453079223633 2.512453079223633 2.512453079223633 2.5124526023864746 2.512453079223633 2.512453079223633 2.5124526023864746 2.5124526023864746 2.512453079223633 2.5124528408050537 2.512453079223633 2.512453079223633 2.512453079223633 2.512453079223633 2.512453079223633 2.512453079223633 2.512453079223633 2.512453079223633 2.5124526023864746 2.512453079223633 2.5124526023864746
e83 2.5135364532470703 2.5135364532470703 2.5135364532470703 2.5135364532470703 2.5135364532470703 2.5135364532470703 2.5135364532470703 2.5135364532470703 2.5135364532470703 2.5135364532470703 2.5135364532470703 2.513535976409912 2.5135364532470703 2.5135364532470703 2.5135364532470703 2.5135364532470703 2.5135364532470703 2.5135364532470703 2.5135364532470703 2.5135364532470703 2.5135364532470703 2.5135369300842285 2.5135364532470703 2.5135364532470703 2.5135364532470703 2.5135364532470703 2.513535976409912 2.5135364532470703 2.5135364532470703 2.5135364532470703 2.5135364532470703 2.5135364532470703 2.5135364532470703 2.5135364532470703 2.5135364532470703 2.5135364532470703 2.5135364532470703 2.5135364532470703 2.5135364532470703 2.5135364532470703 2.5135364532470703 2.513535976409912 2.5135364532470703 2.5135364532470703 2.5135364532470703 2.5135364532470703 2.5135364532470703 2.5135364532470703 2.5135364532470703 2.5135364532470703 2.5135364532470703 2.5135369300842285 2.5135364532470703 2.5135364532470703 2.5135364532470703 2.5135364532470703 2.5135364532470703 2.5135364532470703 2.5135364532470703 2.5135364532470703 2.5135364532470703 2.5135364532470703 2.5135364532470703 2.5135364532470703
