163 64
e1 1.0951775312423706 1.096590280532837 1.0945632457733154 1.1149897575378418 1.0989007949829102 1.0979859828948975 1.0935941934585571 1.1019996404647827 1.1106919050216675 1.094032645225525 1.0954421758651733 1.0983469486236572 1.0997142791748047 1.1012279987335205 1.096989631652832 1.0986003875732422 1.098052740097046 1.0951006412506104 1.0956512689590454 1.1023576259613037 1.094849944114685 1.11068856716156 1.107553482055664 1.0978184938430786 1.0966955423355103 1.0984797477722168 1.095481514930725 1.097752571105957 1.1028132438659668 1.1198217868804932 1.098188877105713 1.0985451936721802 1.094997525215149 1.0981799364089966 1.097611665725708 1.0978567600250244 1.0963597297668457 1.0949970483779907 1.0989586114883423 1.123291254043579 1.0946677923202515 1.1223888397216797 1.0948423147201538 1.0943876504898071 1.1140482425689697 1.0976029634475708 1.093988060951233 1.0944018363952637 1.0959895849227905 1.1122205257415771 1.0989488363265991 1.0950608253479004 1.1018800735473633 1.095955491065979 1.0953692197799683 1.0997287034988403 1.096548318862915 1.1032633781433105 1.1012516021728516 1.094423532485962 1.097357988357544 1.103626012802124 1.0946681499481201 1.0970102548599243
e2 1.1016672849655151 1.1030758619308472 1.1010544300079346 1.1213222742080688 1.1053776741027832 1.1044667959213257 1.100087285041809 1.1084599494934082 1.1170772314071655 1.10052490234375 1.101931095123291 1.1048260927200317 1.1061872243881226 1.107692837715149 1.1034739017486572 1.1050784587860107 1.104533314704895 1.1015905141830444 1.1021395921707153 1.1088156700134277 1.1013405323028564 1.1170737743377686 1.1139707565307617 1.1042999029159546 1.1031808853149414 1.1049582958221436 1.1019704341888428 1.104233980178833 1.109268307685852 1.1260828971862793 1.1046687364578247 1.1050236225128174 1.1014875173568726 1.104659914970398 1.1040936708450317 1.1043379306793213 1.1028461456298828 1.101487398147583 1.1054351329803467 1.1294934749603271 1.1011587381362915 1.1286070346832275 1.1013327836990356 1.1008790731430054 1.12039315700531 1.104085087776184 1.1004801988601685 1.100893259048462 1.1024770736694336 1.1185879707336426 1.1054253578186035 1.101550817489624 1.1083412170410156 1.1024430990219116 1.1018582582473755 1.1062015295028687 1.1030341386795044 1.1097153425216675 1.1077163219451904 1.1009149551391602 1.1038411855697632 1.11007559299469 1.1011590957641602 1.1034945249557495
e3 1.110779881477356 1.1120818853378296 1.110213279724121 1.1289294958114624 1.1142089366912842 1.1133671998977661 1.1093192100524902 1.1170563697814941 1.1250120401382446 1.109723687171936 1.1110237836837769 1.113699197769165 1.1149567365646362 1.1163476705551147 1.1124497652053833 1.1139323711395264 1.1134285926818848 1.1107089519500732 1.1112165451049805 1.1173847913742065 1.1104779243469238 1.1250090599060059 1.1221448183059692 1.1132128238677979 1.112178921699524 1.1138215065002441 1.1110601425170898 1.113152265548706 1.1178027391433716 1.1333214044570923 1.1135538816452026 1.1138817071914673 1.1106137037277222 1.1135457754135132 1.1130225658416748 1.1132481098175049 1.1118695735931396 1.1106135845184326 1.1142621040344238 1.1364670991897583 1.1103097200393677 1.13564932346344 1.1104706525802612 1.1100512742996216 1.1280722618103027 1.1130144596099854 1.109682559967041 1.1100643873214722 1.1115285158157349 1.1264064311981201 1.1142529249191284 1.1106723546981812 1.1169463396072388 1.1114970445632935 1.1109565496444702 1.1149699687957764 1.1120433807373047 1.118215799331665 1.1163694858551025 1.1100845336914062 1.1127891540527344 1.1185483932495117 1.1103101968765259 1.1124687194824219
e4 1.1024247407913208 1.1038382053375244 1.101810097694397 1.122145175933838 1.1061476469039917 1.1052336692810059 1.1008397340774536 1.1092402935028076 1.1178863048553467 1.1012787818908691 1.1026897430419922 1.105594277381897 1.1069600582122803 1.1084707975387573 1.104237675666809 1.1058474779129028 1.1053005456924438 1.10234797000885 1.1028990745544434 1.1095974445343018 1.1020969152450562 1.1178830862045288 1.1147695779800415 1.1050662994384766 1.1039434671401978 1.105726957321167 1.1027292013168335 1.1050004959106445 1.1100512742996216 1.1269205808639526 1.1054364442825317 1.1057924032211304 1.1022446155548096 1.1054275035858154 1.1048595905303955 1.1051045656204224 1.1036076545715332 1.1022443771362305 1.1062053442001343 1.1303411722183228 1.1019145250320435 1.1294522285461426 1.1020894050598145 1.10163414478302 1.1212131977081299 1.1048507690429688 1.1012340784072876 1.1016484498977661 1.1032373905181885 1.1194021701812744 1.1061955690383911 1.1023081541061401 1.1091210842132568 1.103203296661377 1.102616548538208 1.1069743633270264 1.1037962436676025 1.1104999780654907 1.1084942817687988 1.101670265197754 1.104606032371521 1.1108614206314087 1.1019151210784912 1.1042581796646118
e5 1.0999797582626343 1.101370096206665 1.0993751287460327 1.1194372177124023 1.1036431789398193 1.1027435064315796 1.0984210968017578 1.1066899299621582 1.115224003791809 1.0988528728485107 1.1002401113510132 1.1030982732772827 1.1044429540634155 1.105931282043457 1.1017628908157349 1.103347659111023 1.102809190750122 1.0999040603637695 1.100446105003357 1.107041597366333 1.099657416343689 1.1152206659317017 1.1121447086334229 1.1025786399841309 1.1014734506607056 1.10322904586792 1.1002790927886963 1.1025136709213257 1.1074893474578857 1.1241692304611206 1.102942943572998 1.1032934188842773 1.0998024940490723 1.1029342412948608 1.1023750305175781 1.102616310119629 1.1011433601379395 1.0998022556304932 1.1036999225616455 1.127563714981079 1.0994781255722046 1.1266810894012451 1.0996499061584473 1.0992021560668945 1.1185144186019897 1.1023664474487305 1.0988088846206665 1.0992162227630615 1.1007789373397827 1.116722822189331 1.103690266609192 1.0998650789260864 1.1065722703933716 1.100745439529419 1.1001683473587036 1.104457139968872 1.10132896900177 1.1079314947128296 1.1059545278549194 1.0992376804351807 1.102125644683838 1.1082878112792969 1.0994783639907837 1.101783275604248
e6 1.1039944887161255 1.1053466796875 1.1034064292907715 1.1228690147399902 1.1075561046600342 1.1066818237304688 1.1024781465530396 1.1105152368545532 1.1187907457351685 1.102898359298706 1.1042479276657104 1.1070265769958496 1.1083333492279053 1.109778881072998 1.1057287454605103 1.1072688102722168 1.1067456007003784 1.1039210557937622 1.1044481992721558 1.1108567714691162 1.103680968284607 1.118787407875061 1.115807056427002 1.106521487236023 1.1054472923278809 1.1071537733078003 1.104285717010498 1.106458306312561 1.1112912893295288 1.1274436712265015 1.1068756580352783 1.107216238975525 1.1038222312927246 1.1068671941757202 1.1063237190246582 1.106558084487915 1.1051262617111206 1.103821873664856 1.1076112985610962 1.1307218074798584 1.1035065650939941 1.129869818687439 1.1036736965179443 1.1032381057739258 1.1219762563705444 1.1063152551651 1.1028555631637573 1.1032518148422241 1.1047717332839966 1.1202421188354492 1.1076018810272217 1.1038827896118164 1.1104011535644531 1.1047391891479492 1.1041780710220337 1.108346939086914 1.1053065061569214 1.1117206811904907 1.109801173210144 1.1032726764678955 1.1060813665390015 1.112066388130188 1.1035069227218628 1.1057484149932861
e7 1.104505181312561 1.105860948562622 1.1039155721664429 1.1234266757965088 1.1080762147903442 1.1071996688842773 1.1029847860336304 1.1110432147979736 1.1193389892578125 1.1034060716629028 1.1047593355178833 1.1075454950332642 1.1088554859161377 1.1103047132492065 1.1062439680099487 1.1077884435653687 1.1072636842727661 1.1044316291809082 1.1049602031707764 1.111385703086853 1.1041909456253052 1.1193358898162842 1.116348147392273 1.107038974761963 1.1059620380401611 1.107672929763794 1.104797124862671 1.1069756746292114 1.111821174621582 1.1280113458633423 1.1073939800262451 1.107735514640808 1.104332447052002 1.1073856353759766 1.1068406105041504 1.1070756912231445 1.1056400537490845 1.1043322086334229 1.1081316471099854 1.131296157836914 1.1040159463882446 1.130442500114441 1.104183554649353 1.1037468910217285 1.1225320100784302 1.1068321466445923 1.103363037109375 1.1037606000900269 1.105284571647644 1.1207939386367798 1.1081222295761108 1.1043932437896729 1.1109286546707153 1.1052520275115967 1.104689359664917 1.108869194984436 1.105820894241333 1.1122515201568604 1.1103273630142212 1.1037814617156982 1.1065975427627563 1.1125982999801636 1.1040164232254028 1.1062638759613037
e8 1.1054624319076538 1.106819987297058 1.1048717498779297 1.1243925094604492 1.109038233757019 1.1081606149673462 1.1039392948150635 1.112007737159729 1.1203058958053589 1.1043614149093628 1.1057168245315552 1.108506679534912 1.1098182201385498 1.1112688779830933 1.1072036027908325 1.1087499856948853 1.1082247495651245 1.1053885221481323 1.1059179306030273 1.1123504638671875 1.1051474809646606 1.120302677154541 1.1173150539398193 1.1079996824264526 1.1069211959838867 1.1086342334747314 1.1057546138763428 1.1079362630844116 1.1127862930297852 1.12897527217865 1.108355164527893 1.1086970567703247 1.105289101600647 1.108346700668335 1.107801079750061 1.1080365180969238 1.1065987348556519 1.1052889823913574 1.1090937852859497 1.1322581768035889 1.104972243309021 1.1314048767089844 1.1051400899887085 1.1047027111053467 1.1234983205795288 1.107792615890503 1.1043181419372559 1.1047163009643555 1.1062430143356323 1.121760606765747 1.109084129333496 1.105350375175476 1.1118931770324707 1.1062101125717163 1.1056466102600098 1.1098320484161377 1.1067798137664795 1.1132168769836426 1.111291527748108 1.104737401008606 1.1075575351715088 1.1135640144348145 1.1049726009368896 1.107223629951477
e9 1.1051721572875977 1.1065233945846558 1.1045844554901123 1.1240332126617432 1.1087311506271362 1.107857584953308 1.1036567687988281 1.111688256263733 1.119957685470581 1.1040765047073364 1.105425238609314 1.1082022190093994 1.1095077991485596 1.1109522581100464 1.1069049835205078 1.108444094657898 1.1079213619232178 1.105098843574524 1.1056255102157593 1.1120295524597168 1.1048587560653687 1.1199545860290527 1.116976022720337 1.1076972484588623 1.106623888015747 1.1083290576934814 1.1054631471633911 1.1076343059539795 1.1124638319015503 1.1286050081253052 1.1080513000488281 1.108391523361206 1.1049997806549072 1.1080427169799805 1.1074998378753662 1.107733964920044 1.106303095817566 1.1049996614456177 1.1087864637374878 1.1318814754486084 1.104684591293335 1.1310298442840576 1.1048516035079956 1.1044162511825562 1.1231410503387451 1.1074912548065186 1.1040338277816772 1.104429841041565 1.1059491634368896 1.1214081048965454 1.1087769269943237 1.1050605773925781 1.1115741729736328 1.1059163808822632 1.1053556203842163 1.109521508216858 1.1064832210540771 1.112892746925354 1.1109747886657715 1.1044508218765259 1.1072574853897095 1.1132382154464722 1.1046849489212036 1.1069248914718628
e10 1.104111671447754 1.1054967641830444 1.1035090684890747 1.1234220266342163 1.1077594757080078 1.1068639755249023 1.1025580167770386 1.1107884645462036 1.119253396987915 1.102988362312317 1.1043710708618164 1.1072171926498413 1.1085549592971802 1.110034704208374 1.1058878898620605 1.107465147972107 1.1069294214248657 1.1040362119674683 1.1045763492584229 1.111138105392456 1.1037904024124146 1.1192501783370972 1.116202473640442 1.106699824333191 1.1055998802185059 1.1073471307754517 1.1044098138809204 1.1066352128982544 1.11158287525177 1.1280957460403442 1.1070624589920044 1.1074113845825195 1.1039351224899292 1.1070538759231567 1.1064974069595337 1.1067373752593994 1.1052708625793457 1.1039350032806396 1.1078158617019653 1.131443738937378 1.103611707687378 1.1305736303329468 1.1037828922271729 1.1033366918563843 1.1225095987319946 1.1064887046813965 1.1029446125030518 1.1033507585525513 1.1049079895019531 1.120737075805664 1.1078060865402222 1.1039973497390747 1.1106717586517334 1.1048744916915894 1.104299545288086 1.1085690259933472 1.1054556369781494 1.112022042274475 1.1100578308105469 1.1033720970153809 1.1062490940093994 1.1123758554458618 1.1036120653152466 1.1059081554412842
e11 1.1001770496368408 1.1015645265579224 1.0995736122131348 1.1195800304412842 1.103832483291626 1.1029349565505981 1.0986214876174927 1.1068719625473022 1.1153812408447266 1.0990523099899292 1.1004369258880615 1.1032888889312744 1.104630708694458 1.1061152219772339 1.1019566059112549 1.103537678718567 1.103000521659851 1.1001017093658447 1.100642442703247 1.1072227954864502 1.0998553037643433 1.1153779029846191 1.112311601638794 1.1027703285217285 1.101667881011963 1.103419542312622 1.100475788116455 1.1027055978775024 1.1076693534851074 1.1242936849594116 1.1031339168548584 1.1034836769104004 1.100000023841858 1.1031250953674316 1.1025673151016235 1.1028079986572266 1.1013381481170654 1.0999999046325684 1.1038892269134521 1.1276741027832031 1.0996763706207275 1.1267952919006348 1.099847674369812 1.0994009971618652 1.118660569190979 1.1025587320327759 1.0990084409713745 1.0994149446487427 1.1009745597839355 1.116875171661377 1.103879690170288 1.100062608718872 1.1067547798156738 1.1009411811828613 1.1003652811050415 1.104644536972046 1.1015233993530273 1.1081104278564453 1.1061385869979858 1.0994365215301514 1.1023184061050415 1.1084659099578857 1.0996767282485962 1.1019768714904785
e12 1.1045196056365967 1.1058727502822876 1.1039310693740845 1.123421549797058 1.1080840826034546 1.1072088479995728 1.1030023097991943 1.111046552658081 1.1193348169326782 1.1034225225448608 1.1047732830047607 1.1075540781021118 1.108862042427063 1.1103092432022095 1.106255054473877 1.1077966690063477 1.1072728633880615 1.1044460535049438 1.104973554611206 1.1113885641098022 1.104205846786499 1.11933171749115 1.116346001625061 1.107048511505127 1.105973482131958 1.107681393623352 1.1048109531402588 1.106985330581665 1.1118236780166626 1.1280070543289185 1.1074029207229614 1.1077439785003662 1.1043469905853271 1.1073945760726929 1.1068506240844727 1.1070853471755981 1.105652093887329 1.1043468713760376 1.1081393957138062 1.1312940120697021 1.1040313243865967 1.1304395198822021 1.1041984558105469 1.1037627458572388 1.1225268840789795 1.106842279434204 1.1033798456192017 1.103776454925537 1.105297565460205 1.1207891702651978 1.108129858970642 1.1044081449508667 1.1109323501586914 1.1052647829055786 1.1047033071517944 1.1088756322860718 1.105832576751709 1.1122534275054932 1.1103317737579346 1.1037973165512085 1.1066079139709473 1.1125997304916382 1.1040318012237549 1.1062748432159424
e13 1.1008739471435547 1.1022675037384033 1.1002678871154785 1.1203620433807373 1.1045458316802979 1.1036440134048462 1.0993115901947021 1.1075985431671143 1.116145133972168 1.0997443199157715 1.10113525390625 1.1039997339248657 1.1053472757339478 1.106838583946228 1.102661371231079 1.1042494773864746 1.1037096977233887 1.1007981300354004 1.1013413667678833 1.1079509258270264 1.1005507707595825 1.11614191532135 1.1130621433258057 1.1034789085388184 1.102371335029602 1.104130744934082 1.1011741161346436 1.103413701057434 1.108399510383606 1.1250959634780884 1.1038440465927124 1.1041951179504395 1.100696325302124 1.1038352251052856 1.1032748222351074 1.1035165786743164 1.102040410041809 1.100696086883545 1.104602575302124 1.128490686416626 1.10037100315094 1.1276081800460815 1.10054349899292 1.1000945568084717 1.119438648223877 1.1032662391662598 1.0997002124786377 1.1001087427139282 1.101675033569336 1.1176456212997437 1.1045929193496704 1.1007590293884277 1.1074806451797485 1.1016414165496826 1.1010631322860718 1.1053613424301147 1.1022263765335083 1.108842372894287 1.1068618297576904 1.1001302003860474 1.1030248403549194 1.1091994047164917 1.1003714799880981 1.1026818752288818
e14 1.1067763566970825 1.1081165075302124 1.1061933040618896 1.1254804134368896 1.1103066205978394 1.1094398498535156 1.1052733659744263 1.1132395267486572 1.1214404106140137 1.1056894063949585 1.107027530670166 1.1097818613052368 1.1110769510269165 1.1125097274780273 1.1084951162338257 1.1100218296051025 1.109503149986267 1.1067034006118774 1.1072258949279785 1.1135780811309814 1.1064655780792236 1.1214370727539062 1.1184839010238647 1.109281063079834 1.108216404914856 1.109907627105713 1.107064962387085 1.1092184782028198 1.1140087842941284 1.1300106048583984 1.109632134437561 1.1099697351455688 1.1066052913665771 1.109623670578003 1.1090850830078125 1.109317421913147 1.1078981161117554 1.1066051721572876 1.1103613376617432 1.1332554817199707 1.1062926054000854 1.1324121952056885 1.1064581871032715 1.106026530265808 1.1245962381362915 1.1090766191482544 1.105647325515747 1.1060400009155273 1.1075468063354492 1.1228783130645752 1.1103521585464478 1.1066657304763794 1.113126516342163 1.107514500617981 1.1069581508636475 1.1110903024673462 1.108076810836792 1.1144342422485352 1.1125320196151733 1.1060607433319092 1.1088446378707886 1.1147769689559937 1.106292963027954 1.1085147857666016
e15 1.104844570159912 1.1062097549438477 1.1042507886886597 1.123893141746521 1.1084402799606323 1.1075575351715088 1.103313684463501 1.1114275455474854 1.1197792291641235 1.1037378311157227 1.105100393295288 1.1079058647155762 1.109224796295166 1.1106841564178467 1.1065952777862549 1.1081503629684448 1.1076221466064453 1.104770302772522 1.1053025722503662 1.1117725372314453 1.1045280694961548 1.1197760105133057 1.116768717765808 1.107395887374878 1.1063114404678345 1.1080341339111328 1.1051385402679443 1.1073321104049683 1.112210988998413 1.1285054683685303 1.1077532768249512 1.1080971956253052 1.1046706438064575 1.1077446937561035 1.1071960926055908 1.1074328422546387 1.1059870719909668 1.1046702861785889 1.108496069908142 1.1318089962005615 1.1043519973754883 1.1309504508972168 1.104520559310913 1.1040810346603394 1.122992753982544 1.1071876287460327 1.1036945581436157 1.1040947437286377 1.1056294441223145 1.1212434768676758 1.1084864139556885 1.1047319173812866 1.1113122701644897 1.1055965423583984 1.1050299406051636 1.1092387437820435 1.1061691045761108 1.1126443147659302 1.1107069253921509 1.1041158437728882 1.106951355934143 1.1129933595657349 1.104352355003357 1.106615424156189
e16 1.1045047044754028 1.105864405632019 1.1039133071899414 1.1234773397445679 1.108086109161377 1.1072068214416504 1.1029800176620483 1.1110612154006958 1.1193792819976807 1.1034023761749268 1.1047595739364624 1.107553482055664 1.1088674068450928 1.1103209257125854 1.1062484979629517 1.1077971458435059 1.1072711944580078 1.104430913925171 1.1049609184265137 1.111404538154602 1.1041895151138306 1.1193760633468628 1.1163805723190308 1.1070457696914673 1.1059656143188477 1.107681393623352 1.104797601699829 1.1069823503494263 1.1118415594100952 1.12807297706604 1.107401728630066 1.1077443361282349 1.1043314933776855 1.1073932647705078 1.106846809387207 1.107082486152649 1.1056426763534546 1.1043312549591064 1.108141541481018 1.131365418434143 1.1040140390396118 1.130509614944458 1.1041821241378784 1.1037441492080688 1.1225804090499878 1.1068382263183594 1.1033592224121094 1.1037578582763672 1.1052864789962769 1.1208378076553345 1.108132004737854 1.1043925285339355 1.1109464168548584 1.1052535772323608 1.1046892404556274 1.1088812351226807 1.1058242321014404 1.112273097038269 1.1103434562683105 1.1037788391113281 1.1066030263900757 1.1126207113265991 1.104014277458191 1.1062684059143066
e17 1.0980868339538574 1.0994702577590942 1.0974854230880737 1.1174384355545044 1.101731777191162 1.1008366346359253 1.0965361595153809 1.1047626733779907 1.1132497787475586 1.0969656705856323 1.0983459949493408 1.1011897325515747 1.1025274991989136 1.1040081977844238 1.0998612642288208 1.1014375686645508 1.1009020805358887 1.0980117321014404 1.0985509157180786 1.1051125526428223 1.0977661609649658 1.1132464408874512 1.1101878881454468 1.100672721862793 1.0995733737945557 1.1013197898864746 1.0983847379684448 1.1006081104278564 1.1055577993392944 1.1221415996551514 1.1010351181030273 1.1013838052749634 1.0979105234146118 1.1010265350341797 1.1004701852798462 1.1007100343704224 1.0992448329925537 1.0979102849960327 1.1017882823944092 1.1255149841308594 1.0975877046585083 1.1246378421783447 1.0977586507797241 1.0973132848739624 1.1165212392807007 1.100461721420288 1.0969218015670776 1.0973272323608398 1.0988820791244507 1.1147401332855225 1.1017786264419556 1.0979726314544678 1.1046457290649414 1.098848581314087 1.0982747077941895 1.1025415658950806 1.0994292497634888 1.1059976816177368 1.1040312051773071 1.0973484516143799 1.1002219915390015 1.1063523292541504 1.0975881814956665 1.0998814105987549
e18 1.1018962860107422 1.103270411491394 1.1012988090515137 1.1210726499557495 1.1055153608322144 1.104627013206482 1.1003553867340088 1.1085220575332642 1.1169294118881226 1.1007823944091797 1.102154016494751 1.1049774885177612 1.1063051223754883 1.107774019241333 1.1036585569381714 1.1052236557006836 1.104691982269287 1.101821780204773 1.1023575067520142 1.108869194984436 1.1015777587890625 1.1169263124465942 1.113898515701294 1.1044641733169556 1.1033728122711182 1.1051065921783447 1.1021922826766968 1.1044000387191772 1.1093106269836426 1.1257195472717285 1.1048239469528198 1.1051702499389648 1.1017212867736816 1.1048154830932617 1.1042633056640625 1.104501485824585 1.1030464172363281 1.101720929145813 1.1055716276168823 1.1290496587753296 1.1014004945755005 1.128184199333191 1.1015703678131104 1.1011277437210083 1.1201655864715576 1.1042547225952148 1.100738763809204 1.1011415719985962 1.1026862859725952 1.1184039115905762 1.1055620908737183 1.101783037185669 1.1084063053131104 1.1026531457901 1.1020828485488892 1.1063190698623657 1.1032296419143677 1.1097469329833984 1.1077967882156372 1.1011629104614258 1.104016900062561 1.1100983619689941 1.1014009714126587 1.1036787033081055
e19 1.081183910369873 1.0827910900115967 1.0804851055145264 1.1036534309387207 1.0854182243347168 1.0843783617019653 1.079382061958313 1.0889387130737305 1.0987930297851562 1.0798813104629517 1.0814851522445679 1.0847886800765991 1.086342692375183 1.0880622863769531 1.0832452774047852 1.0850766897201538 1.0844542980194092 1.0810964107513428 1.0817229747772217 1.089345097541809 1.0808112621307373 1.0987889766693115 1.0952385663986206 1.0841879844665527 1.0829106569290161 1.0849395990371704 1.0815298557281494 1.0841127634048462 1.0898622274398804 1.109108328819275 1.084609031677246 1.0850141048431396 1.0809789896011353 1.0845990180969238 1.083952784538269 1.0842313766479492 1.082529067993164 1.0809787511825562 1.0854840278625488 1.1130194664001465 1.080603837966919 1.1120026111602783 1.0808025598526 1.0802851915359497 1.1025892496109009 1.0839427709579468 1.079830288887024 1.080301284790039 1.0821077823638916 1.1005223989486694 1.0854727029800415 1.081051230430603 1.0888028144836426 1.082068920135498 1.081402063369751 1.0863590240478516 1.0827434062957764 1.0903732776641846 1.088089108467102 1.0803260803222656 1.0836644172668457 1.0907847881317139 1.0806043148040771 1.0832687616348267
e20 1.0700753927230835 1.0717215538024902 1.0693601369857788 1.0932254791259766 1.0744152069091797 1.0733485221862793 1.0682318210601807 1.0780309438705444 1.0881916284561157 1.068742275238037 1.0703837871551514 1.0737690925598145 1.0753639936447144 1.0771303176879883 1.0721867084503174 1.0740647315979004 1.0734264850616455 1.06998610496521 1.0706275701522827 1.07844877243042 1.0696941614151 1.0881874561309814 1.0845197439193726 1.0731532573699951 1.0718441009521484 1.0739243030548096 1.0704296827316284 1.0730761289596558 1.0789809226989746 1.098893642425537 1.0735852718353271 1.0740004777908325 1.0698657035827637 1.0735747814178467 1.0729119777679443 1.073197841644287 1.0714529752731323 1.0698654651641846 1.0744826793670654 1.1029696464538574 1.0694819688796997 1.1019090414047241 1.0696851015090942 1.0691554546356201 1.092121958732605 1.072901964187622 1.0686901807785034 1.0691721439361572 1.0710214376449585 1.089980959892273 1.0744712352752686 1.0699398517608643 1.07789146900177 1.070981740951538 1.0702989101409912 1.075380802154541 1.0716725587844849 1.079506516456604 1.077157735824585 1.069197416305542 1.0726165771484375 1.0799301862716675 1.0694823265075684 1.0722110271453857
e21 1.0710283517837524 1.072648048400879 1.070324420928955 1.093796968460083 1.0752984285354614 1.074249029159546 1.0692139863967896 1.0788556337356567 1.0888481140136719 1.0697165727615356 1.0713318586349487 1.0746629238128662 1.0762319564819336 1.0779695510864258 1.073105812072754 1.0749536752700806 1.0743255615234375 1.0709404945373535 1.0715714693069458 1.0792665481567383 1.070652961730957 1.0888439416885376 1.0852375030517578 1.0740567445755005 1.0727686882019043 1.0748151540756226 1.0713770389556885 1.0739810466766357 1.0797899961471558 1.0993674993515015 1.0744818449020386 1.074890375137329 1.0708218812942505 1.0744714736938477 1.0738192796707153 1.0741007328033447 1.0723837614059448 1.0708216428756714 1.0753648281097412 1.10337233543396 1.0704442262649536 1.1023303270339966 1.0706442594528198 1.0701230764389038 1.092712163925171 1.0738095045089722 1.0696650743484497 1.0701394081115723 1.071959137916565 1.0906074047088623 1.0753535032272339 1.070894718170166 1.0787184238433838 1.0719202756881714 1.0712480545043945 1.0762484073638916 1.0725998878479004 1.0803070068359375 1.0779966115951538 1.0701643228530884 1.07352876663208 1.0807236433029175 1.0704448223114014 1.0731295347213745
e22 1.0741342306137085 1.0757936239242554 1.0734130144119263 1.0973796844482422 1.0785073041915894 1.0774329900741577 1.0722746849060059 1.0821454524993896 1.0923428535461426 1.0727896690368652 1.0744452476501465 1.0778566598892212 1.0794624090194702 1.0812394618988037 1.0762624740600586 1.0781543254852295 1.0775114297866821 1.0740442276000977 1.074690818786621 1.0825655460357666 1.0737497806549072 1.0923385620117188 1.0886622667312622 1.077236294746399 1.075917363166809 1.0780128240585327 1.0744915008544922 1.077158808708191 1.0831003189086914 1.1030387878417969 1.0776712894439697 1.078089714050293 1.073922872543335 1.0776606798171997 1.0769933462142944 1.0772812366485596 1.0755231380462646 1.0739225149154663 1.0785751342773438 1.1070997714996338 1.073535680770874 1.1060436964035034 1.0737407207489014 1.0732065439224243 1.0962764024734497 1.076983094215393 1.072737216949463 1.073223352432251 1.0750880241394043 1.0941344499588013 1.0785636901855469 1.0739974975585938 1.0820050239562988 1.0750479698181152 1.0743595361709595 1.0794792175292969 1.075744390487671 1.0836286544799805 1.081267237663269 1.0732489824295044 1.0766955614089966 1.0840543508529663 1.0735362768173218 1.076287031173706
e23 1.0680749416351318 1.069714069366455 1.0673625469207764 1.0911210775375366 1.0723963975906372 1.0713343620300293 1.0662388801574707 1.0759966373443604 1.086111307144165 1.0667474269866943 1.0683820247650146 1.0717531442642212 1.0733412504196167 1.0750999450683594 1.070177435874939 1.0720475912094116 1.0714119672775269 1.0679858922958374 1.06862473487854 1.076412558555603 1.067695140838623 1.0861070156097412 1.082456350326538 1.0711396932601929 1.0698362588882446 1.0719074010849 1.0684276819229126 1.0710630416870117 1.0769424438476562 1.0967607498168945 1.071569800376892 1.0719833374023438 1.0678659677505493 1.0715595483779907 1.0708996057510376 1.0711841583251953 1.0694466829299927 1.0678657293319702 1.0724636316299438 1.1008155345916748 1.0674837827682495 1.0997602939605713 1.0676862001419067 1.067158818244934 1.0900228023529053 1.0708895921707153 1.0666953325271606 1.067175269126892 1.069016933441162 1.0878922939300537 1.0724520683288574 1.0679397583007812 1.0758576393127441 1.0689774751663208 1.0682973861694336 1.0733578205108643 1.0696653127670288 1.0774656534194946 1.0751272439956665 1.0672004222869873 1.0706052780151367 1.0778872966766357 1.0674842596054077 1.0702015161514282
e24 1.062593936920166 1.0642578601837158 1.0618709325790405 1.0860364437103271 1.0669817924499512 1.0659029483795166 1.0607308149337769 1.0706400871276855 1.0809314250946045 1.0612468719482422 1.0629055500030518 1.066328525543213 1.0679415464401245 1.0697286128997803 1.0647282600402832 1.0666272640228271 1.0659818649291992 1.0625035762786865 1.0631519556045532 1.0710630416870117 1.0622084140777588 1.0809272527694702 1.0772104263305664 1.0657055377960205 1.064381718635559 1.0664852857589722 1.0629521608352661 1.0656275749206543 1.071601390838623 1.0917893648147583 1.0661423206329346 1.066562294960022 1.0623819828033447 1.066131591796875 1.0654616355895996 1.0657505989074707 1.0639864206314087 1.062381625175476 1.0670499801635742 1.095929503440857 1.0619940757751465 1.0948519706726074 1.062199354171753 1.061664342880249 1.0849169492721558 1.0654515027999878 1.0611939430236816 1.0616809129714966 1.0635502338409424 1.0827456712722778 1.0670384168624878 1.062456727027893 1.0704988241195679 1.0635100603103638 1.0628197193145752 1.0679584741592407 1.0642083883285522 1.0721334218978882 1.0697563886642456 1.0617066621780396 1.0651626586914062 1.072562336921692 1.0619943141937256 1.0647526979446411
e25 1.0668970346450806 1.0685495138168335 1.0661790370941162 1.0901614427566528 1.0712541341781616 1.0701829195022583 1.0650466680526733 1.0748857259750366 1.0850977897644043 1.0655590295791626 1.0672067403793335 1.0706053972244263 1.0722068548202515 1.0739808082580566 1.0690165758132935 1.0709021091461182 1.0702613592147827 1.0668072700500488 1.0674512386322021 1.0753052234649658 1.0665143728256226 1.0850937366485596 1.0814061164855957 1.0699868202209473 1.06867253780365 1.0707610845565796 1.0672527551651 1.0699095726013184 1.075839877128601 1.0958658456802368 1.070420503616333 1.0708374977111816 1.0666865110397339 1.0704100131988525 1.06974458694458 1.0700316429138184 1.0682798624038696 1.0666862726211548 1.071321725845337 1.0999702215194702 1.0663012266159058 1.0989019870758057 1.0665051937103271 1.0659737586975098 1.0890510082244873 1.0697345733642578 1.0655068159103394 1.0659904479980469 1.067846655845642 1.0868974924087524 1.07131028175354 1.0667608976364136 1.0747454166412354 1.0678068399429321 1.0671212673187256 1.0722235441207886 1.068500280380249 1.0763678550720215 1.0740084648132324 1.0660158395767212 1.0694479942321777 1.0767935514450073 1.0663018226623535 1.0690407752990723
e26 1.072683334350586 1.0743333101272583 1.0719661712646484 1.0958285331726074 1.0770320892333984 1.0759637355804443 1.070834755897522 1.080652117729187 1.0908070802688599 1.071346640586853 1.0729925632476807 1.0763851404190063 1.0779824256896973 1.0797505378723145 1.074799656867981 1.076681137084961 1.0760416984558105 1.0725936889648438 1.0732365846633911 1.0810703039169312 1.072300910949707 1.0908029079437256 1.0871403217315674 1.0757681131362915 1.0744562149047852 1.0765403509140015 1.0730384588241577 1.0756908655166626 1.0816025733947754 1.101474404335022 1.0762006044387817 1.076616883277893 1.0724730491638184 1.0761902332305908 1.075526237487793 1.0758126974105835 1.0740641355514526 1.0724729299545288 1.0770996809005737 1.1055290699005127 1.0720882415771484 1.1044745445251465 1.0722919702529907 1.071760892868042 1.0947282314300537 1.0755161046981812 1.0712944269180298 1.0717777013778687 1.0736316442489624 1.092592716217041 1.0770883560180664 1.0725473165512085 1.0805124044418335 1.073591947555542 1.0729072093963623 1.0779991149902344 1.0742844343185425 1.0821282863616943 1.0797780752182007 1.0718029737472534 1.075230360031128 1.082552194595337 1.0720887184143066 1.0748238563537598
e27 1.077052354812622 1.0786864757537842 1.0763418674468994 1.09992516040802 1.0813584327697754 1.0803006887435913 1.0752207040786743 1.0849400758743286 1.0949715375900269 1.0757280588150024 1.077358603477478 1.080717921257019 1.0822988748550415 1.0840482711791992 1.079148292541504 1.0810109376907349 1.0803780555725098 1.0769634246826172 1.077600359916687 1.0853533744812012 1.0766735076904297 1.0949674844741821 1.091351866722107 1.0801070928573608 1.0788081884384155 1.08087158203125 1.0774040222167969 1.0800306797027588 1.0858798027038574 1.1054936647415161 1.0805354118347168 1.0809471607208252 1.0768439769744873 1.0805249214172363 1.0798677206039429 1.0801512002944946 1.0784200429916382 1.0768437385559082 1.0814253091812134 1.109493613243103 1.076462745666504 1.1084531545639038 1.0766645669937134 1.0761386156082153 1.0988401174545288 1.079857587814331 1.0756762027740479 1.0761550664901733 1.0779916048049927 1.0967334508895874 1.0814138650894165 1.0769175291061401 1.0848019123077393 1.0779521465301514 1.077273964881897 1.0823153257369995 1.0786378383636475 1.0863999128341675 1.0840755701065063 1.076180338859558 1.0795745849609375 1.0868186950683594 1.076463222503662 1.079172134399414
e28 1.0679935216903687 1.0696327686309814 1.0672811269760132 1.09104323387146 1.0723156929016113 1.0712532997131348 1.0661572217941284 1.0759162902832031 1.0860328674316406 1.0666658878326416 1.0683006048202515 1.0716722011566162 1.0732605457305908 1.0750192403793335 1.0700962543487549 1.0719664096832275 1.0713307857513428 1.0679043531417847 1.0685434341430664 1.076332449913025 1.0676136016845703 1.0860286951065063 1.082377314567566 1.071058750152588 1.069754958152771 1.0718265771865845 1.068346381187439 1.0709819793701172 1.076862096786499 1.0966836214065552 1.071488857269287 1.0719025135040283 1.0677846670150757 1.0714786052703857 1.070818543434143 1.0711032152175903 1.069365382194519 1.067784309387207 1.0723826885223389 1.100738525390625 1.0674024820327759 1.0996835231781006 1.067604660987854 1.0670772790908813 1.0899450778961182 1.0708085298538208 1.066613793373108 1.067093849182129 1.0689356327056885 1.0878140926361084 1.0723713636398315 1.067858338356018 1.075777530670166 1.0688961744308472 1.0682159662246704 1.0732771158218384 1.0695841312408447 1.077385663986206 1.0750467777252197 1.0671188831329346 1.0705243349075317 1.0778074264526367 1.0674028396606445 1.0701203346252441
e29 1.0639147758483887 1.065586805343628 1.0631885528564453 1.0874561071395874 1.0683232545852661 1.06723952293396 1.0620429515838623 1.0719977617263794 1.082331895828247 1.0625613927841187 1.0642281770706177 1.06766676902771 1.0692873001098633 1.0710822343826294 1.0660593509674072 1.0679670572280884 1.0673186779022217 1.0638240575790405 1.064475417137146 1.0724223852157593 1.0635274648666382 1.0823274850845337 1.0785958766937256 1.0670409202575684 1.065711259841919 1.0678242444992065 1.0642749071121216 1.066962718963623 1.0729633569717407 1.0932295322418213 1.0674798488616943 1.067901849746704 1.063701868057251 1.0674692392349243 1.066796064376831 1.0670863389968872 1.0653140544891357 1.0637016296386719 1.0683916807174683 1.0973836183547974 1.0633121728897095 1.0963026285171509 1.0635185241699219 1.0629807710647583 1.0863324403762817 1.0667856931686401 1.062508225440979 1.0629974603652954 1.0648757219314575 1.0841530561447144 1.0683801174163818 1.0637770891189575 1.0718560218811035 1.0648353099822998 1.064141869544983 1.0693042278289795 1.0655369758605957 1.0734976530075073 1.0711101293563843 1.0630232095718384 1.0664957761764526 1.0739284753799438 1.0633126497268677 1.0660837888717651
e30 1.073593020439148 1.0752114057540894 1.0728895664215088 1.0963139533996582 1.0778586864471436 1.076810598373413 1.0717798471450806 1.0814104080200195 1.091380000114441 1.0722819566726685 1.0738962888717651 1.0772240161895752 1.0787909030914307 1.0805258750915527 1.0756686925888062 1.077514410018921 1.0768872499465942 1.073505163192749 1.0741358995437622 1.0818207263946533 1.0732179880142212 1.091375708580017 1.0877786874771118 1.0766186714172363 1.0753319263458252 1.0773762464523315 1.0739414691925049 1.0765429735183716 1.0823431015014648 1.1018656492233276 1.0770431756973267 1.0774513483047485 1.073386788368225 1.0770328044891357 1.0763815641403198 1.076662540435791 1.0749473571777344 1.073386549949646 1.0779249668121338 1.1058562994003296 1.0730093717575073 1.1048179864883423 1.0732091665267944 1.0726884603500366 1.095232367515564 1.076371669769287 1.0722308158874512 1.0727046728134155 1.0745232105255127 1.0931341648101807 1.077913761138916 1.0734597444534302 1.0812734365463257 1.07448410987854 1.07381272315979 1.0788072347640991 1.0751633644104004 1.0828591585159302 1.0805529356002808 1.0727297067642212 1.0760910511016846 1.0832749605178833 1.0730098485946655 1.0756925344467163
e31 1.083032250404358 1.084599494934082 1.0823508501052856 1.1049396991729736 1.0871609449386597 1.0861471891403198 1.081275463104248 1.0905933380126953 1.1002006530761719 1.0817620754241943 1.0833261013031006 1.0865471363067627 1.0880622863769531 1.0897389650344849 1.0850422382354736 1.0868277549743652 1.0862212181091309 1.0829471349716187 1.0835579633712769 1.090989351272583 1.0826691389083862 1.1001967191696167 1.0967351198196411 1.0859613418579102 1.0847160816192627 1.0866942405700684 1.0833698511123657 1.0858880281448364 1.0914937257766724 1.1102588176727295 1.0863721370697021 1.0867668390274048 1.0828324556350708 1.0863620042800903 1.085732102394104 1.0860037803649902 1.0843440294265747 1.0828322172164917 1.087225079536438 1.1140729188919067 1.0824668407440186 1.1130813360214233 1.0826605558395386 1.0821560621261597 1.103901982307434 1.0857223272323608 1.0817124843597412 1.0821716785430908 1.0839332342147827 1.1018867492675781 1.0872139930725098 1.0829030275344849 1.0904608964920044 1.0838955640792847 1.083245038986206 1.088078260421753 1.0845528841018677 1.091991901397705 1.089764952659607 1.0821959972381592 1.0854508876800537 1.0923930406570435 1.0824673175811768 1.085065245628357
e32 1.0728318691253662 1.0744588375091553 1.072124719619751 1.0957090854644775 1.0771212577819824 1.0760670900344849 1.0710095167160034 1.0806947946548462 1.0907351970672607 1.0715141296386719 1.0731366872787476 1.0764827728271484 1.0780589580535889 1.079804539680481 1.0749186277389526 1.0767748355865479 1.0761438608169556 1.072743535041809 1.0733776092529297 1.08110773563385 1.072454810142517 1.090731143951416 1.0871069431304932 1.075873851776123 1.0745800733566284 1.0766359567642212 1.0731821060180664 1.0757977962493896 1.0816333293914795 1.101309061050415 1.076300859451294 1.0767114162445068 1.0726245641708374 1.076290488243103 1.075635552406311 1.0759180784225464 1.0741933584213257 1.0726243257522583 1.0771877765655518 1.1053358316421509 1.0722452402114868 1.1042879819869995 1.0724461078643799 1.0719226598739624 1.094618558883667 1.0756255388259888 1.071462631225586 1.0719389915466309 1.0737669467926025 1.0925031900405884 1.077176570892334 1.0726977586746216 1.080556869506836 1.0737277269363403 1.0730526447296143 1.0780754089355469 1.0744105577468872 1.0821528434753418 1.0798317193984985 1.0719640254974365 1.0753434896469116 1.0825715065002441 1.0722455978393555 1.0749425888061523
e33 1.0716263055801392 1.0732510089874268 1.0709201097488403 1.0944710969924927 1.0759094953536987 1.0748568773269653 1.069806456565857 1.0794780254364014 1.089504361152649 1.0703104734420776 1.0719307661056519 1.0752719640731812 1.0768460035324097 1.0785892009735107 1.0737102031707764 1.075563669204712 1.0749337673187256 1.0715380907058716 1.0721712112426758 1.0798903703689575 1.0712498426437378 1.0895001888275146 1.085881233215332 1.0746639966964722 1.0733718872070312 1.0754249095916748 1.0719760656356812 1.0745881795883179 1.0804154872894287 1.1000628471374512 1.0750902891159058 1.0755003690719604 1.0714192390441895 1.0750800371170044 1.0744258165359497 1.074708104133606 1.0729860067367554 1.0714190006256104 1.0759761333465576 1.1040836572647095 1.071040391921997 1.1030374765396118 1.0712411403656006 1.0707184076309204 1.0933821201324463 1.0744160413742065 1.0702589750289917 1.0707346200942993 1.0725600719451904 1.091269850730896 1.0759646892547607 1.0714924335479736 1.0793402194976807 1.0725207328796387 1.071846842765808 1.0768624544143677 1.0732026100158691 1.0809340476989746 1.0786162614822388 1.070759654045105 1.074134349822998 1.08135187625885 1.0710407495498657 1.0737340450286865
e34 1.071912407875061 1.0735257863998413 1.071211338043213 1.0945348739624023 1.0761644840240479 1.0751197338104248 1.0701048374176025 1.0797033309936523 1.08962881565094 1.0706055164337158 1.0722148418426514 1.0755318403244019 1.0770933628082275 1.0788222551345825 1.0739816427230835 1.0758212804794312 1.0751960277557373 1.0718247890472412 1.0724536180496216 1.0801122188568115 1.0715386867523193 1.0896246433258057 1.0860453844070435 1.0749284029006958 1.0736459493637085 1.07568359375 1.072259783744812 1.0748529434204102 1.0806324481964111 1.100049614906311 1.0753514766693115 1.0757582187652588 1.0717068910598755 1.0753412246704102 1.0746920108795166 1.074972152709961 1.0732625722885132 1.0717066526412964 1.076230525970459 1.1040090322494507 1.0713306665420532 1.1029791831970215 1.0715298652648926 1.071010708808899 1.0934600830078125 1.0746822357177734 1.070554256439209 1.0710269212722778 1.0728398561477661 1.0913736820220947 1.076219081878662 1.071779489517212 1.0795668363571167 1.072800874710083 1.0721315145492554 1.077109694480896 1.0734777450561523 1.0811463594436646 1.078848958015442 1.0710515975952148 1.0744028091430664 1.081560730934143 1.0713310241699219 1.074005365371704
e35 1.0754255056381226 1.0770618915557861 1.074714183807373 1.0983508825302124 1.0797375440597534 1.0786783695220947 1.073591947555542 1.0833253860473633 1.0933823585510254 1.0740996599197388 1.0757322311401367 1.0790961980819702 1.0806794166564941 1.0824320316314697 1.077524185180664 1.0793894529342651 1.0787556171417236 1.0753368139266968 1.0759743452072144 1.0837397575378418 1.0750463008880615 1.0933784246444702 1.0897523164749146 1.078484296798706 1.0771836042404175 1.0792499780654907 1.0757777690887451 1.0784077644348145 1.0842671394348145 1.103933572769165 1.0789132118225098 1.079325795173645 1.0752170085906982 1.0789028406143188 1.078244686126709 1.0785285234451294 1.076794981956482 1.0752167701721191 1.0798044204711914 1.1079400777816772 1.0748353004455566 1.106898307800293 1.0750373601913452 1.0745106935501099 1.0972626209259033 1.0782345533370972 1.0740479230880737 1.0745272636413574 1.0763660669326782 1.0951496362686157 1.079793095588684 1.0752906799316406 1.0831869840621948 1.076326608657837 1.0756477117538452 1.0806958675384521 1.0770131349563599 1.084788203239441 1.0824593305587769 1.0745524168014526 1.077951192855835 1.0852078199386597 1.0748357772827148 1.0775481462478638
e36 1.0638035535812378 1.0654759407043457 1.0630769729614258 1.0873526334762573 1.0682133436203003 1.067129373550415 1.0619308948516846 1.0718891620635986 1.0822266340255737 1.06244957447052 1.0641169548034668 1.0675567388534546 1.0691777467727661 1.07097327709198 1.065948724746704 1.0678571462631226 1.0672085285186768 1.0637127161026 1.0643644332885742 1.072313904762268 1.0634163618087769 1.08222234249115 1.0784894227981567 1.0669307708740234 1.0656006336212158 1.0677142143249512 1.0641635656356812 1.0668524503707886 1.072854995727539 1.093127965927124 1.0673696994781494 1.0677919387817383 1.0635905265808105 1.067359209060669 1.0666855573654175 1.0669760704040527 1.065203309059143 1.0635902881622314 1.068281888961792 1.0972832441329956 1.06320059299469 1.0962018966674805 1.0634071826934814 1.0628693103790283 1.086228609085083 1.0666753053665161 1.06239652633667 1.0628859996795654 1.0647646188735962 1.0840486288070679 1.068270206451416 1.0636658668518066 1.0717473030090332 1.0647244453430176 1.064030647277832 1.0691947937011719 1.065426230430603 1.0733895301818848 1.0710012912750244 1.0629117488861084 1.0663853883743286 1.0738203525543213 1.0632011890411377 1.0659732818603516
e37 1.0684198141098022 1.0701022148132324 1.0676883459091187 1.0920584201812744 1.072854995727539 1.0717649459838867 1.0665349960327148 1.0765491724014282 1.0869227647781372 1.0670570135116577 1.068734884262085 1.0721949338912964 1.0738245248794556 1.0756289958953857 1.0705777406692505 1.072496771812439 1.0718445777893066 1.0683283805847168 1.068984031677246 1.0769758224487305 1.068029761314392 1.086918592453003 1.0831751823425293 1.0715655088424683 1.0702275037765503 1.0723533630371094 1.068781852722168 1.0714868307113647 1.0775192975997925 1.0978375673294067 1.0720068216323853 1.0724313259124756 1.0682052373886108 1.0719962120056152 1.0713188648223877 1.071610927581787 1.069827675819397 1.0682049989700317 1.072924017906189 1.1019912958145142 1.0678129196166992 1.1009107828140259 1.0680207014083862 1.0674794912338257 1.090932846069336 1.0713084936141968 1.067003607749939 1.067496418952942 1.0693867206573486 1.0887486934661865 1.0729122161865234 1.0682810544967651 1.0764065980911255 1.0693460702896118 1.0686479806900024 1.0738416910171509 1.0700522661209106 1.0780560970306396 1.0756571292877197 1.0675221681594849 1.0710169076919556 1.078488826751709 1.0678133964538574 1.070602536201477
e38 1.074411153793335 1.0760377645492554 1.0737038850784302 1.097205400466919 1.0786980390548706 1.0776450634002686 1.0725880861282349 1.0822651386260986 1.0922648906707764 1.073093056678772 1.0747158527374268 1.0780603885650635 1.079634428024292 1.0813767910003662 1.0764974355697632 1.0783519744873047 1.0777218341827393 1.0743227005004883 1.0749566555023193 1.0826771259307861 1.0740339756011963 1.0922608375549316 1.0886554718017578 1.0774520635604858 1.0761590003967285 1.0782133340835571 1.0747612714767456 1.0773760080337524 1.0832014083862305 1.1027566194534302 1.0778785943984985 1.0782886743545532 1.0742037296295166 1.077868103981018 1.0772138833999634 1.07749605178833 1.0757725238800049 1.0742034912109375 1.07876455783844 1.106740951538086 1.0738242864608765 1.1057049036026 1.074025273323059 1.0735018253326416 1.0961230993270874 1.077203631401062 1.0730414390563965 1.0735180377960205 1.0753461122512817 1.0940221548080444 1.0787532329559326 1.0742770433425903 1.082127571105957 1.0753068923950195 1.074631929397583 1.07965087890625 1.0759894847869873 1.0837194919586182 1.0814040899276733 1.0735430717468262 1.076922059059143 1.0841368436813354 1.0738247632980347 1.076521396636963
e39 1.0700011253356934 1.071649432182312 1.0692849159240723 1.0931696891784668 1.0743463039398193 1.0732784271240234 1.06815505027771 1.0779658555984497 1.0881339311599731 1.0686664581298828 1.0703098773956299 1.0736994743347168 1.07529616355896 1.0770642757415771 1.072115182876587 1.0739953517913818 1.0733563899993896 1.0699118375778198 1.0705540180206299 1.0783840417861938 1.0696194171905518 1.0881296396255493 1.084459900856018 1.0730828046798706 1.0717720985412598 1.0738548040390015 1.0703558921813965 1.0730056762695312 1.0789165496826172 1.098838210105896 1.0735152959823608 1.073931097984314 1.0697911977767944 1.0735046863555908 1.0728412866592407 1.0731273889541626 1.0713804960250854 1.0697909593582153 1.0744138956069946 1.102913737297058 1.0694068670272827 1.1018532514572144 1.0696104764938354 1.069080114364624 1.0920658111572266 1.0728312730789185 1.06861412525177 1.0690966844558716 1.0709483623504639 1.0899239778518677 1.0744023323059082 1.0698654651641846 1.0778261423110962 1.0709086656570435 1.0702250003814697 1.0753129720687866 1.0716004371643066 1.0794426202774048 1.0770916938781738 1.0691219568252563 1.0725455284118652 1.079866647720337 1.069407343864441 1.0721395015716553
e40 1.07530677318573 1.0768977403640747 1.074615240097046 1.0976521968841553 1.0795005559921265 1.07846999168396 1.0735244750976562 1.0829931497573853 1.0927988290786743 1.074018120765686 1.075604796409607 1.0788764953613281 1.080417275428772 1.0821232795715332 1.0773473978042603 1.0791620016098022 1.078545331954956 1.0752202272415161 1.0758402347564697 1.0833966732025146 1.0749380588531494 1.0927948951721191 1.089256763458252 1.078281283378601 1.0770162343978882 1.079026222229004 1.0756491422653198 1.0782068967819214 1.083910346031189 1.1031125783920288 1.0786985158920288 1.0790997743606567 1.075103998184204 1.078688383102417 1.0780481100082397 1.0783244371414185 1.076638102531433 1.075103759765625 1.0795657634735107 1.1070365905761719 1.0747328996658325 1.1060158014297485 1.0749293565750122 1.0744174718856812 1.0965884923934937 1.0780383348464966 1.0739675760269165 1.074433445930481 1.076221227645874 1.0945243835449219 1.079554557800293 1.0751755237579346 1.0828582048416138 1.0761826038360596 1.075522541999817 1.0804333686828613 1.076850414276123 1.084417700767517 1.0821497440338135 1.0744580030441284 1.0777626037597656 1.0848267078399658 1.0747334957122803 1.0773706436157227
e41 1.0780565738677979 1.0796457529067993 1.0773658752441406 1.1002994775772095 1.0822439193725586 1.081215500831604 1.0762755870819092 1.0857267379760742 1.0954830646514893 1.0767689943313599 1.0783544778823853 1.0816210508346558 1.083158254623413 1.0848594903945923 1.0800946950912476 1.0819059610366821 1.081290602684021 1.077970266342163 1.078589677810669 1.0861287117004395 1.0776883363723755 1.095479130744934 1.0919625759124756 1.0810269117355347 1.0797641277313232 1.0817705392837524 1.0783988237380981 1.080952763557434 1.0866405963897705 1.105708360671997 1.0814435482025146 1.0818440914154053 1.0778541564941406 1.0814335346221924 1.080794334411621 1.081070065498352 1.079386591911316 1.0778539180755615 1.0823088884353638 1.1095882654190063 1.0774832963943481 1.1085795164108276 1.0776796340942383 1.0771681070327759 1.0992447137832642 1.0807844400405884 1.0767184495925903 1.0771842002868652 1.078970193862915 1.0971965789794922 1.0822978019714355 1.0779255628585815 1.0855923891067505 1.0789316892623901 1.0782723426818848 1.083174467086792 1.0795985460281372 1.0871461629867554 1.0848859548568726 1.0772086381912231 1.0805093050003052 1.0875535011291504 1.0774837732315063 1.0801180601119995
e42 1.0769639015197754 1.0785601139068604 1.0762699842453003 1.0993610620498657 1.0811712741851807 1.0801374912261963 1.075175404548645 1.0846737623214722 1.0945005416870117 1.0756707191467285 1.0772632360458374 1.08054518699646 1.0820904970169067 1.0838013887405396 1.0790114402770996 1.080831527709961 1.0802130699157715 1.076877236366272 1.077499270439148 1.085078239440918 1.0765939950942993 1.094496726989746 1.0909520387649536 1.0799481868743896 1.078679084777832 1.080695390701294 1.0773074626922607 1.0798735618591309 1.0855932235717773 1.1048269271850586 1.0803667306900024 1.080769419670105 1.0767605304718018 1.080356478691101 1.079714298248291 1.0799914598464966 1.0782997608184814 1.076760172843933 1.081236481666565 1.1087533235549927 1.0763882398605347 1.1077319383621216 1.076585292816162 1.0760716199874878 1.098296046257019 1.0797045230865479 1.0756200551986694 1.0760875940322876 1.0778813362121582 1.096229076385498 1.0812253952026367 1.0768322944641113 1.084538459777832 1.0778429508209229 1.0771805047988892 1.0821068286895752 1.0785129070281982 1.0861021280288696 1.083828091621399 1.0761122703552246 1.0794278383255005 1.0865120887756348 1.0763885974884033 1.0790348052978516
e43 1.069670557975769 1.0713164806365967 1.0689550638198853 1.0928277969360352 1.0740100145339966 1.0729433298110962 1.067826747894287 1.0776253938674927 1.0877894163131714 1.0683374404907227 1.069978952407837 1.0733639001846313 1.0749586820602417 1.076724648475647 1.0717816352844238 1.0736595392227173 1.0730212926864624 1.0695810317993164 1.0702226161956787 1.0780433416366577 1.0692890882492065 1.0877851247787476 1.0841153860092163 1.0727481842041016 1.0714391469955444 1.0735191106796265 1.070024847984314 1.0726711750030518 1.0785754919052124 1.0985019207000732 1.073180079460144 1.0735952854156494 1.0694607496261597 1.073169469833374 1.0725069046020508 1.072792649269104 1.0710480213165283 1.0694606304168701 1.0740774869918823 1.1025811433792114 1.0690770149230957 1.1015198230743408 1.0692801475524902 1.0687506198883057 1.091723084449768 1.0724966526031494 1.0682852268218994 1.0687671899795532 1.0706164836883545 1.0895801782608032 1.074065923690796 1.0695347785949707 1.0774859189987183 1.0705766677856445 1.0698939561843872 1.0749754905700684 1.0712674856185913 1.0791009664535522 1.0767523050308228 1.068792462348938 1.072211503982544 1.0795245170593262 1.0690773725509644 1.0718060731887817
e44 1.069887399673462 1.0715360641479492 1.0691707134246826 1.093063473701477 1.074233889579773 1.0731656551361084 1.0680406093597412 1.0778546333312988 1.0880260467529297 1.068552017211914 1.0701961517333984 1.0735869407653809 1.0751841068267822 1.0769526958465576 1.0720021724700928 1.0738829374313354 1.0732436180114746 1.0697976350784302 1.0704402923583984 1.0782729387283325 1.0695053339004517 1.0880217552185059 1.084350824356079 1.072969913482666 1.071658968925476 1.0737420320510864 1.0702422857284546 1.0728929042816162 1.0788058042526245 1.0987337827682495 1.0734026432037354 1.0738184452056885 1.0696771144866943 1.0733920335769653 1.0727283954620361 1.073014736175537 1.0712671279907227 1.0696768760681152 1.0743014812469482 1.102810263633728 1.069292664527893 1.1017496585845947 1.0694963932037354 1.0689659118652344 1.0919592380523682 1.0727182626724243 1.0684998035430908 1.0689826011657715 1.070834994316101 1.089816689491272 1.0742899179458618 1.069751501083374 1.0777150392532349 1.0707951784133911 1.0701110363006592 1.0752006769180298 1.0714870691299438 1.079331874847412 1.0769802331924438 1.0690078735351562 1.0724323987960815 1.0797561407089233 1.0692932605743408 1.072026252746582
e45 1.0682328939437866 1.06991708278656 1.0675010681152344 1.0918915271759033 1.0726724863052368 1.071581482887268 1.0663466453552246 1.0763700008392334 1.0867527723312378 1.0668690204620361 1.068548560142517 1.0720117092132568 1.0736428499221802 1.075448989868164 1.0703930854797363 1.072313904762268 1.0716612339019775 1.0681415796279907 1.0687978267669678 1.0767971277236938 1.0678428411483765 1.0867483615875244 1.0830020904541016 1.071381688117981 1.070042610168457 1.0721702575683594 1.0685955286026 1.0713027715682983 1.0773411989212036 1.097672700881958 1.0718234777450562 1.0722483396530151 1.0680184364318848 1.0718127489089966 1.0711349248886108 1.0714272260665894 1.069642424583435 1.0680180788040161 1.0727413892745972 1.1018264293670654 1.067625641822815 1.1007459163665771 1.067833662033081 1.0672917366027832 1.0907652378082275 1.0711246728897095 1.0668156147003174 1.0673086643218994 1.0692009925842285 1.088579773902893 1.0727297067642212 1.0680941343307495 1.0762274265289307 1.0691603422164917 1.0684616565704346 1.0736600160598755 1.0698670148849487 1.077878475189209 1.0754772424697876 1.0673346519470215 1.0708327293395996 1.0783114433288574 1.0676262378692627 1.070417881011963
e46 1.0741478204727173 1.075754165649414 1.0734493732452393 1.0966733694076538 1.0783811807632446 1.0773411989212036 1.0723475217819214 1.0819042921066284 1.0917861461639404 1.0728460550308228 1.074448823928833 1.077751636505127 1.0793060064315796 1.0810270309448242 1.0762081146240234 1.078039526939392 1.077417254447937 1.074060320854187 1.0746865272521973 1.0823111534118652 1.0737754106521606 1.0917822122573853 1.088217854499817 1.0771507024765015 1.075873613357544 1.0779025554656982 1.074493646621704 1.0770756006240845 1.082829236984253 1.1021702289581299 1.0775718688964844 1.0779768228530884 1.073943018913269 1.0775617361068726 1.0769155025482178 1.0771942138671875 1.075492262840271 1.0739426612854004 1.0784469842910767 1.1061197519302368 1.0735682249069214 1.1050922870635986 1.0737667083740234 1.0732496976852417 1.0956023931503296 1.0769054889678955 1.0727951526641846 1.0732659101486206 1.075071096420288 1.0935240983963013 1.0784358978271484 1.0740151405334473 1.0817683935165405 1.075032353401184 1.0743657350540161 1.0793224573135376 1.0757064819335938 1.0833408832550049 1.0810537338256836 1.073290467262268 1.076627254486084 1.083753228187561 1.0735687017440796 1.076231598854065
e47 1.0781679153442383 1.079744815826416 1.0774824619293213 1.1002366542816162 1.0823224782943726 1.0813020467758179 1.076400637626648 1.0857778787612915 1.095457673072815 1.0768901109695435 1.0784634351730347 1.0817044973373413 1.083229660987854 1.084917664527893 1.0801900625228882 1.0819872617721558 1.081376552581787 1.0780823230743408 1.0786967277526855 1.086176872253418 1.0778025388717651 1.0954538583755493 1.091964840888977 1.0811152458190918 1.0798618793487549 1.081852912902832 1.078507423400879 1.0810414552688599 1.0866847038269043 1.1056042909622192 1.0815281867980957 1.0819257497787476 1.0779669284820557 1.0815184116363525 1.080884337425232 1.0811578035354614 1.079487681388855 1.0779666900634766 1.08238685131073 1.1094551086425781 1.077599048614502 1.1084538698196411 1.077793836593628 1.0772863626480103 1.09919011592865 1.0808745622634888 1.0768401622772217 1.077302098274231 1.0790742635726929 1.0971578359603882 1.0823760032653809 1.0780377388000488 1.0856447219848633 1.0790361166000366 1.078381896018982 1.0832455158233643 1.0796977281570435 1.0871862173080444 1.0849438905715942 1.0773264169692993 1.080601453781128 1.0875904560089111 1.0775995254516602 1.080213189125061
e48 1.081201434135437 1.082775354385376 1.0805168151855469 1.1032116413116455 1.0853484869003296 1.0843300819396973 1.0794366598129272 1.088796615600586 1.0984492301940918 1.079925537109375 1.0814963579177856 1.0847318172454834 1.0862540006637573 1.0879383087158203 1.0832202434539795 1.08501398563385 1.0844043493270874 1.0811158418655396 1.0817292928695679 1.0891947746276855 1.0808364152908325 1.0984455347061157 1.0949673652648926 1.0841435194015503 1.082892656326294 1.0848798751831055 1.0815402269363403 1.0840699672698975 1.0897012948989868 1.1085580587387085 1.084555983543396 1.0849525928497314 1.081000566482544 1.0845459699630737 1.0839132070541382 1.0841861963272095 1.0825188159942627 1.0810004472732544 1.085412859916687 1.1123920679092407 1.0806334018707275 1.111395239830017 1.0808277130126953 1.0803210735321045 1.1021689176559448 1.083903431892395 1.0798755884170532 1.0803368091583252 1.0821062326431274 1.1001439094543457 1.0854018926620483 1.0810714960098267 1.0886636972427368 1.0820682048797607 1.081415057182312 1.0862698554992676 1.082728624343872 1.0902016162872314 1.0879645347595215 1.080361008644104 1.0836308002471924 1.0906047821044922 1.0806337594985962 1.0832433700561523
e49 1.073625087738037 1.075279712677002 1.0729057788848877 1.0968273878097534 1.0779863595962524 1.07691490650177 1.0717709064483643 1.0816160440444946 1.0917954444885254 1.0722845792770386 1.0739351511001587 1.077337384223938 1.0789390802383423 1.080712080001831 1.0757474899291992 1.077634334564209 1.0769932270050049 1.0735352039337158 1.074180006980896 1.0820351839065552 1.0732417106628418 1.0917913913726807 1.0881202220916748 1.0767185688018799 1.075403094291687 1.0774930715560913 1.0739814043045044 1.076641321182251 1.082568883895874 1.1024837493896484 1.0771523714065552 1.077569842338562 1.0734140872955322 1.0771421194076538 1.0764762163162231 1.0767632722854614 1.075010061264038 1.0734139680862427 1.0780539512634277 1.1065454483032227 1.073028326034546 1.1054891347885132 1.0732325315475464 1.0727001428604126 1.0957249402999878 1.0764659643173218 1.0722320079803467 1.0727167129516602 1.0745761394500732 1.0935852527618408 1.0780423879623413 1.0734885931015015 1.0814759731292725 1.0745363235473633 1.0738497972488403 1.078955888748169 1.0752307176589966 1.0830960273742676 1.0807397365570068 1.0727423429489136 1.0761793851852417 1.083520770072937 1.0730286836624146 1.0757718086242676
e50 1.0675147771835327 1.0691566467285156 1.0668014287948608 1.0906015634536743 1.0718435049057007 1.0707796812057495 1.0656757354736328 1.07545006275177 1.0855827331542969 1.0661851167678833 1.0678224563598633 1.0711991786956787 1.0727900266647339 1.0745515823364258 1.0696208477020264 1.0714938640594482 1.070857286453247 1.0674256086349487 1.0680654048919678 1.0758668184280396 1.0671344995498657 1.085578441619873 1.0819212198257446 1.070584774017334 1.0692789554595947 1.0713539123535156 1.0678682327270508 1.0705080032348633 1.0763972997665405 1.096251368522644 1.071015477180481 1.0714298486709595 1.067305564880371 1.07100510597229 1.070344090461731 1.070629358291626 1.0688889026641846 1.0673054456710815 1.0719108581542969 1.100313425064087 1.0669227838516235 1.0992565155029297 1.0671254396438599 1.0665971040725708 1.0895013809204102 1.0703339576721191 1.0661330223083496 1.066613793373108 1.0684583187103271 1.0873669385910034 1.0718992948532104 1.067379355430603 1.0753107070922852 1.0684187412261963 1.0677376985549927 1.0728065967559814 1.0691078901290894 1.0769215822219849 1.074578881263733 1.0666390657424927 1.070049524307251 1.0773440599441528 1.0669231414794922 1.0696449279785156
e51 1.0750428438186646 1.0766812562942505 1.07433021068573 1.0979775190353394 1.0793558359146118 1.0782978534698486 1.0732051134109497 1.0829355716705322 1.0929944515228271 1.0737143754959106 1.0753501653671265 1.0787150859832764 1.0802961587905884 1.0820447206497192 1.0771437883377075 1.0790083408355713 1.0783751010894775 1.0749539136886597 1.0755926370620728 1.0833489894866943 1.0746631622314453 1.0929902791976929 1.0893555879592896 1.0781038999557495 1.076803207397461 1.0788688659667969 1.0753958225250244 1.078027367591858 1.083875060081482 1.1035621166229248 1.0785325765609741 1.0789446830749512 1.0748339891433716 1.0785223245620728 1.077864408493042 1.0781481266021729 1.0764143466949463 1.0748337507247925 1.0794228315353394 1.107561707496643 1.0744515657424927 1.1065220832824707 1.07465398311615 1.0741263628005981 1.0968865156173706 1.0778541564941406 1.0736624002456665 1.074142575263977 1.0759849548339844 1.094767451286316 1.0794113874435425 1.0749077796936035 1.0827977657318115 1.075945258140564 1.0752655267715454 1.0803128480911255 1.0766326189041138 1.0843948125839233 1.0820720195770264 1.074168086051941 1.0775707960128784 1.0848134756088257 1.0744520425796509 1.0771677494049072
e52 1.0730990171432495 1.0747591257095337 1.0723766088485718 1.0961564779281616 1.077468991279602 1.0763970613479614 1.0712358951568604 1.0810930728912354 1.091194748878479 1.0717521905899048 1.0734102725982666 1.0768200159072876 1.0784215927124023 1.080191731452942 1.0752280950546265 1.0771170854568481 1.0764753818511963 1.0730088949203491 1.0736560821533203 1.0815107822418213 1.07271409034729 1.0911906957626343 1.0875579118728638 1.0762004852294922 1.0748827457427979 1.076975703239441 1.0734565258026123 1.0761231184005737 1.0820425748825073 1.1017106771469116 1.0766350030899048 1.077052354812622 1.0728871822357178 1.0766245126724243 1.0759578943252563 1.0762454271316528 1.0744887590408325 1.0728869438171387 1.077536702156067 1.1056849956512451 1.0724996328353882 1.1046525239944458 1.0727049112319946 1.0721697807312012 1.0950710773468018 1.0759477615356445 1.0716995000839233 1.0721865892410278 1.0740535259246826 1.0929616689682007 1.07752525806427 1.0729620456695557 1.080953598022461 1.074013590812683 1.07332444190979 1.078438401222229 1.0747098922729492 1.0825674533843994 1.0802193880081177 1.0722121000289917 1.0756604671478271 1.082990288734436 1.0724999904632568 1.0752521753311157
e53 1.0723567008972168 1.0739845037460327 1.0716493129730225 1.095241665840149 1.0766479969024658 1.0755932331085205 1.0705335140228271 1.0802228450775146 1.0902668237686157 1.0710384845733643 1.0726617574691772 1.0760091543197632 1.077586054801941 1.0793322324752808 1.0744444131851196 1.0763013362884521 1.0756702423095703 1.0722683668136597 1.0729025602340698 1.080635905265808 1.0719796419143677 1.0902626514434814 1.0866373777389526 1.0753999948501587 1.0741057395935059 1.0761624574661255 1.0727070569992065 1.0753240585327148 1.0811620950698853 1.100842833518982 1.0758271217346191 1.0762379169464111 1.0721492767333984 1.0758167505264282 1.0751615762710571 1.075444221496582 1.0737189054489136 1.0721490383148193 1.0767146348953247 1.1048699617385864 1.0717697143554688 1.1038222312927246 1.0719707012176514 1.0714471340179443 1.0941511392593384 1.0751516819000244 1.0709868669509888 1.0714634656906128 1.0732921361923218 1.092035174369812 1.0767031908035278 1.0722227096557617 1.0800849199295044 1.0732529163360596 1.072577714920044 1.0776026248931885 1.0739359855651855 1.081681489944458 1.0793596506118774 1.0714884996414185 1.0748692750930786 1.08210027217865 1.071770191192627 1.0744684934616089
e54 1.0763652324676514 1.0780061483383179 1.07565176486969 1.0993444919586182 1.0806893110275269 1.0796271562576294 1.0745261907577515 1.0842863321304321 1.094366431236267 1.075035572052002 1.0766726732254028 1.0800460577011108 1.0816336870193481 1.0833908319473267 1.0784697532653809 1.0803402662277222 1.079704761505127 1.0762759447097778 1.0769155025482178 1.0847017765045166 1.0759848356246948 1.0943623781204224 1.0907286405563354 1.0794326066970825 1.078128457069397 1.080200433731079 1.0767184495925903 1.0793558359146118 1.0852305889129639 1.104936122894287 1.0798627138137817 1.080276370048523 1.0761561393737793 1.0798523426055908 1.0791923999786377 1.0794769525527954 1.0777385234832764 1.0761557817459106 1.080756425857544 1.1089483499526978 1.0757731199264526 1.1079051494598389 1.075975775718689 1.0754477977752686 1.0982542037963867 1.0791822671890259 1.0749835968017578 1.0754642486572266 1.0773084163665771 1.0961374044418335 1.0807448625564575 1.0762298107147217 1.0841476917266846 1.0772687196731567 1.0765880346298218 1.0816502571105957 1.0779573917388916 1.0857527256011963 1.0834181308746338 1.0754896402359009 1.0788979530334473 1.0861735343933105 1.0757737159729004 1.0784938335418701
e55 1.0688602924346924 1.0704776048660278 1.0681571960449219 1.0916049480438232 1.0731245279312134 1.072076439857483 1.0670486688613892 1.0766773223876953 1.0866597890853882 1.0675504207611084 1.0691633224487305 1.0724897384643555 1.0740567445755005 1.0757921934127808 1.0709348917007446 1.0727802515029907 1.0721529722213745 1.068772554397583 1.0694026947021484 1.0770877599716187 1.0684856176376343 1.0866557359695435 1.0830525159835815 1.0718843936920166 1.0705982446670532 1.0726419687271118 1.0692085027694702 1.0718088150024414 1.0776104927062988 1.0971726179122925 1.0723090171813965 1.0727169513702393 1.068654179573059 1.0722986459732056 1.0716474056243896 1.0719282627105713 1.0702139139175415 1.0686538219451904 1.073190689086914 1.1011757850646973 1.0682770013809204 1.1001341342926025 1.0684767961502075 1.0679564476013184 1.090520977973938 1.0716376304626465 1.067499041557312 1.0679726600646973 1.0697897672653198 1.0884177684783936 1.0731793642044067 1.068726897239685 1.0765401124954224 1.0697507858276367 1.0690797567367554 1.0740731954574585 1.0704295635223389 1.0781270265579224 1.0758191347122192 1.0679975748062134 1.0713571310043335 1.0785431861877441 1.0682774782180786 1.0709586143493652
e56 1.068102240562439 1.0697474479675293 1.0673871040344238 1.0912376642227173 1.0724397897720337 1.0713735818862915 1.0662593841552734 1.0760537385940552 1.0862077474594116 1.0667697191238403 1.0684105157852173 1.0717942714691162 1.0733879804611206 1.0751534700393677 1.070212483406067 1.0720895528793335 1.0714515447616577 1.0680128335952759 1.0686540603637695 1.0764713287353516 1.0677211284637451 1.0862033367156982 1.0825384855270386 1.0711784362792969 1.0698699951171875 1.0719491243362427 1.0684562921524048 1.0711015462875366 1.077003002166748 1.0969007015228271 1.0716103315353394 1.0720252990722656 1.0678926706314087 1.0715997219085693 1.0709373950958252 1.0712230205535889 1.0694791078567505 1.06789231300354 1.0725072622299194 1.100972294807434 1.0675089359283447 1.0999130010604858 1.0677120685577393 1.0671827793121338 1.0901349782943726 1.0709272623062134 1.0667176246643066 1.0671993494033813 1.0690478086471558 1.0879957675933838 1.0724958181381226 1.0679665803909302 1.0759141445159912 1.0690081119537354 1.0683255195617676 1.0734047889709473 1.0696985721588135 1.0775282382965088 1.075181007385254 1.0672246217727661 1.0706419944763184 1.0779515504837036 1.0675092935562134 1.0702366828918457
e57 1.0661892890930176 1.0678435564041138 1.0654704570770264 1.089475393295288 1.0705513954162598 1.0694791078567505 1.0643366575241089 1.07418692111969 1.0844082832336426 1.0648497343063354 1.0664992332458496 1.0699018239974976 1.0715053081512451 1.073281168937683 1.0683112144470215 1.0701990127563477 1.0695573091506958 1.0660994052886963 1.0667439699172974 1.074607014656067 1.0658061504364014 1.0844041109085083 1.0807136297225952 1.06928288936615 1.0679668188095093 1.07005774974823 1.0665453672409058 1.0692052841186523 1.0751421451568604 1.0951827764511108 1.0697169303894043 1.0701342821121216 1.0659784078598022 1.0697063207626343 1.0690401792526245 1.069327473640442 1.0675737857818604 1.0659781694412231 1.0706191062927246 1.0992884635925293 1.0655927658081055 1.0982199907302856 1.0657968521118164 1.0652647018432617 1.0883643627166748 1.0690300464630127 1.0647974014282227 1.0652813911437988 1.0671401023864746 1.0862094163894653 1.0706077814102173 1.066052794456482 1.0740466117858887 1.0671000480651855 1.0664137601852417 1.0715219974517822 1.0677944421768188 1.0756707191467285 1.0733088254928589 1.0653069019317627 1.068743109703064 1.0760966539382935 1.0655932426452637 1.0683355331420898
e58 1.0750072002410889 1.0766032934188843 1.0743134021759033 1.0974165201187134 1.0792146921157837 1.0781806707382202 1.0732190608978271 1.0827183723449707 1.0925521850585938 1.073714256286621 1.0753062963485718 1.078588604927063 1.0801342725753784 1.0818458795547485 1.077054500579834 1.0788750648498535 1.0782562494277954 1.074920415878296 1.0755424499511719 1.0831230878829956 1.0746374130249023 1.092548131942749 1.0890007019042969 1.0779914855957031 1.076722264289856 1.078738808631897 1.0753507614135742 1.0779168605804443 1.083638310432434 1.1028860807418823 1.0784101486206055 1.0788127183914185 1.0748037099838257 1.078399896621704 1.0777575969696045 1.07803475856781 1.0763431787490845 1.0748034715652466 1.079280138015747 1.1068140268325806 1.0744315385818481 1.1057924032211304 1.0746285915374756 1.0741150379180908 1.0963507890701294 1.0777478218078613 1.0736637115478516 1.0741311311721802 1.0759246349334717 1.0942819118499756 1.0792688131332397 1.0748757123947144 1.0825831890106201 1.0758861303329468 1.075223684310913 1.0801504850387573 1.0765559673309326 1.0841474533081055 1.0818724632263184 1.0741556882858276 1.0774710178375244 1.0845577716827393 1.0744318962097168 1.077077865600586
e59 1.0661355257034302 1.0677896738052368 1.0654168128967285 1.0893993377685547 1.0704965591430664 1.0694245100021362 1.0642828941345215 1.0741301774978638 1.0843404531478882 1.0647960901260376 1.0664455890655518 1.0698472261428833 1.071449875831604 1.0732249021530151 1.0682570934295654 1.0701442956924438 1.0695027112960815 1.0660456418991089 1.06669020652771 1.074549913406372 1.065752387046814 1.0843364000320435 1.0806505680084229 1.0692282915115356 1.0679129362106323 1.0700029134750366 1.0664913654327393 1.0691509246826172 1.0750845670700073 1.095095157623291 1.06966233253479 1.0700798034667969 1.0659247636795044 1.06965172290802 1.068985939025879 1.0692732334136963 1.0675197839736938 1.0659245252609253 1.0705642700195312 1.0991919040679932 1.065539002418518 1.0981258153915405 1.0657432079315186 1.065211296081543 1.0882902145385742 1.068975806236267 1.0647437572479248 1.0652278661727905 1.0670862197875977 1.0861387252807617 1.0705527067184448 1.0659992694854736 1.0739898681640625 1.0670461654663086 1.0663599967956543 1.0714666843414307 1.0677404403686523 1.0756127834320068 1.073252558708191 1.0652533769607544 1.068688988685608 1.0760384798049927 1.0655395984649658 1.0682815313339233
e60 1.0631211996078491 1.0647929906845093 1.062394618988037 1.0866645574569702 1.0675299167633057 1.0664461851119995 1.061248779296875 1.0712049007415771 1.0815398693084717 1.061767339706421 1.063434362411499 1.0668734312057495 1.0684940814971924 1.0702892541885376 1.0652658939361572 1.0671738386154175 1.0665252208709717 1.0630302429199219 1.0636818408966064 1.0716296434402466 1.0627338886260986 1.0815354585647583 1.077803611755371 1.066247582435608 1.0649176836013794 1.0670310258865356 1.0634809732437134 1.066169261932373 1.072170615196228 1.0924381017684937 1.0666865110397339 1.0671085119247437 1.0629080533981323 1.0666757822036743 1.0660024881362915 1.0662928819656372 1.0645203590393066 1.0629078149795532 1.0675984621047974 1.0965921878814697 1.0625182390213013 1.0955111980438232 1.0627245903015137 1.0621869564056396 1.085540771484375 1.0659922361373901 1.0617142915725708 1.0622036457061768 1.0640820264816284 1.0833611488342285 1.067586898803711 1.0629832744598389 1.0710630416870117 1.0640416145324707 1.0633480548858643 1.0685110092163086 1.0647433996200562 1.0727050304412842 1.070317268371582 1.0622293949127197 1.0657023191452026 1.0731356143951416 1.0625187158584595 1.0652903318405151
e61 1.0660210847854614 1.0676738023757935 1.0653029680252075 1.0892913341522217 1.0703790187835693 1.0693076848983765 1.0641703605651855 1.0740113258361816 1.0842262506484985 1.064682960510254 1.0663307905197144 1.0697301626205444 1.0713319778442383 1.0731065273284912 1.068140983581543 1.0700269937515259 1.0693858861923218 1.0659314393997192 1.066575288772583 1.07443106174469 1.0656383037567139 1.0842220783233643 1.080533504486084 1.0691115856170654 1.0677968263626099 1.0698857307434082 1.066376805305481 1.069034218788147 1.0749658346176147 1.0949971675872803 1.0695453882217407 1.069962501525879 1.0658105611801147 1.0695347785949707 1.0688692331314087 1.069156289100647 1.0674042701721191 1.0658103227615356 1.0704468488693237 1.0991023778915405 1.0654252767562866 1.0980342626571655 1.0656291246414185 1.0650975704193115 1.088180661201477 1.0688591003417969 1.0646306276321411 1.0651142597198486 1.066970944404602 1.0860264301300049 1.0704351663589478 1.0658849477767944 1.0738712549209595 1.0669310092926025 1.0662453174591064 1.071348786354065 1.0676246881484985 1.0754941701889038 1.0731340646743774 1.065139651298523 1.0685724020004272 1.0759197473526 1.0654257535934448 1.0681653022766113
e62 1.07313072681427 1.0747920274734497 1.0724083185195923 1.0964003801345825 1.0775086879730225 1.0764331817626953 1.071268916130066 1.081151008605957 1.0913589000701904 1.071784496307373 1.073441982269287 1.0768574476242065 1.0784648656845093 1.0802440643310547 1.0752614736557007 1.077155351638794 1.0765117406845093 1.07304048538208 1.0736879110336304 1.0815715789794922 1.072745680809021 1.0913547277450562 1.087674856185913 1.0762361288070679 1.0749157667160034 1.0770137310028076 1.073488473892212 1.0761586427688599 1.0821070671081543 1.1020641326904297 1.076671838760376 1.0770907402038574 1.0729188919067383 1.076661229133606 1.0759930610656738 1.0762813091278076 1.0745211839675903 1.0729186534881592 1.0775766372680664 1.106128215789795 1.0725313425064087 1.1050715446472168 1.0727367401123047 1.0722018480300903 1.0952961444854736 1.0759828090667725 1.0717319250106812 1.072218656539917 1.0740857124328613 1.0931521654129028 1.07756507396698 1.0729936361312866 1.0810105800628662 1.0740455389022827 1.0733561515808105 1.078481674194336 1.0747426748275757 1.0826358795166016 1.08027184009552 1.0722441673278809 1.0756949186325073 1.083061933517456 1.0725319385528564 1.0752859115600586
e63 1.0805678367614746 1.0821449756622314 1.079882025718689 1.1026251316070557 1.0847232341766357 1.083702802658081 1.078799843788147 1.0881787538528442 1.0978527069091797 1.0792896747589111 1.0808634757995605 1.084105372428894 1.0856305360794067 1.0873184204101562 1.0825906991958618 1.084388017654419 1.0837771892547607 1.0804821252822876 1.081096887588501 1.0885775089263916 1.080202341079712 1.0978487730026245 1.0943629741668701 1.0835157632827759 1.0822625160217285 1.0842536687850952 1.0809074640274048 1.0834420919418335 1.0890852212905884 1.1079821586608887 1.0839290618896484 1.0843265056610107 1.080366849899292 1.0839191675186157 1.0832850933074951 1.083558440208435 1.0818878412246704 1.0803664922714233 1.0847878456115723 1.1118232011795044 1.0799988508224487 1.1108245849609375 1.0801935195922852 1.079685926437378 1.101580262184143 1.0832751989364624 1.0792396068572998 1.0797017812728882 1.0814745426177979 1.099550724029541 1.084776759147644 1.0804378986358643 1.0880452394485474 1.0814363956451416 1.0807819366455078 1.0856465101242065 1.082098126411438 1.089586615562439 1.0873446464538574 1.0797260999679565 1.0830020904541016 1.0899907350540161 1.079999327659607 1.0826137065887451
e64 1.0691940784454346 1.070844054222107 1.0684767961502075 1.0923868417739868 1.073543906211853 1.0724748373031616 1.0673457384109497 1.0771676301956177 1.0873463153839111 1.0678575038909912 1.0695030689239502 1.0728965997695923 1.0744949579238892 1.0762649774551392 1.0713104009628296 1.0731927156448364 1.0725528001785278 1.0691043138504028 1.0697473287582397 1.07758629322052 1.0688115358352661 1.0873422622680664 1.0836684703826904 1.0722790956497192 1.0709668397903442 1.073051929473877 1.0695490837097168 1.0722019672393799 1.0781193971633911 1.0980603694915771 1.0727120637893677 1.073128342628479 1.068983554840088 1.0727014541625977 1.0720373392105103 1.0723237991333008 1.0705747604370117 1.0689834356307983 1.0736116170883179 1.1021391153335571 1.0685988664627075 1.1010780334472656 1.0688027143478394 1.0682717561721802 1.0912818908691406 1.072027325630188 1.0678051710128784 1.0682883262634277 1.0701422691345215 1.089138150215149 1.073600172996521 1.0690579414367676 1.0770277976989746 1.0701024532318115 1.0694178342819214 1.0745116472244263 1.070794939994812 1.0786460638046265 1.0762925148010254 1.0683135986328125 1.071740984916687 1.0790704488754272 1.0685994625091553 1.0713346004486084
e65 1.0689573287963867 1.0706452131271362 1.0682238340377808 1.0926581621170044 1.0734062194824219 1.0723130702972412 1.0670666694641113 1.077111005783081 1.0875113010406494 1.0675902366638184 1.069273591041565 1.0727441310882568 1.074378490447998 1.076188325881958 1.0711220502853394 1.0730470418930054 1.0723928213119507 1.0688656568527222 1.0695233345031738 1.0775389671325684 1.0685663223266602 1.0875070095062256 1.0837546586990356 1.0721126794815063 1.0707708597183228 1.0729029178619385 1.0693206787109375 1.0720337629318237 1.078083872795105 1.0984485149383545 1.0725555419921875 1.0729811191558838 1.068742275238037 1.072544813156128 1.071865439414978 1.0721584558486938 1.070369839668274 1.068742036819458 1.0734753608703613 1.1026092767715454 1.0683486461639404 1.1015269756317139 1.0685571432113647 1.0680140256881714 1.091530203819275 1.0718551874160767 1.0675369501113892 1.0680310726165771 1.0699273347854614 1.089341402053833 1.0734635591506958 1.068818211555481 1.0769680738449097 1.069886565208435 1.0691864490509033 1.0743956565856934 1.0705950260162354 1.0786222219467163 1.076216459274292 1.0680570602416992 1.071562647819519 1.079055905342102 1.068349003791809 1.071146845817566
e66 1.066454291343689 1.068184733390808 1.0657025575637817 1.0907987356185913 1.0710164308547974 1.0698950290679932 1.0645167827606201 1.0748182535171509 1.0855040550231934 1.0650534629821777 1.0667787790298462 1.0703372955322266 1.0720139741897583 1.07387113571167 1.0686737298965454 1.070647954940796 1.0699769258499146 1.0663604736328125 1.0670346021652222 1.0752575397491455 1.0660535097122192 1.0854997634887695 1.0816421508789062 1.0696897506713867 1.0683135986328125 1.0705002546310425 1.0668268203735352 1.0696088075637817 1.0758172273635864 1.09675931930542 1.0701438188552856 1.0705803632736206 1.0662339925765991 1.0701326131820679 1.0694360733032227 1.0697365999221802 1.0679024457931519 1.0662336349487305 1.07108736038208 1.1010446548461914 1.0658305883407593 1.099929690361023 1.0660442113876343 1.0654876232147217 1.089638113975525 1.0694254636764526 1.0649986267089844 1.065505027770996 1.0674487352371216 1.0873863697052002 1.071075439453125 1.0663118362426758 1.0746716260910034 1.0674071311950684 1.0666892528533936 1.0720314979553223 1.0681331157684326 1.0763700008392334 1.0739001035690308 1.0655314922332764 1.0691255331039429 1.0768152475357056 1.065830945968628 1.0686992406845093
e67 1.0727019309997559 1.0743579864501953 1.0719820261001587 1.0958797931671143 1.0770654678344727 1.0759937763214111 1.0708459615707397 1.0806951522827148 1.0908619165420532 1.0713599920272827 1.073012351989746 1.0764167308807373 1.0780186653137207 1.0797914266586304 1.0748258829116821 1.0767133235931396 1.076072096824646 1.0726120471954346 1.073257565498352 1.0811141729354858 1.0723180770874023 1.0908576250076294 1.0871933698654175 1.075797438621521 1.0744813680648804 1.0765721797943115 1.0730584859848022 1.075720191001892 1.081647515296936 1.1015146970748901 1.076231598854065 1.0766489505767822 1.072490930557251 1.0762211084365845 1.0755550861358643 1.0758423805236816 1.0740879774093628 1.0724908113479614 1.077133297920227 1.1055560111999512 1.0721046924591064 1.1045053005218506 1.0723092555999756 1.0717761516571045 1.0947809219360352 1.075544834136963 1.07130765914917 1.071792721748352 1.0736538171768188 1.0926471948623657 1.0771218538284302 1.0725654363632202 1.0805550813674927 1.0736140012741089 1.0729267597198486 1.0780353546142578 1.0743088722229004 1.0821744203567505 1.0798190832138062 1.0718183517456055 1.0752578973770142 1.0825989246368408 1.0721051692962646 1.074850082397461
e68 1.0680079460144043 1.0696337223052979 1.0673009157180786 1.0907984972000122 1.0722931623458862 1.0712405443191528 1.066185712814331 1.075859546661377 1.0858582258224487 1.0666903257369995 1.0683125257492065 1.0716557502746582 1.0732295513153076 1.0749714374542236 1.0700933933258057 1.071947455406189 1.071317434310913 1.0679194927215576 1.0685533285140991 1.0762715339660645 1.0676308870315552 1.085854172706604 1.0822490453720093 1.0710476636886597 1.0697550773620605 1.0718086957931519 1.0683579444885254 1.0709714889526367 1.0767955780029297 1.0963497161865234 1.0714740753173828 1.071884036064148 1.0678006410598755 1.0714635848999023 1.0708096027374268 1.071091651916504 1.069368839263916 1.0678004026412964 1.0723598003387451 1.100333571434021 1.067421317100525 1.0992977619171143 1.067622184753418 1.0670987367630005 1.0897163152694702 1.070799469947815 1.0666388273239136 1.0671151876449585 1.0689425468444824 1.0876154899597168 1.0723484754562378 1.0678737163543701 1.0757218599319458 1.0689033269882202 1.0682284832000732 1.0732460021972656 1.0695856809616089 1.0773136615753174 1.0749986171722412 1.0671402215957642 1.070517659187317 1.0777310132980347 1.067421793937683 1.0701172351837158
e69 1.063991904258728 1.0656445026397705 1.063273549079895 1.0872172117233276 1.068349003791809 1.0672783851623535 1.0621404647827148 1.0719784498214722 1.0821712017059326 1.0626531839370728 1.0643014907836914 1.0677006244659424 1.0693016052246094 1.071074366569519 1.0661120414733887 1.0679970979690552 1.0673565864562988 1.0639021396636963 1.0645461082458496 1.0723978281021118 1.0636091232299805 1.0821669101715088 1.0784889459609985 1.067082166671753 1.065767765045166 1.0678561925888062 1.064347505569458 1.067004919052124 1.0729316473007202 1.0928953886032104 1.0675158500671387 1.0679328441619873 1.0637813806533813 1.0675052404403687 1.0668399333953857 1.0671268701553345 1.0653750896453857 1.0637811422348022 1.0684168338775635 1.096976399421692 1.0633957386016846 1.0959148406982422 1.0635998249053955 1.063068151473999 1.0861111879348755 1.066829800605774 1.0626007318496704 1.0630847215652466 1.0649418830871582 1.0839651823043823 1.068405270576477 1.063855528831482 1.07183837890625 1.0649019479751587 1.064216136932373 1.069318413734436 1.0655955076217651 1.0734591484069824 1.0711021423339844 1.0631102323532104 1.0665433406829834 1.0738842487335205 1.0633964538574219 1.066136121749878
e70 1.073957085609436 1.0755970478057861 1.0732437372207642 1.0968842506408691 1.0782781839370728 1.0772172212600708 1.0721182823181152 1.0818707942962646 1.0919257402420044 1.0726276636123657 1.0742642879486084 1.077635645866394 1.0792217254638672 1.0809766054153442 1.0760606527328491 1.0779296159744263 1.0772947072982788 1.0738677978515625 1.074507236480713 1.0822856426239014 1.073576807975769 1.0919219255447388 1.08829927444458 1.077022671699524 1.0757192373275757 1.0777900218963623 1.074310302734375 1.0769461393356323 1.0828132629394531 1.1024479866027832 1.077452540397644 1.0778658390045166 1.0737478733062744 1.0774420499801636 1.0767827033996582 1.0770670175552368 1.0753297805786133 1.0737476348876953 1.0783451795578003 1.106436014175415 1.0733650922775269 1.1053993701934814 1.0735679864883423 1.0730397701263428 1.0957987308502197 1.0767724514007568 1.072575569152832 1.0730563402175903 1.0748997926712036 1.0936901569366455 1.0783337354660034 1.0738215446472168 1.0817323923110962 1.0748602151870728 1.0741795301437378 1.0792384147644043 1.0755486488342285 1.0833346843719482 1.0810037851333618 1.073081612586975 1.0764883756637573 1.0837547779083252 1.0733658075332642 1.0760847330093384
e71 1.0698673725128174 1.0715343952178955 1.0691426992416382 1.093229055404663 1.0742605924606323 1.0731815099716187 1.0679994821548462 1.0779162645339966 1.088165283203125 1.068516731262207 1.07017982006073 1.073607087135315 1.0752204656600952 1.0770061016082764 1.0720055103302002 1.0739060640335083 1.0732604265213013 1.0697767734527588 1.0704265832901 1.078338623046875 1.0694811344146729 1.0881611108779907 1.084465742111206 1.072983741760254 1.0716586112976074 1.0737638473510742 1.0702261924743652 1.0729057788848877 1.07887601852417 1.0989192724227905 1.0734208822250366 1.0738410949707031 1.0696550607681274 1.0734102725982666 1.072739601135254 1.0730289220809937 1.0712627172470093 1.0696548223495483 1.074328899383545 1.1030036211013794 1.0692660808563232 1.1019415855407715 1.0694719552993774 1.0689353942871094 1.092119812965393 1.0727293491363525 1.068463921546936 1.0689523220062256 1.0708255767822266 1.0899664163589478 1.074317216873169 1.0697299242019653 1.0777753591537476 1.0707855224609375 1.0700936317443848 1.0752372741699219 1.0714848041534424 1.079406976699829 1.0770339965820312 1.068977952003479 1.072440505027771 1.0798348188400269 1.069266438484192 1.0720298290252686
e72 1.0565452575683594 1.0582149028778076 1.0558199882507324 1.0800846815109253 1.0609484910964966 1.059865951538086 1.0546759366989136 1.0646203756332397 1.0749549865722656 1.0551936626434326 1.0568580627441406 1.0602928400039673 1.0619118213653564 1.0637054443359375 1.0586869716644287 1.060592770576477 1.059944987297058 1.0564545392990112 1.0571051836013794 1.06504487991333 1.0561586618423462 1.0749508142471313 1.0712175369262695 1.0596675872802734 1.0583393573760986 1.0604503154754639 1.056904673576355 1.0595896244049072 1.0655856132507324 1.085868239402771 1.0601059198379517 1.0605274438858032 1.0563327074050903 1.0600954294204712 1.0594228506088257 1.0597128868103027 1.057942509651184 1.0563323497772217 1.0610170364379883 1.0900330543518066 1.0559431314468384 1.0889489650726318 1.0561494827270508 1.055612564086914 1.0789594650268555 1.0594125986099243 1.0551406145095825 1.0556292533874512 1.0575047731399536 1.076777696609497 1.0610052347183228 1.0564076900482178 1.0644786357879639 1.057464599609375 1.0567717552185059 1.0619287490844727 1.0581653118133545 1.0661195516586304 1.0637333393096924 1.0556548833847046 1.059122920036316 1.0665502548217773 1.0559438467025757 1.0587115287780762
e73 1.067671537399292 1.0692980289459229 1.0669645071029663 1.0904697179794312 1.0719584226608276 1.070905327796936 1.0658488273620605 1.0755259990692139 1.0855278968811035 1.0663535594940186 1.0679763555526733 1.0713207721710205 1.0728950500488281 1.0746376514434814 1.0697579383850098 1.0716124773025513 1.0709823369979858 1.0675832033157349 1.0682172775268555 1.075938105583191 1.0672944784164429 1.0855239629745483 1.081917643547058 1.0707124471664429 1.0694193840026855 1.0714737176895142 1.0680216550827026 1.0706363916397095 1.0764623880386353 1.096022605895996 1.0711389780044556 1.0715491771697998 1.0674642324447632 1.0711286067962646 1.0704742670059204 1.0707565546035767 1.0690330266952515 1.067463994026184 1.072025179862976 1.1000075340270996 1.067084789276123 1.0989712476730347 1.0672857761383057 1.0667622089385986 1.08938729763031 1.0704641342163086 1.0663020610809326 1.066778540611267 1.0686064958572388 1.0872857570648193 1.0720136165618896 1.0675374269485474 1.0753884315490723 1.0685672760009766 1.0678921937942505 1.0729116201400757 1.0692498683929443 1.076980710029602 1.074664831161499 1.0668036937713623 1.0701823234558105 1.0773981809616089 1.0670852661132812 1.06978178024292
e74 1.0766054391860962 1.0782265663146973 1.0759004354476929 1.0992614030838013 1.0808764696121216 1.0798277854919434 1.0747877359390259 1.0844271183013916 1.0943629741668701 1.0752911567687988 1.0769091844558716 1.0802414417266846 1.0818090438842773 1.0835434198379517 1.078684687614441 1.0805319547653198 1.079904556274414 1.076517105102539 1.0771492719650269 1.0848370790481567 1.0762296915054321 1.0943589210510254 1.0907796621322632 1.0796356201171875 1.0783474445343018 1.08039391040802 1.0769546031951904 1.0795599222183228 1.0853586196899414 1.104757308959961 1.0800604820251465 1.080468773841858 1.0763987302780151 1.0800501108169556 1.0793983936309814 1.0796794891357422 1.0779623985290527 1.076398491859436 1.0809428691864014 1.1086959838867188 1.0760204792022705 1.1076723337173462 1.0762207508087158 1.0756986141204834 1.098189115524292 1.0793882608413696 1.075239896774292 1.0757150650024414 1.077537178993225 1.0961062908172607 1.0809316635131836 1.0764714479446411 1.0842903852462769 1.0774983167648315 1.0768253803253174 1.0818254947662354 1.0781784057617188 1.0858738422393799 1.0835703611373901 1.0757399797439575 1.0791075229644775 1.0862889289855957 1.0760209560394287 1.0787084102630615
e75 1.0674909353256226 1.0691126585006714 1.0667859315872192 1.090217113494873 1.0717648267745972 1.0707149505615234 1.0656734704971313 1.0753214359283447 1.0852915048599243 1.0661768913269043 1.067794680595398 1.0711290836334229 1.0726984739303589 1.074435830116272 1.0695708990097046 1.0714200735092163 1.0707916021347046 1.067402720451355 1.0680350065231323 1.0757321119308472 1.067115068435669 1.0852874517440796 1.0816926956176758 1.0705227851867676 1.0692335367202759 1.0712817907333374 1.0678399801254272 1.0704468488693237 1.076254963874817 1.0957520008087158 1.0709480047225952 1.0713567733764648 1.0672842264175415 1.0709375143051147 1.0702850818634033 1.0705666542053223 1.0688483715057373 1.0672839879989624 1.0718313455581665 1.0997244119644165 1.0669058561325073 1.098691463470459 1.0671061277389526 1.0665842294692993 1.089138150215149 1.070275068283081 1.0661253929138184 1.0666005611419678 1.0684230327606201 1.0870435237884521 1.0718200206756592 1.067357063293457 1.0751842260360718 1.068384051322937 1.0677109956741333 1.0727150440216064 1.0690644979476929 1.0767714977264404 1.074462890625 1.0666254758834839 1.0699942111968994 1.0771876573562622 1.066906452178955 1.0695948600769043
e76 1.0620449781417847 1.0636928081512451 1.061328649520874 1.0852055549621582 1.0663899183273315 1.0653220415115356 1.0601987838745117 1.0700091123580933 1.0801734924316406 1.0607099533081055 1.0623536109924316 1.065743088722229 1.0673396587371826 1.0691075325012207 1.0641587972640991 1.066038966178894 1.0654001235961914 1.0619553327560425 1.062597632408142 1.070427417755127 1.061663031578064 1.080169439315796 1.0765016078948975 1.0651264190673828 1.063815712928772 1.0658982992172241 1.0623995065689087 1.0650492906570435 1.0709596872329712 1.0908677577972412 1.0655590295791626 1.0659748315811157 1.0618349313735962 1.065548300743103 1.064885139465332 1.0651711225509644 1.0634242296218872 1.0618345737457275 1.0664575099945068 1.0949370861053467 1.061450481414795 1.0938785076141357 1.061653971672058 1.0611236095428467 1.0841025114059448 1.0648747682571411 1.0606577396392822 1.0611404180526733 1.0629920959472656 1.0819624662399292 1.0664457082748413 1.0619089603424072 1.0698693990707397 1.0629525184631348 1.062268614768982 1.0673564672470093 1.0636440515518188 1.0714857578277588 1.0691351890563965 1.0611658096313477 1.064589023590088 1.0719096660614014 1.0614509582519531 1.064182996749878
e77 1.0693978071212769 1.0710657835006714 1.0686728954315186 1.0927711725234985 1.073793649673462 1.072713851928711 1.0675288438796997 1.0774517059326172 1.0877060890197754 1.0680464506149292 1.0697104930877686 1.0731397867202759 1.0747541189193726 1.0765409469604492 1.0715372562408447 1.0734388828277588 1.0727927684783936 1.0693072080612183 1.0699573755264282 1.0778743028640747 1.0690114498138428 1.0877019166946411 1.0840049982070923 1.0725159645080566 1.0711899995803833 1.0732966661453247 1.0697569847106934 1.0724382400512695 1.0784120559692383 1.0984625816345215 1.0729533433914185 1.0733739137649536 1.0691853761672974 1.072942852973938 1.072271704673767 1.0725611448287964 1.070793867111206 1.0691851377487183 1.0738619565963745 1.1025480031967163 1.0687962770462036 1.1014854907989502 1.0690022706985474 1.0684654712677002 1.0916616916656494 1.0722615718841553 1.0679936408996582 1.0684822797775269 1.0703566074371338 1.0895076990127563 1.0738502740859985 1.0692603588104248 1.0773106813430786 1.0703164339065552 1.0696243047714233 1.0747709274291992 1.0710164308547974 1.078943133354187 1.076568841934204 1.0685080289840698 1.071972370147705 1.0793713331222534 1.0687967538833618 1.0715616941452026
e78 1.0734634399414062 1.075104832649231 1.0727496147155762 1.0964068174362183 1.077788233757019 1.0767263174057007 1.0716230869293213 1.0813837051391602 1.0914456844329834 1.0721328258514404 1.0737709999084473 1.0771453380584717 1.0787326097488403 1.080488920211792 1.075568675994873 1.0774394273757935 1.0768039226531982 1.0733742713928223 1.0740140676498413 1.0817989110946655 1.0730828046798706 1.0914417505264282 1.087816834449768 1.0765316486358643 1.07522714138031 1.0772995948791504 1.0738168954849243 1.0764551162719727 1.0823270082473755 1.1019729375839233 1.076961874961853 1.0773755311965942 1.0732542276382446 1.076951503753662 1.0762913227081299 1.0765762329101562 1.0748374462127686 1.0732539892196655 1.0778554677963257 1.1059622764587402 1.0728709697723389 1.1049253940582275 1.0730738639831543 1.0725454092025757 1.095320701599121 1.0762813091278076 1.0720807313919067 1.0725619792938232 1.0744071006774902 1.0932111740112305 1.0778440237045288 1.0733280181884766 1.0812453031539917 1.0743675231933594 1.073686122894287 1.0787492990493774 1.0750561952590942 1.0828487873077393 1.0805162191390991 1.0725873708724976 1.0759971141815186 1.0832692384719849 1.0728716850280762 1.0755927562713623
e79 1.0748708248138428 1.076500415802002 1.074162244796753 1.0976518392562866 1.0791642665863037 1.0781102180480957 1.0730440616607666 1.0827341079711914 1.0927249193191528 1.0735501050949097 1.0751762390136719 1.0785259008407593 1.0801018476486206 1.0818454027175903 1.0769609212875366 1.0788179636001587 1.078187108039856 1.074782371520996 1.0754176378250122 1.083146095275879 1.074493169784546 1.0927209854125977 1.0891215801239014 1.0779168605804443 1.0766218900680542 1.0786792039871216 1.0752217769622803 1.077840805053711 1.0836703777313232 1.1031806468963623 1.0783439874649048 1.0787545442581177 1.0746631622314453 1.0783336162567139 1.0776784420013428 1.0779609680175781 1.076235055923462 1.0746629238128662 1.0792310237884521 1.1071432828903198 1.0742830038070679 1.1061131954193115 1.0744842290878296 1.0739595890045166 1.0965731143951416 1.077668309211731 1.0734983682632446 1.0739760398864746 1.0758075714111328 1.0944782495498657 1.0792195796966553 1.074736475944519 1.0825963020324707 1.0757684707641602 1.075092077255249 1.0801182985305786 1.0764521360397339 1.0841885805130005 1.0818727016448975 1.0740011930465698 1.0773861408233643 1.0846059322357178 1.074283480644226 1.0769848823547363
e80 1.0731165409088135 1.0747579336166382 1.0724025964736938 1.0960619449615479 1.0774412155151367 1.076379418373108 1.071276068687439 1.081036925315857 1.0911000967025757 1.071785807609558 1.073423981666565 1.0767982006072998 1.0783857107162476 1.0801419019699097 1.0752218961715698 1.0770924091339111 1.076456904411316 1.07302725315094 1.073667049407959 1.0814520120620728 1.0727359056472778 1.0910959243774414 1.087470531463623 1.0761847496032715 1.0748803615570068 1.076952576637268 1.073469877243042 1.0761079788208008 1.0819801092147827 1.1016297340393066 1.0766149759292603 1.0770286321640015 1.0729072093963623 1.0766044855117798 1.0759445428848267 1.076229214668274 1.0744903087615967 1.0729069709777832 1.077508568763733 1.1056206226348877 1.072524070739746 1.1045831441879272 1.072727084159851 1.072198510169983 1.0949755907058716 1.0759342908859253 1.071733832359314 1.072214961051941 1.074060082435608 1.0928658246994019 1.0774970054626465 1.0729808807373047 1.0808982849121094 1.0740203857421875 1.0733392238616943 1.0784022808074951 1.074709177017212 1.082502007484436 1.0801693201065063 1.0722403526306152 1.0756499767303467 1.0829224586486816 1.0725245475769043 1.075245976448059
e81 1.0730007886886597 1.0746036767959595 1.072304129600525 1.0954214334487915 1.0772238969802856 1.0761866569519043 1.071204423904419 1.0807359218597412 1.0905697345733643 1.071702003479004 1.0733011960983276 1.0765957832336426 1.0781461000442505 1.0798615217208862 1.075056552886963 1.0768831968307495 1.0762625932693481 1.0729137659072876 1.0735385417938232 1.0811413526535034 1.072629451751709 1.0905656814575195 1.087022304534912 1.07599675655365 1.0747230052947998 1.0767465829849243 1.0733460187911987 1.075921893119812 1.0816574096679688 1.1008678674697876 1.0764168500900269 1.076820731163025 1.0727965831756592 1.076406717300415 1.0757620334625244 1.0760400295257568 1.0743423700332642 1.07279634475708 1.077289342880249 1.1047741174697876 1.0724226236343384 1.103758454322815 1.0726206302642822 1.0721046924591064 1.0943589210510254 1.0757521390914917 1.0716512203216553 1.0721207857131958 1.0739221572875977 1.0922960042953491 1.0772781372070312 1.0728687047958374 1.080600380897522 1.0738836526870728 1.0732184648513794 1.0781623125076294 1.0745558738708496 1.082167148590088 1.0798882246017456 1.0721455812454224 1.0754746198654175 1.0825778245925903 1.0724231004714966 1.0750800371170044
e82 1.0714024305343628 1.0730427503585815 1.07068932056427 1.0943458080291748 1.075724482536316 1.0746631622314453 1.069563865661621 1.079318642616272 1.0893816947937012 1.0700730085372925 1.0717098712921143 1.0750815868377686 1.0766682624816895 1.0784238576889038 1.073506236076355 1.0753757953643799 1.0747405290603638 1.0713131427764893 1.0719527006149292 1.0797334909439087 1.0710222721099854 1.089377760887146 1.0857516527175903 1.0744684934616089 1.0731648206710815 1.0752359628677368 1.0717556476593018 1.0743920803070068 1.0802615880966187 1.0999174118041992 1.0748984813690186 1.0753117799758911 1.0711932182312012 1.074887990951538 1.0742284059524536 1.0745128393173218 1.0727754831314087 1.0711932182312012 1.0757914781570435 1.1039113998413086 1.0708106756210327 1.1028733253479004 1.0710134506225586 1.070485234260559 1.0932589769363403 1.0742182731628418 1.070021152496338 1.0705018043518066 1.07234525680542 1.0911481380462646 1.0757800340652466 1.0712671279907227 1.0791798830032349 1.0723057985305786 1.0716251134872437 1.076684832572937 1.0729942321777344 1.0807833671569824 1.078451156616211 1.0705270767211914 1.0739343166351318 1.0812036991119385 1.0708112716674805 1.0735303163528442
